tree
version=v4
num_class=1
num_tree_per_iteration=1
label_index=0
max_feature_idx=180
objective=binary sigmoid:1
feature_names=82 83 84 85 86 87 88 89 90 91 92 93 94 95 96 97 98 99 100 101 102 103 104 105 106 107 108 109 110 111 112 113 114 115 116 117 282 283 284 285 286 287 288 289 290 291 292 293 294 295 296 297 298 299 300 301 302 303 304 305 306 307 308 309 310 311 312 313 314 315 316 317 482 483 484 485 486 487 488 489 490 491 492 493 494 495 496 497 498 499 500 501 502 503 504 505 506 507 508 509 510 511 512 513 514 515 516 517 682 683 684 685 686 687 688 689 690 691 692 693 694 695 696 697 698 699 700 701 702 703 704 705 706 707 708 709 710 711 712 713 714 715 716 717 882 883 884 885 886 887 888 889 890 891 892 893 894 895 896 897 898 899 900 901 902 903 904 905 906 907 908 909 910 911 912 913 914 915 916 917 1000
feature_infos=-1:4:2:3:1:0 -1:3:4:2:1 -1:3:2:4:1 -1:3:2:4:1 -1:2:3:4:1 -1:2:4:3:1 -1:2:4:1:3 -1:2:1:4:3 -1:2:4:3:1 -1:1:3:4:2 -1:3:2:4:1 -1:2:4:1:3 -1:3:4:1:2 -1:2:4:3:1 -1:2:4 -1:2:1:4:3 -1:2:4:1:3 -1:2:3 -1:4:1:2:3 -1:3:1:4:2 -1:3:2:1:4 -1:4:1:2:3 -1:3:4:1:2 -1:3:2:4:1 -1:2:4:1:3 -1:2:4:1:3 -1:3:1:2:4 -1:2:3:4:1 -1:1:3:2:4 -1:3:2:1:4 -1:3:2:4:1 -1:3:2:4:1 -1:3:2:1:4 -1:3:1:2:4 -1:2:3:1:4:0 -1:1:2:4:3:0 [30.979999542236328:38.049999237060547] [30.979999542236328:38.049999237060547] [30.979999542236328:38.049999237060547] [30.979999542236328:38.049999237060547] [30.979999542236328:38.049999237060547] [30.979999542236328:38.049999237060547] [30.940000534057617:38.049999237060547] [30.979999542236328:38.049999237060547] [30.979999542236328:38.049999237060547] [30.979999542236328:38.049999237060547] [30.940000534057617:38.049999237060547] [30.979999542236328:37.880001068115234] [30.979999542236328:38.049999237060547] [31.020000457763672:38.049999237060547] [31.139999389648438:37.369998931884766] [30.979999542236328:36.509998321533203] [30.979999542236328:37.770000457763672] [30.979999542236328:37.569999694824219] [30.979999542236328:37.049999237060547] [30.979999542236328:37.849998474121094] [30.979999542236328:38.049999237060547] [30.979999542236328:37.880001068115234] [30.940000534057617:38.049999237060547] [30.979999542236328:38.049999237060547] [30.979999542236328:37.880001068115234] [30.940000534057617:38.049999237060547] [30.979999542236328:38.049999237060547] [30.979999542236328:38.049999237060547] [30.979999542236328:38.049999237060547] [30.940000534057617:38.049999237060547] [30.940000534057617:38.049999237060547] [30.979999542236328:38.049999237060547] [30.979999542236328:38.049999237060547] [30.979999542236328:38.049999237060547] [30.940000534057617:38.049999237060547] [30.940000534057617:38.049999237060547] [2.8499999046325684:6.1999998092651367] [2.8499999046325684:6.1999998092651367] [2.8499999046325684:6.1999998092651367] [2.8499999046325684:6.1999998092651367] [2.8499999046325684:6.1999998092651367] [2.8499999046325684:6.1999998092651367] [2.8499999046325684:6.1999998092651367] [2.8499999046325684:6.1999998092651367] [2.8499999046325684:6.1999998092651367] [2.8499999046325684:6.1999998092651367] [2.8499999046325684:6.1999998092651367] [2.8499999046325684:6.1999998092651367] [2.8499999046325684:6.1999998092651367] [3.3399999141693115:6.1999998092651367] [3.3399999141693115:6.1999998092651367] [4.2699999809265137:6.0199999809265137] [4.3299999237060547:5.8400001525878906] [3.3399999141693115:6.0100002288818359] [3.3499999046325684:6.1999998092651367] [3.6800000667572021:6.1999998092651367] [2.8499999046325684:6.1100001335144043] [2.8499999046325684:6.1999998092651367] [2.8499999046325684:6.1999998092651367] [2.8499999046325684:6.1999998092651367] [2.8499999046325684:6.1999998092651367] [2.8499999046325684:6.1999998092651367] [2.8499999046325684:6.1999998092651367] [2.8499999046325684:6.1999998092651367] [2.8499999046325684:6.1999998092651367] [2.8499999046325684:6.1999998092651367] [2.8499999046325684:6.1999998092651367] [2.8499999046325684:6.1999998092651367] [2.8499999046325684:6.1999998092651367] [2.8499999046325684:6.1999998092651367] [2.8499999046325684:6.1999998092651367] [2.8499999046325684:6.1999998092651367] [-16.510000228881836:-0.029999999329447746] [-16.510000228881836:-0.029999999329447746] [-16.510000228881836:-0.029999999329447746] [-16.510000228881836:-0.029999999329447746] [-16.510000228881836:-0.029999999329447746] [-16.510000228881836:-0.029999999329447746] [-16.510000228881836:-0.029999999329447746] [-16.510000228881836:-0.029999999329447746] [-16.510000228881836:-0.029999999329447746] [-16.510000228881836:-0.029999999329447746] [-16.510000228881836:-0.029999999329447746] [-16.510000228881836:-0.029999999329447746] [-16.510000228881836:-0.029999999329447746] [-16.510000228881836:-0.029999999329447746] [-16.510000228881836:-0.029999999329447746] [-13.159999847412109:-0.029999999329447746] [-12.029999732971191:-0.89999997615814209] [-10.390000343322754:-0.029999999329447746] [-13.050000190734863:-0.029999999329447746] [-14.680000305175781:-0.029999999329447746] [-16.510000228881836:-0.029999999329447746] [-16.510000228881836:-0.029999999329447746] [-16.510000228881836:-0.029999999329447746] [-16.510000228881836:-0.029999999329447746] [-16.510000228881836:-0.029999999329447746] [-16.510000228881836:-0.029999999329447746] [-16.510000228881836:-0.029999999329447746] [-16.510000228881836:-0.029999999329447746] [-16.510000228881836:-0.029999999329447746] [-16.510000228881836:-0.029999999329447746] [-16.510000228881836:-0.029999999329447746] [-16.510000228881836:-0.029999999329447746] [-16.510000228881836:-0.029999999329447746] [-16.510000228881836:-0.029999999329447746] [-16.510000228881836:-0.029999999329447746] [-16.510000228881836:-0.029999999329447746] [-8.5699996948242188:8.6400003433227539] [-8.5699996948242188:8.6400003433227539] [-8.5699996948242188:8.6400003433227539] [-8.5699996948242188:8.6400003433227539] [-8.5699996948242188:8.6400003433227539] [-8.5699996948242188:8.6400003433227539] [-8.5699996948242188:8.6400003433227539] [-8.5699996948242188:8.6400003433227539] [-8.5699996948242188:8.6400003433227539] [-8.5699996948242188:8.6400003433227539] [-8.5699996948242188:8.6400003433227539] [-8.5699996948242188:8.6400003433227539] [-7.5300002098083496:8.1700000762939453] [-6.5799999237060547:0.5899999737739563] [-5.6599998474121094:8.0299997329711914] [-5.0500001907348633:5.619999885559082] [-4.8299999237060547:6.1500000953674316] [-4.929999828338623:6.940000057220459] [-6.5399999618530273:7.7899999618530273] [-6.9499998092651367:7.440000057220459] [-7.5300002098083496:8.3199996948242188] [-7.5300002098083496:8.6400003433227539] [-8.5699996948242188:8.6400003433227539] [-8.5699996948242188:8.3199996948242188] [-8.5699996948242188:8.6400003433227539] [-8.5699996948242188:8.6400003433227539] [-8.5699996948242188:8.6400003433227539] [-8.5699996948242188:8.6400003433227539] [-8.5699996948242188:8.6400003433227539] [-8.5699996948242188:8.6400003433227539] [-8.5699996948242188:8.6400003433227539] [-8.5699996948242188:8.6400003433227539] [-8.5699996948242188:8.6400003433227539] [-8.5699996948242188:8.6400003433227539] [-8.5699996948242188:8.6400003433227539] [-8.5699996948242188:8.6400003433227539] [7.554048193718875e-15:0.0097198504954576492]
tree_sizes=5398 5553 5538 5528 5533 5537 5547 5567 5531 5517 5543 5532 5539 5546 5559 5491 5531 5526 5542 5554 5520 5501 5554

Tree=0
num_leaves=50
num_cat=2
split_feature=180 127 180 162 130 180 87 20 55 159 96 180 180 162 21 55 152 127 89 87 126 132 60 132 133 180 127 131 92 108 65 143 51 52 162 133 171 152 163 123 43 114 101 123 57 167 150 130 120
split_gain=14149 443.319 425.634 336.599 251.099 207.675 164.999 155.085 101.232 181.888 93.9501 83.5846 80.0932 78.6935 75.6971 68.8499 68.2982 62.2085 58.8737 58.6864 56.7697 54.0208 48.8478 46.5337 45.9809 43.0609 63.7219 40.8872 40.8755 39.9596 39.8257 39.7752 39.6799 35.3665 34.5614 34.3829 32.2075 32.0507 31.4541 31.3315 31.1967 30.4975 29.5469 29.2785 28.8017 27.0117 26.6251 26.3496 26.2553
threshold=2.8520146599930745e-07 -3.1800000667572017 2.9621349995068162e-06 -3.0549999475479122 -0.084999999962747083 1.8533549450694411e-07 5.2650001049041757 0 31.48499965667725 2.4000000953674321 4.0400002002716073 4.0355995167828956e-07 1.4140656645622587e-07 -2.754999995231628 1 33.534999847412116 2.9450000524520878 -6.0850000381469718 4.8150000572204599 4.9100000858306894 -5.379999876022338 -6.4049999713897696 35.625000000000007 -6.9900000095367423 -4.3599998950958243 3.7491503235287391e-09 -6.1549999713897696 -7.2850000858306876 5.2149999141693124 -6.569999933242797 31.045000076293949 -3.6099998950958248 33.364999771118171 34.879999160766609 3.6950000524520878 -6.7449998855590811 5.3900001049041757 -0.92500001192092884 -2.1850000619888301 -5.0350000858306876 33.645000457763679 -6.1600000858306876 4.4399998188018808 -6.8900001049041739 33.645000457763679 -1.3550000190734861 -3.3749999999999996 -7.3350000381469718 -4.9549999237060538
decision_type=2 2 2 2 2 2 2 1 2 2 8 2 2 2 1 2 10 2 2 2 2 10 10 10 8 2 2 10 2 10 8 10 2 2 2 10 10 8 2 2 10 10 10 2 2 10 10 2 2
left_child=1 4 10 19 5 8 12 18 9 21 36 33 38 20 23 39 29 37 -8 44 47 -1 -23 -7 -15 -18 41 -11 43 30 32 46 -10 -12 -25 -16 -2 -13 -5 -6 -28 -27 -33 -24 -3 -21 -31 -9 -14
right_child=2 3 -4 6 15 14 7 13 16 27 11 17 48 24 35 -17 25 -19 -20 45 -22 22 28 34 -26 26 40 -29 -30 31 -32 42 -34 -35 -36 -37 -38 -39 -40 -41 -42 -43 -44 -45 -46 -47 -48 -49 -50
leaf_value=0.56763749869091951 0.73882632128799863 0.74012622837802877 0.8368479949449652 0.56785522786151943 0.62183468318529411 0.55488739151984867 0.5232583955246819 0.61159299096081488 0.8384858648569693 0.50917606871602306 0.77230250273810896 0.79563488990676967 0.64033899667300043 0.61074664870642437 0.65894575618693629 0.59930296029143992 0.58802575356611708 0.77795367924539527 0.82211666446399823 0.83344746528320934 0.56319047291361879 0.61707643114559818 0.56744776585530121 0.68436765861757676 0.68075384362611979 0.49772480587064699 0.53865682764256129 0.79645553561266424 0.45796760759362709 0.56362075228853326 0.58231120444570394 0.55819546585150737 0.48664434582216881 0.71131473104127019 0.56305627563610916 0.74515301813310475 0.58086791428737738 0.83198741755941397 0.61476558873248011 0.82131936358311164 0.61044897214850602 0.55949555836142983 0.6335552206547429 0.7992720009743961 0.53074899489098981 0.65072150740818413 0.60007908424619871 0.78564470199576619 0.74132109247088462
leaf_weight=181.74375289678574 23.078571796417236 17.75274753570557 3396.7663316130638 186.18193978071213 8.8763737678527814 69.457624733448029 7.1010990142822257 9.7640111446380597 11.539285898208616 5.325824260711669 195.05831354856491 537.68634098768234 45.935234248638153 238.99636369943619 75.449177026748657 22.190934419631958 440.71195757389069 1182.1110765337944 91.870468497276306 124.04732340574265 16.199382126331329 178.63702207803726 6.4353709816932669 100.74684226512909 154.44890356063843 229.23235255479813 94.97719931602478 71.010990142822266 4.8820055723190299 238.77445435523987 2245.5006539225578 58.14024817943573 4.4381868839263907 185.51621174812317 30.623489499092102 119.60913652181625 29.292033433914185 441.82150429487228 615.3546114563942 69.679534077644348 166.87582683563232 122.71586734056473 494.85783755779266 35.505495071411133 10.429739177227018 8.6544644236564618 1243.3580555319786 79.665454566478729 58.584066867828369
leaf_count=819 104 80 15307 839 40 313 32 44 52 24 879 2423 207 1077 340 100 1986 5327 414 559 73 805 29 454 696 1033 428 320 22 1076 10119 262 20 836 138 539 132 1991 2773 314 752 553 2230 160 47 39 5603 359 264
internal_value=0.697362 0.610304 0.813553 0.656219 0.59823 0.595697 0.641514 0.682282 0.590942 0.63476 0.783056 0.785788 0.614606 0.659561 0.665787 0.754841 0.586982 0.793396 0.791193 0.793697 0.73544 0.608205 0.640907 0.624706 0.638228 0.564178 0.547055 0.776413 0.731824 0.592579 0.583431 0.602745 0.740752 0.742573 0.656089 0.711103 0.650477 0.812032 0.603869 0.798779 0.584409 0.519263 0.625632 0.763701 0.66264 0.821531 0.594206 0.766642 0.69694
internal_weight=0 7996.28 5991.33 1664.99 6331.3 6230.55 1504.1 598.046 5834.66 483.54 2594.56 2542.19 906.056 499.074 395.886 100.747 5351.12 2161.62 98.9716 160.884 105.629 407.204 225.46 200.828 393.445 1054.51 613.801 76.3368 46.8229 4296.61 2261.48 2035.13 15.9775 380.575 131.37 195.058 52.3706 979.508 801.537 78.5559 261.853 351.948 552.998 41.9409 28.1825 132.702 1482.13 89.4295 104.519
internal_count=63033 36034 26999 7503 28531 28077 6778 2695 26293 2179 11692 11456 4083 2249 1784 454 24114 9741 446 725 476 1835 1016 905 1773 4752 2766 344 211 19362 10191 9171 72 1715 592 879 236 4414 3612 354 1180 1586 2492 189 127 598 6679 403 471
cat_boundaries=0 1 2
cat_threshold=2 16
is_linear=0
shrinkage=1


Tree=1
num_leaves=50
num_cat=1
split_feature=180 180 127 162 130 180 87 20 56 130 128 180 152 162 55 87 152 89 132 126 134 82 159 133 180 127 96 57 129 180 169 91 97 123 180 163 180 133 132 52 171 49 94 91 166 129 180 167 167
split_gain=11634.7 367.411 334.995 275.906 192.942 190.165 124.652 127.686 84.1965 77.8683 156.239 73.5549 65.155 62.1973 57.183 51.2154 49.0201 48.7974 47.4443 45.6567 44.7364 42.9699 40.8443 40.8004 37.0049 52.6977 35.8787 35.6757 31.8762 31.5427 29.4329 29.1718 28.5655 26.8615 26.7786 26.6121 26.4716 26.2707 26.0277 25.8827 25.6406 25.585 25.4832 33.6851 25.4174 25.1933 24.9384 24.3286 23.5636
threshold=3.0051491251015255e-07 2.9621349995068162e-06 -3.1800000667572017 -3.0549999475479122 -0.084999999962747083 2.2589849635323847e-07 5.2650001049041757 0 31.48499965667725 -1.1150000095367429 -2.4999999999999996 1.6851662110184409e-07 3.0049999952316289 -2.754999995231628 33.534999847412116 4.9100000858306894 2.7749999761581425 4.8150000572204599 -4.0500001907348624 -5.379999876022338 -3.4550000429153438 4.3399999141693124 2.685000061988831 -0.084999999962747083 2.2780383135412312e-09 -6.0850000381469718 4.1849999427795419 33.664999008178718 -5.2999999523162833 1.4140656645622587e-07 -2.9050000905990596 5.5850000381469735 5.8450000286102304 -5.0350000858306876 4.2316983694945526e-07 -2.1850000619888301 7.4971561048187151e-07 -7.4749999046325675 -3.5899999141693111 36.414999008178718 5.3900001049041757 35.215000152587898 5.5250000953674325 5.680000066757203 -2.5849999189376827 -6.3400001525878897 8.6911097696429362e-07 -2.445000052452087 -0.7849999964237212
decision_type=2 2 2 2 2 2 2 1 2 2 2 2 10 2 2 2 8 2 10 2 10 10 2 10 2 2 8 2 2 2 8 2 10 2 2 2 2 10 8 2 10 2 2 2 2 2 2 8 10
left_child=2 8 4 15 5 9 11 17 21 12 22 35 20 19 33 -4 26 -8 28 44 31 -2 37 29 -14 47 40 30 -7 -22 -15 32 -1 -6 39 -5 -28 -11 -37 -18 -10 -3 -33 -44 -9 -31 -23 -26 -17
right_child=1 41 3 6 14 18 7 13 16 10 -12 -13 24 27 -16 48 34 -19 -20 -21 23 46 -24 -25 25 -27 36 -29 -30 45 -32 42 -34 -35 -36 38 -38 -39 -40 -41 -42 -43 43 -45 -46 -47 -48 -49 -50
leaf_value=-0.096235756278317847 -0.039901462386552886 0.13529233982821182 -0.030772949795203255 -0.11204746722720359 -0.066269167123200398 -0.07554970446690662 -0.14837380409701709 -0.12491068997684018 0.037969821066646987 -0.11725752884905938 0.11181273412582081 0.02030007552354925 -0.091454200003725783 -0.097178154918945894 -0.085432963630478087 0.12594027961656415 0.082424978331470194 0.11775664612946356 0.038032066715807333 -0.11563666202021346 -0.079834339380273289 0.027307109601950142 0.058966185315516367 0.058170039154667022 -0.18194980379619807 -0.096600034736591484 0.067037112330193979 -0.090628481128859739 0.027298049434436131 -0.070340153214497464 -0.011965934760294157 -0.079043199617907636 -0.13817720426692812 0.11696589624962668 0.1229984687899689 -0.085659479300284391 0.09518077933480118 -0.060994415838855946 -0.044366804837063706 -0.08848704869829481 -0.12689712098295591 0.10443725141221023 -0.08989892055423028 0.10465622035888432 0.079468572643252466 0.034046321853439955 0.076961961507914872 -0.13324442781327975 -0.10146694492535971
leaf_weight=2819.094413459301 55.413924559950829 2932.002955198288 28.452891603112221 200.3714479804039 9.0923553705215436 102.78430336713791 7.476454257965087 6.5814612805843344 38.736373722553253 127.97566123306751 52.051848918199539 79.677195951342583 396.14223937690258 50.643873289227486 22.883068025112152 123.3895630389452 71.130966618657112 87.808394104242325 128.30999106168747 16.876051694154739 999.89413258433342 188.40934136509895 22.19211357831955 23.622345164418221 162.95668156445026 293.88470897078514 586.16106483340263 148.95945136249065 42.635750219225883 46.823744207620621 203.07027125358582 490.11190675199032 172.31436517834663 66.619308739900589 503.94901670515537 413.14612123370171 777.53507249057293 236.0887513011694 242.09670263528824 10.121421962976454 12.470015972852705 295.85731776058674 17.581514775753021 18.020869091153145 80.660969123244286 45.672530397772789 218.3789439201355 276.69320344924927 4.7312292605638495
leaf_count=12298 251 13904 127 869 40 455 32 30 179 558 238 360 1727 223 100 583 327 414 580 73 4365 872 101 106 700 1281 2713 658 193 206 900 2143 751 314 2367 1815 3619 1032 1064 46 55 1403 77 82 373 203 1015 1190 21
internal_value=0 0.110271 -0.0755254 -0.0358718 -0.0857439 -0.087858 -0.0487514 -0.0132612 0.0811769 -0.0914586 -0.0508262 -0.0715976 -0.0945491 -0.0333112 0.0530929 0.0905904 0.0900661 0.0876737 -0.00628925 0.0349259 -0.0892986 0.0427101 -0.0727434 -0.0718544 -0.116083 -0.129383 0.079998 -0.0517823 -0.0453957 -0.0746661 -0.0289751 -0.0948338 -0.0986517 0.0949609 0.114409 -0.0801553 0.0830837 -0.080772 -0.0704028 0.0611349 -0.00217934 0.132464 -0.0731092 0.00857911 0.0640505 -0.0187965 0.0539637 -0.151297 0.117543
internal_weight=0 5690.17 8267.39 1693.94 6573.45 6474.85 1537.37 602.077 2462.31 6201.12 438.308 935.291 5762.81 506.792 98.5947 156.574 2000.1 95.2848 273.73 104.118 4633.14 462.202 386.257 1116.01 1129.68 733.535 1414.9 402.674 145.42 1092.39 253.714 3517.12 2991.41 75.7117 585.201 855.614 1363.7 364.064 655.243 81.2524 51.2064 3227.86 525.714 35.6024 87.2424 92.4963 406.788 439.65 128.121
internal_count=63033 26751 36282 7542 28740 28286 6811 2703 11444 27058 1929 4108 25129 2257 454 731 9306 446 1228 476 20231 2138 1691 4880 4898 3171 6566 1781 648 4774 1123 15351 13049 354 2740 3748 6332 1590 2879 373 234 15307 2302 159 403 409 1887 1890 604
cat_boundaries=0 1
cat_threshold=2
is_linear=0
shrinkage=0.1


Tree=2
num_leaves=50
num_cat=2
split_feature=180 180 127 162 130 180 129 180 26 21 87 92 56 159 55 159 143 55 87 51 130 90 56 44 54 108 132 133 82 114 163 133 180 180 116 127 180 129 123 96 164 143 61 127 57 180 127 132 97
split_gain=9631.45 346.279 256.692 225.927 151.38 151.934 100.703 80.4258 76.8237 73.8644 69.0953 84.5545 64.4035 60.7377 60.527 106.005 54.6115 47.7891 44.8513 41.7442 41.0876 35.5501 35.3959 35.1312 34.0599 32.2976 31.1572 28.6998 28.1713 27.594 26.1168 25.9677 25.3785 25.1899 24.972 24.2704 24.1151 23.8384 23.1574 22.6894 22.5985 22.5451 22.3261 22.0704 21.9906 21.8664 32.5067 22.4237 22.2758
threshold=3.0051491251015255e-07 2.9621349995068162e-06 -3.1800000667572017 -3.0549999475479122 -0.084999999962747083 1.7687595743609566e-07 -0.084999999962747083 1.8533549450694411e-07 0 1 4.9449999332427987 4.7550001144409189 31.48499965667725 -2.8950001001358028 31.469999313354496 2.4600000381469731 -6.8100001811981192 33.534999847412116 4.9100000858306894 34.18499946594239 -1.2100000381469724 5.5950000286102304 35.48500061035157 33.885000228881843 33.895000457763679 -1.1150000095367429 -6.4949998855590811 -8.3099999427795392 4.5250000953674325 -4.3599998950958243 -2.2499999999999996 -0.084999999962747083 7.5210425620753094e-06 3.8620099473973829e-07 -6.3400001525878897 -7.4200000762939444 4.2316983694945526e-07 -6.0600001811981192 -5.0350000858306876 4.8250000476837167 -2.2150000333786006 -7.1050000190734854 35.614999771118171 -5.879999876022338 33.645000457763679 3.7491503235287391e-09 -6.6249999999999991 -5.879999876022338 5.1549999713897714
decision_type=2 2 2 2 2 2 2 2 9 1 2 2 2 2 2 2 8 2 2 2 2 2 2 8 2 8 8 10 8 8 2 10 2 2 8 2 2 2 2 8 2 8 10 2 2 2 2 10 10
left_child=2 8 4 18 5 14 7 10 23 24 -5 13 25 -12 15 20 21 38 44 -15 -1 31 -22 -2 -7 -10 41 -21 34 -18 -13 45 -3 -25 39 -26 -30 -32 -6 -14 -20 -11 -17 -35 -4 -16 48 -48 -47
right_child=1 32 3 6 17 9 -8 -9 12 26 11 30 28 19 16 42 29 -19 40 27 22 -23 -24 33 35 -27 -28 -29 36 -31 37 -33 -34 43 -36 -37 -38 -39 -40 -41 -42 -43 -44 -45 -46 46 47 -49 -50
leaf_value=-0.081943293144553411 0.069520093984283493 0.11036883300523692 0.041736059060106565 -0.072458736987063982 -0.058458933460470798 0.020971628431172451 0.11810183167123284 0.040416172617978863 0.02421853655071975 -0.086234365150073655 -0.066210049085441966 -0.10751340738501608 -0.072643295697840601 0.097281737625075429 -0.077606457888070801 0.1045670249328377 -0.081612793831483399 -0.075028230272388391 0.12445975302512308 -0.16670884915274123 0.094256937078532152 -0.11430636195837103 -0.051277907929066474 0.055184533650078138 -0.11739782212169259 -0.077422416750356493 0.044933408665743912 0.021099343760590489 0.033408375969888292 -0.061293745883961241 -0.083643720886448794 0.04084257032492123 0.13163396096006916 0.12505453104553316 0.091345129406908615 -0.049190830373206831 0.081249727936559171 -0.024686356061639998 0.11077183580726323 0.057410540127187562 -0.031259043981892401 0.018684000086567856 -0.1231636199217989 0.091190894709884771 -0.13811672820092211 -0.095452357698426693 -0.10172278538593223 -0.062600135869316037 -0.13586713037562451
leaf_weight=274.68781170248985 422.65305165946484 741.24980181455612 17.680970430374149 809.64287748932838 9.2663931846618635 41.729265198111534 37.742789447307587 97.8794946372509 196.82213121652603 39.283338099718094 55.236982420086861 75.995476320385933 36.365074962377548 94.502239599823952 954.53680694103241 50.291862934827805 1948.1936432570219 23.419617116451263 111.77559441328049 9.7446366995573026 26.720681220293045 665.99210950732231 44.614431217312813 92.232984721660614 89.813529923558235 37.166661351919174 151.91511124372482 49.31226110458374 126.12890042364597 1017.3825163096189 98.076714128255844 15.576729908585547 2310.6802445501089 445.70039287209511 27.365982800722122 124.47126598656178 639.90561285614967 228.03548240661621 63.474174231290817 21.255437314510345 10.167356640100477 42.790130421519279 4.7079572826623908 338.72976787388325 11.045239493250845 271.88966481387615 287.79398885369301 298.41689194738865 273.6383354216814
leaf_count=1174 2023 3714 80 3473 40 183 183 443 928 174 245 327 169 447 4059 234 8284 100 556 44 128 2825 191 431 387 167 688 226 593 4336 425 71 11593 2184 131 542 3093 998 314 102 48 191 21 1623 47 1151 1222 1269 1156
internal_value=0 0.104161 -0.06656 -0.0319289 -0.0753553 -0.0771635 -0.0432496 -0.0472602 0.0756072 -0.0235787 -0.0533014 -0.0279117 0.0540392 0.0237171 -0.0814437 -0.0438851 -0.0840708 0.0492128 0.0849951 0.0560649 -0.0643829 -0.094173 0.00323648 0.09249 -0.0593639 0.00807394 0.0173696 -0.0098898 0.0673124 -0.0746421 -0.0547202 -0.0877936 0.126469 0.104619 0.0126886 -0.0777785 0.0733726 -0.0424175 0.0892136 -0.0246682 0.111476 -0.0315337 0.0850734 0.110432 -0.0274174 -0.088754 -0.0981561 -0.081807 -0.115725
internal_weight=0 5436.26 8427.44 1706.84 6720.61 6624.45 1556.17 1518.43 2384.33 490.003 1420.55 610.904 1085.01 208.796 6134.44 401.023 5733.42 96.1602 150.669 153.559 346.023 2767.84 71.3351 1299.32 256.014 233.989 233.989 59.0569 851.021 2965.58 402.108 2101.85 3051.93 876.663 84.9865 214.285 766.035 326.112 72.7406 57.6205 121.943 82.0735 54.9998 784.43 28.7262 2086.28 1131.74 586.211 545.528
internal_count=63033 26751 36282 7542 28740 28286 6811 6628 11444 2165 6185 2712 5183 962 26121 1748 24373 454 731 717 1493 11753 319 6261 1112 1095 1053 270 4088 12620 1750 8928 15307 4238 402 929 3686 1423 354 271 604 365 255 3807 127 8857 4798 2491 2307
cat_boundaries=0 1 2
cat_threshold=10 16
is_linear=0
shrinkage=0.1


Tree=3
num_leaves=50
num_cat=2
split_feature=180 180 54 129 180 130 130 92 89 26 21 82 127 159 162 132 88 90 133 180 180 60 152 44 133 56 130 133 131 169 168 180 159 49 159 61 125 129 57 180 117 72 54 100 44 127 49 140 138
split_gain=8015.17 330.354 203.107 198.339 147.161 121.046 88.9282 100.996 120.385 76.8773 69.9545 58.7274 53.9479 53.0665 63.7823 50.5611 49.8726 45.2981 43.7278 40.8569 40.6417 38.603 37.7444 36.2936 35.2337 34.487 32.3086 36.44 31.7406 30.3521 26.8185 25.3533 25.102 25.0707 24.5828 24.2392 23.4893 23.451 25.3338 22.1774 23.1329 21.4327 20.8377 20.454 20.3544 20.2381 20.1324 20.1165 19.8865
threshold=3.0051491251015255e-07 3.48161256624735e-06 31.355000495910648 -1.1150000095367429 1.8533549450694411e-07 -0.084999999962747083 -5.4049999713897696 4.7950000762939462 5.3150000572204599 0 1 4.3399999141693124 -6.9900000095367423 -2.2649999856948848 3.9400000572204594 -6.8900001049041739 4.8849999904632577 5.2850000858306894 -0.084999999962747083 1.0187610754996969e-07 3.9759062708810697e-09 35.68499946594239 3.5649999380111699 33.885000228881843 -5.8250000476837149 31.48499965667725 -2.1650000810623165 -8.0050001144409162 -7.2850000858306876 3.5649999380111699 -1.314999997615814 3.8620099473973829e-07 -2.1800000667572017 34.594999313354499 -3.0349999666213985 34.774999618530281 -5.3250000476837149 -1.3250000476837156 33.475000381469734 1.6083993870097404e-07 -11.694999694824217 5.9349999427795419 33.929998397827156 4.9349999427795419 33.73500061035157 -5.879999876022338 35.215000152587898 -10.894999980926512 -3.4550000429153438
decision_type=2 2 2 2 2 2 2 2 2 9 1 10 2 2 2 8 2 2 10 2 2 8 10 10 8 2 2 8 10 10 10 2 2 2 2 8 2 2 2 2 8 8 2 10 8 2 2 8 10
left_child=2 9 3 6 5 12 39 8 21 23 -6 30 18 26 19 -12 -7 28 20 -15 47 29 -22 -2 43 -13 48 -28 -16 -8 -11 -25 -10 41 -17 42 -5 -29 -39 40 -1 -27 -18 -9 -40 -33 -3 -4 -14
right_child=1 46 4 36 10 16 7 24 32 11 15 25 13 14 17 34 35 -19 -20 -21 22 -23 -24 31 -26 33 27 37 -30 -31 -32 45 -34 -35 -36 -37 -38 38 44 -41 -42 -43 -44 -45 -46 -47 -48 -49 -50
leaf_value=0.02926785661773041 0.065638771465914944 0.12522198961825567 -0.039476570876512157 -0.005704567131038344 0.039769309876350446 -0.06466171692052973 0.11077170889767991 -0.12415562245582878 -0.07108440592725522 -0.05130156568901964 -0.091678179871049745 0.021249463430678711 -0.080013382552132292 -0.06110615432174981 -0.16684958723868479 -0.082768148360786928 -0.10218836653278292 -0.032174054647667379 0.056741955939287485 0.0029212834832978768 -0.085811056479895509 -0.15645589109956204 -0.12693357551527037 0.050398381749611788 -0.014851625617483289 0.08120014988892478 -0.090662734940935547 -0.046045447586583625 0.10075729181361037 -0.069487019710539846 0.07767528871898749 0.12031791895267441 0.0095107395028117755 0.039609158988376941 0.0043389375081710124 -0.051967295374262014 0.11886886909916937 0.089895960013732748 -0.097202679404778794 0.055811072755633497 -0.092069462886104958 -0.054514230934737701 0.12066130288106994 -0.054615855030227839 0.019215795529863425 0.088347145313794853 0.095114042571952856 -0.074542583181304412 -0.058836438317791409
leaf_weight=16.705541491508484 437.54570351541042 2489.4474755972624 190.50005236268044 17.653589874505997 164.00112190842628 34.184535294771194 142.24256965517998 69.808717414736748 85.697953701019287 75.112287595868111 118.93343585729599 201.27021133899689 1822.6090038865805 827.11116747558117 4.790484592318534 39.310174822807312 4.5138632208108893 79.774214670062065 22.894032210111618 113.31706243753433 1147.5293336957693 6.1579100638627997 277.09563754498959 89.860607579350471 139.6674497872591 574.87857550382614 153.68821972608566 345.08520573377609 59.262411117553711 9.9976152926683408 20.527636975049973 454.8170313090086 70.38379293680191 231.79953634738922 184.26345881819725 11.628437027335165 106.14810016751289 28.092566803097725 23.855227187275887 11.673576995730398 264.28775863349438 11.877006620168684 59.566955924034119 107.32691027224064 40.540243908762932 350.65044894814491 243.84615157544613 1158.5126655250788 586.01404803991318
leaf_count=72 2165 13285 795 83 750 150 696 293 366 338 504 964 7634 3487 20 172 19 336 103 480 4782 28 1130 429 594 2868 645 1455 281 46 100 2362 311 1148 818 56 546 136 101 53 1126 59 297 452 172 1754 1279 4836 2457
internal_value=0 0.0986387 -0.0589956 -0.0177548 -0.0647592 -0.0685305 -0.0336811 -0.0125574 0.0275882 0.07196 -0.0127102 0.050852 -0.0701935 -0.0628664 -0.0439061 -0.0378935 0.0355928 0.0181132 -0.0808942 -0.0533912 -0.0820303 0.0890055 -0.0938096 0.088579 -0.0524085 0.0583345 -0.0697193 -0.0487733 0.0807431 0.0989341 -0.0236187 0.100779 -0.0347407 0.0674532 -0.0109768 0.0808602 0.101105 -0.0340605 0.0106568 -0.079245 -0.0848557 0.078453 0.104964 -0.0820213 -0.0239113 0.1064 0.122536 -0.0695908 -0.0748611
internal_weight=0 5181.63 8544.83 1047.75 7497.07 6990.57 923.95 631.283 314.48 2448.34 506.508 1115.47 6880.67 4084.14 1084.26 342.507 109.894 143.827 2796.53 940.428 2773.64 158.398 1424.62 1332.87 316.803 1019.83 2999.88 591.261 64.0529 152.24 95.6399 895.328 156.082 818.555 223.574 75.7093 123.802 437.573 92.488 292.667 280.993 586.756 64.0808 177.136 64.3955 805.467 2733.29 1349.01 2408.62
internal_count=63033 26751 36282 4666 31616 29372 4037 2786 1447 12187 2244 5477 28850 17204 4604 1494 522 637 11646 3967 11543 770 5912 6710 1339 5039 12600 2509 301 742 438 4545 677 4075 990 372 629 1864 409 1251 1198 2927 316 745 273 4116 14564 5631 10091
cat_boundaries=0 1 2
cat_threshold=10 12
is_linear=0
shrinkage=0.1


Tree=4
num_leaves=50
num_cat=1
split_feature=180 180 180 54 129 130 159 21 127 52 52 134 82 51 130 114 132 127 152 152 94 168 47 49 127 132 55 73 123 180 62 97 141 53 117 77 129 89 135 115 141 36 55 126 90 163 51 51 169
split_gain=6702.76 284.792 184.175 144.82 161.831 98.1845 111.036 85.7635 83.7039 78.8699 61.9446 59.9918 53.0825 52.5987 47.3762 44.2596 37.4143 36.3311 35.3203 32.2906 30.999 29.2894 29.1691 28.3016 28.2497 26.7658 26.1793 26.308 24.7405 24.5846 24.0886 22.7664 22.491 22.3724 22.0862 24.0918 23.1348 21.8249 21.1082 21.4169 21.0596 22.4573 20.9322 21.1888 20.9171 20.589 21.5738 20.5388 20.3806
threshold=3.30680435922659e-07 3.9123174246924472e-06 1.7687595743609566e-07 31.355000495910648 -1.1150000095367429 -1.1150000095367429 1.0000000180025095e-35 0 -5.4949998855590811 36.204999923706062 35.109998703002937 -5.9349999427795401 4.3399999141693124 34.039999008178718 -0.98499998450279225 -4.3599998950958243 -7.9549999237060538 -7.4200000762939444 2.9450000524520878 -0.92500001192092884 4.8450000286102304 2.8449999094009404 33.854999542236335 34.32500076293946 -3.8599998950958248 -1.1150000095367429 32.194999694824226 5.4649999141693124 -3.3950001001358028 4.2316983694945526e-07 33.795000076293952 5.7550001144409189 -6.7700002193450919 33.98500061035157 -6.9900000095367423 4.7650001049041757 -5.2999999523162833 5.555000066757203 -4.6449999809265128 -8.1050000190734846 -8.9000000953674299 34.795000076293952 37.114999771118171 -5.379999876022338 5.5699999332427987 -2.4350000619888301 31.545000076293949 36.245000839233406 -3.4050000905990596
decision_type=2 2 2 2 2 2 2 1 2 2 2 8 10 2 2 10 8 2 10 8 2 8 2 2 2 10 2 10 2 2 10 8 10 2 10 10 2 2 8 8 8 8 2 2 2 2 2 2 8
left_child=2 8 3 4 9 15 14 32 19 11 22 -1 24 38 28 18 -15 -12 31 44 -8 42 -9 26 -10 45 -20 -28 -7 -14 -27 -5 -4 -11 -17 47 -37 -6 -13 -40 -19 -42 43 -18 -2 -16 48 -36 -47
right_child=1 -3 7 5 37 6 20 10 12 33 17 13 29 16 25 34 21 40 23 -21 -22 -23 -24 -25 -26 30 27 -29 -30 -31 -32 -33 -34 -35 35 36 -38 -39 39 -41 41 -43 -44 -45 -46 46 -48 -49 -50
leaf_value=-0.068055333900324241 0.060394267572104476 0.11882818275418623 0.0060390873091874554 -0.063275686653194593 0.10902804052934933 -0.06713889970496667 0.10128415427171396 0.037803839801561601 -0.063584771020635741 0.12678159084090021 -0.11891001171148803 -0.077152233318731223 0.016977732055679342 -0.093081752426958209 -0.14123389812387036 -0.065419678737659595 0.058467033264418038 -0.10903420959246578 -0.16299245457796019 0.11027471476805369 -0.046573125569005586 0.096079120392021627 -0.029886927848901651 -0.070214539451580432 0.041142173073771632 -0.14610529497609828 -0.080975692427357929 -0.14148193257000771 0.091027650241606028 0.063923943324084825 0.10540777819128418 -0.091806231429606464 0.07118158826210054 -0.041193961046403708 -0.073601254620802387 -0.048377018987225663 -0.015772495137453758 -0.039201190102529239 -0.091839650026088626 0.0097774454181457585 0.016481088400267772 -0.072604090476235242 -0.10072058315370901 -0.060106722894802567 0.097925572527781946 -0.11546023323311666 -0.063164450576044681 0.073730287517914064 0.0099481123631056344
leaf_weight=421.92732505500317 368.5737110376358 2475.8622008115053 82.500135868787766 3128.3891014307737 99.060386300086975 13.361068740487097 79.772557735443115 138.05257949233055 56.418341219425201 37.265088215470314 80.704919099807739 112.39070835709572 125.02049425244331 23.041349530220032 26.899903059005737 814.77620732784271 59.549491763114929 31.264962643384933 67.384659513831139 471.33498093485832 17.244831517338753 63.143280103802681 118.13481347262859 453.74113969504833 47.394537031650543 4.796404883265498 298.66879680752754 94.627747297286987 38.063762113451958 1035.1545063853264 18.477674767374992 307.14845533668995 148.2232423722744 10.072130277752875 290.9601187556982 585.50666280090809 346.36465208232403 11.040113016963003 27.652281224727631 82.980755180120468 75.417355135083199 45.291084513068199 14.8858615309 20.17686764895916 248.69208213686943 15.375449389219282 333.8190925270319 9.780046343803404 82.446747869253159
leaf_count=1786 1903 14070 384 12932 536 59 396 619 254 204 344 469 613 99 111 3369 277 138 275 2558 76 302 525 1863 234 20 1222 387 181 5318 78 1264 697 42 1203 2427 1439 51 115 346 333 199 62 84 1303 64 1397 41 364
internal_value=0 0.0951543 -0.0516766 -0.0560297 -0.0200827 -0.0610588 -0.0234007 -0.00321532 0.0702399 -0.0344899 -0.0267862 -0.0416861 0.0527349 -0.0141345 -0.0413041 -0.0647689 0.0259497 -0.0646856 -0.0704753 0.0905652 0.0750025 0.0433351 0.00658983 -0.0879413 -0.0157729 -0.051042 -0.105401 -0.0955336 0.0499332 0.058865 0.0535751 -0.0658264 0.0458991 0.0910408 -0.0526449 -0.0442005 -0.0362583 0.0941646 -0.0466293 -0.0156213 -0.0358899 -0.0169446 0.0081343 0.0284588 0.0755154 -0.0563521 -0.0510622 -0.06881 -0.00976326
internal_weight=0 4828.45 8730.38 8010.79 983.186 7027.61 630.257 719.589 2352.59 873.085 488.866 825.748 1263.99 403.821 533.24 6397.35 180.797 232.678 4349.96 1088.6 97.0174 157.756 256.187 914.422 103.813 481.815 460.681 393.297 51.4248 1160.18 23.2741 3435.54 230.723 47.3372 2047.39 1232.61 931.871 110.1 223.024 110.633 151.973 120.708 94.6122 79.7264 617.266 458.541 431.641 300.74 97.8222
internal_count=63033 26253 36780 33541 4373 29168 2746 3239 12183 3786 2158 3540 6419 1754 2274 26422 824 1014 17943 5764 472 725 1144 3747 488 2034 1884 1609 240 5931 98 14196 1081 246 8479 5110 3866 587 930 461 670 532 423 361 3206 1936 1825 1244 428
cat_boundaries=0 1
cat_threshold=12
is_linear=0
shrinkage=0.1


Tree=5
num_leaves=50
num_cat=2
split_feature=180 180 131 54 180 87 55 164 127 24 127 180 82 59 65 180 143 123 44 157 159 129 21 161 140 143 120 180 93 127 162 65 49 180 100 130 165 173 122 160 89 109 49 54 46 78 55 128 134
split_gain=5622.98 277.342 156.089 125.403 114.752 88.5362 78.4182 74.5034 74.2858 60.6648 47.5894 63.508 45.8257 41.508 35.3183 40.2955 43.2589 32.478 31.7138 29.5017 47.9711 28.4845 24.7012 24.6708 24.4609 23.0697 22.9597 22.9111 22.6266 21.893 21.8342 21.7944 21.5138 20.6252 20.4539 20.404 19.2228 19.1182 18.9251 18.8775 18.4569 18.3555 18.1593 18.0916 18.0701 17.896 17.8954 17.8629 17.8174
threshold=3.30680435922659e-07 3.48161256624735e-06 -3.3749999999999996 31.365000724792484 1.6851662110184409e-07 4.9100000858306894 31.534999847412113 -2.1049998998641963 -5.4949998855590811 0 -6.5350000858306876 2.1390869164861217e-07 4.3399999141693124 35.149999618530281 31.045000076293949 6.2725671323704554e-09 -7.6400001049041739 -5.0350000858306876 33.854999542236335 -0.6899999976158141 -2.7450000047683711 -5.2999999523162833 1 3.9750000238418584 -5.2550001144409171 -7.4749999046325675 -3.8049999475479122 8.6911097696429362e-07 5.1449999809265146 -3.8599998950958248 -4.9349999427795401 33.545000076293952 35.215000152587898 4.2316983694945526e-07 4.4949998855590829 -1.1150000095367429 2.8750000000000004 6.6949999332427987 -6.5200002193450919 -0.6899999976158141 4.9349999427795419 -4.3099999427795401 35.305000305175788 34.655000686645515 35.385000228881843 5.7950000762939462 36.805000305175788 -1.6150000095367429 -6.0750000476837149
decision_type=2 2 8 2 2 2 2 2 2 1 2 2 10 8 8 2 8 2 8 2 2 2 1 2 10 8 2 2 2 2 2 8 2 2 10 2 2 10 2 2 2 8 2 2 8 10 2 2 10
left_child=2 8 10 5 6 36 9 13 18 17 14 19 29 24 -1 30 41 31 -2 25 44 -8 38 -15 -7 40 35 42 -19 -10 -16 -5 -3 -14 -18 43 48 -32 -6 47 -12 -17 -20 -23 -21 -27 -22 -35 -4
right_child=1 32 3 4 22 7 21 -9 12 -11 11 -13 33 23 15 16 34 28 27 20 46 26 -24 -25 -26 45 -28 -29 -30 -31 37 -33 -34 39 -36 -37 -38 -39 -40 -41 -42 -43 -44 -45 -46 -47 -48 -49 -50
leaf_value=0.081244819245671007 0.057483200318518425 0.1169079407951879 -0.05501204981783861 -0.21229643188572977 -0.11754311708306649 -0.056905018172609484 -0.057572502818919895 -0.02864062642623201 -0.058064024730816392 -0.031401006030654911 -0.081756982576732029 0.015026545917704737 0.015398399610282228 0.11737604249204792 0.0081897761065126019 -0.12004360554141043 -0.11059059326766124 0.1013248988103221 0.087667496170971387 -0.015033158308703963 0.083200213353757824 -0.038479592579867383 0.038479741852716902 0.0087759280921866564 0.08781990634393351 -0.044971877702999818 -0.013175150626509709 0.11148545168227869 -0.12533735668103071 0.03528447858118898 -0.061409397213792322 0.015393043806194254 0.083983214916692625 0.060578858536952475 -0.057971575441272627 0.044209157602641637 -0.090539157391361771 0.027947504286033282 -0.0029760768757689129 0.11143861078079405 -0.054334502119986354 -0.075763848738474818 0.026103307765995773 -0.082343435253838901 -0.082564104265118954 -0.092032688882457192 -0.061145835239408669 0.019322276100797089 0.013448927593292394
leaf_weight=15.749859154224394 299.53177806735039 2181.4056383222342 71.533870741724968 5.8435078561306026 16.267110526561737 30.486850053071976 1702.8950901180506 89.013849124312401 56.359018981456757 178.90477231144905 461.20352160930634 148.29734808206558 124.10904385149479 150.81577426195145 49.509521245956421 316.28886877000332 86.638671100139618 86.999353244900703 229.10628715157509 86.878169447183609 50.368180647492409 266.81828407943249 199.07379364967346 24.286692887544632 18.929854944348335 1457.7511941790581 307.32354816794395 412.47985437512398 4.6389828175306311 45.333001405000687 1170.1505073904991 14.983292654156683 218.32231065630913 774.48572523891926 501.40031310915947 22.329758837819099 49.140444800257683 24.443903088569641 126.87427186965942 63.43451951444149 524.63822005689144 132.97628593444824 60.580586791038513 145.19902884960175 72.848521083593369 85.546772241592407 10.354405865073202 121.39565335214138 81.130532085895538
leaf_count=71 1591 13285 300 25 71 139 6979 377 248 746 1886 676 613 822 202 1289 354 474 1265 357 248 1099 928 109 86 6034 1267 2359 19 227 4780 63 1279 4098 2056 96 203 100 554 338 2192 543 326 593 299 353 43 624 347
internal_value=0 0.0904384 -0.0461553 -0.0301315 -0.0377751 0.0155242 -0.0446037 0.0487778 0.0646787 0.00443438 -0.0572392 -0.0487177 0.047734 0.0794714 -0.0679891 -0.0690193 -0.083574 0.058987 0.0847262 -0.0521557 -0.0170706 -0.0504486 0.0168182 0.102313 -0.00146583 -0.0552138 -0.0340921 0.0963475 0.0898506 -0.0164505 -0.056884 -0.0484912 0.113913 0.0537584 -0.0657242 -0.0488919 -0.0361401 -0.059581 -0.0149514 0.0587212 -0.0671635 -0.106937 0.0747929 -0.0539377 -0.0458328 -0.0475805 0.0585863 0.0549884 -0.0186298
internal_weight=0 4586.54 8788.53 3593.49 3078.15 515.338 2735.94 313.533 2186.82 291.37 5195.04 2897.89 1185.12 224.519 2297.16 2281.41 1037.3 112.465 1001.7 2749.59 220.449 2444.57 342.215 175.102 49.4167 2529.14 741.671 702.167 91.6383 101.692 1244.1 20.8268 2399.73 1083.42 588.039 434.347 201.805 1194.59 143.141 959.316 985.842 449.265 289.687 412.017 159.727 1543.3 60.7226 895.881 152.664
internal_count=63033 26253 36780 15297 12914 2383 11361 1533 11689 1327 21483 12088 6148 1156 9395 9324 4242 581 5541 11412 947 10034 1553 931 225 10465 3055 3950 493 475 5082 88 14564 5673 2410 1788 850 4880 625 5060 4078 1832 1591 1692 656 6387 291 4722 647
cat_boundaries=0 1 2
cat_threshold=8 16
is_linear=0
shrinkage=0.1


Tree=6
num_leaves=50
num_cat=2
split_feature=180 180 132 180 54 96 26 130 134 56 167 58 88 36 152 125 16 54 132 47 114 137 118 180 157 133 121 130 165 153 134 87 151 56 59 125 44 133 75 60 49 127 71 57 131 167 81 110 180
split_gain=4728.74 270.75 130.67 114.119 102.5 87.2577 75.111 62.6435 47.1446 43.1368 42.1386 40.0797 35.1743 34.2715 33.88 32.331 36.584 47.8431 28.6976 27.9955 26.9772 25.0213 24.9864 24.9745 24.9626 24.9413 24.937 24.7352 23.2582 26.6873 23.2097 22.8298 22.4656 21.7899 20.7877 20.0025 19.7599 19.6014 19.7226 19.4415 19.4385 19.3384 19.829 19.2944 19.0157 23.5575 22.5782 18.6737 20.5905
threshold=3.30680435922659e-07 3.9123174246924472e-06 -3.7350000143051143 1.6851662110184409e-07 31.355000495910648 5.2850000858306894 0 -1.1150000095367429 -5.9349999427795401 31.48499965667725 -1.4350000023841856 33.944999694824226 4.7650001049041757 33.924999237060554 2.745000004768372 -2.7250000238418575 1 31.545000076293949 -2.5499999523162837 33.774999618530281 -6.3150000572204581 -10.305000305175779 -0.28999999910593027 9.4777453796268684e-07 -2.3249999284744258 -0.084999999962747083 -3.1850000619888301 -7.3350000381469718 2.5699999332427983 -3.5449999570846553 -8.4450001716613752 5.4549999237060556 2.5699999332427983 34.274999618530281 33.625000000000007 -3.5249999761581416 34.315000534057624 -6.1349999904632559 5.305000066757203 34.335000991821296 35.045000076293952 -5.4949998855590811 37.395000457763679 34.905000686645515 -2.3749999999999996 -1.9450000524520872 4.7349998950958261 -9.9699997901916486 1.571068786176966e-08
decision_type=2 2 8 2 2 10 9 2 8 2 10 2 2 10 10 2 1 2 8 2 10 8 10 2 2 10 2 2 2 8 10 2 8 2 10 2 10 10 10 10 2 2 8 2 10 10 10 10 2
left_child=2 6 8 4 5 31 14 13 20 32 -7 12 30 34 41 16 17 27 37 26 28 -17 23 -11 -20 44 -5 -10 29 -1 -9 43 -8 -23 -6 -31 -22 38 -15 -33 -3 -2 -43 -4 -18 46 -46 48 -30
right_child=1 40 3 19 7 10 9 11 15 22 -12 -13 -14 18 -16 21 25 -19 24 -21 36 33 -24 -25 -26 -27 -28 -29 47 35 -32 39 -34 -35 -36 -37 -38 -39 -40 -41 -42 42 -44 -45 45 -47 -48 -49 -50
leaf_value=-0.01406395142926894 0.084589258985569418 0.11413869817736329 -0.030005162194866642 0.011095387189222063 0.0014824039116522626 0.092917777836973969 0.020461245398287191 -0.17474885695360526 -0.095792283277107482 0.03622216134479888 -0.047613697373841753 -0.035907972127544471 0.074851979827637749 -0.072202687881595937 0.10355639482512465 -0.097136569310232374 -0.046592975482965877 -0.026288974875787813 -0.090385222188027442 -0.0013211908647903132 -0.036240037084974829 -0.033343488128147761 -0.063681232603099658 0.072349070657358613 -0.05406470517245765 0.070350243212078598 0.085477608280506656 0.075659122847279658 -0.032218175948086 -0.037829365289998494 0.0043602771169317335 0.055646643970127654 -0.051320076392003082 -0.065598771502960271 -0.036968167061649036 -0.071031153517225873 -0.059992916885814852 -0.019163395466120062 -0.016964816446644444 -0.09397563365912677 0.081100454770656277 0.056151677921018418 -0.10220312956040162 -0.1419639104484072 -0.13927750260666386 0.05347237506938296 -0.0049474528953985866 -0.086206207737349355 -0.09715480646808583
leaf_weight=133.61824075877666 359.53343378007412 1965.4684111922979 174.19616778194904 77.301963537931442 177.99103997647762 137.31487362086773 171.35590645670891 9.0378816276788694 9.2793057858943921 383.85201323032379 25.262457847595215 122.68246707320213 99.948345154523849 210.71509155631065 387.00139172375202 112.08525511622429 747.34675857424736 184.97793038189411 279.94895759224892 174.742163002491 725.33863209187984 498.21802859008312 18.40345598757267 381.56759190559387 583.92534004151821 20.635435193777084 108.1019129306078 90.298188179731369 153.41340813040733 250.08330754935741 36.267513573169708 50.996494233608246 58.481133252382278 361.33035030961037 669.40281750261784 661.18043456971645 677.22508445382118 297.91671770811081 93.240314498543739 10.466788545250891 195.82897435128689 424.1266375631094 8.0577325075864774 16.884739071130753 17.098729401826859 45.082360863685608 46.649423331022263 665.99270701408386 71.62904018163681
leaf_count=548 2073 12861 737 355 728 751 876 38 40 2051 106 506 497 857 2310 458 3061 755 1137 795 2976 2052 101 2156 2373 94 513 451 623 1041 157 253 272 1483 2728 2697 2775 1221 380 45 1209 2301 43 69 70 219 191 2708 292
internal_value=0 0.0860289 -0.0413216 -0.0257877 -0.0321806 0.0139393 0.0612686 -0.0395982 -0.0508504 0.0398989 0.071081 0.00617621 0.0417208 -0.0449004 0.0786401 -0.0392375 -0.0279764 0.00366694 -0.0541554 0.0273976 -0.0582701 -0.0526976 0.0514632 0.0542317 -0.0658348 -0.0378558 0.0544648 0.0596821 -0.0659215 -0.0557997 -0.0313698 -0.0228461 0.00219677 -0.0469027 -0.0288918 -0.0619194 -0.0477091 -0.0373918 -0.0552581 0.030167 0.111145 0.067454 0.0531993 -0.0398983 -0.0409059 -0.00185245 -0.0409779 -0.077791 -0.0528869
internal_weight=0 4353.68 8827.83 3356.34 2996.2 415.122 2192.38 2581.08 5471.48 1013.66 162.577 267.936 145.254 2313.14 1178.72 2133 1161.37 284.555 1465.75 360.146 3338.48 971.634 783.823 765.42 863.874 876.813 185.404 99.5775 1935.92 1044.88 45.3054 252.544 229.837 859.548 847.394 911.264 1402.56 601.872 303.955 61.4633 2161.3 791.718 432.184 191.081 856.177 108.831 63.7482 891.035 225.042
internal_count=63033 26253 36780 14246 12583 1961 12183 10622 22534 5456 857 1198 692 9424 6727 8874 4881 1246 5968 1663 13660 3993 4308 4207 3510 3635 868 491 7909 4286 195 1104 1148 3535 3456 3738 5751 2458 1237 298 14070 4417 2344 806 3541 480 261 3623 915
cat_boundaries=0 1 2
cat_threshold=10 12
is_linear=0
shrinkage=0.1


Tree=7
num_leaves=50
num_cat=1
split_feature=180 180 180 130 58 26 89 87 127 163 87 159 159 152 143 44 168 49 72 105 127 59 131 180 133 71 131 94 108 180 109 77 90 64 103 97 129 180 44 82 127 171 140 178 180 145 53 160 63
split_gain=3983 264.446 111.583 96.1324 104.499 68.0595 62.0467 50.355 49.5091 55.7949 51.026 55.1375 44.8733 40.5044 34.228 33.4365 30.9226 30.0783 28.6803 29.7281 26.9498 26.6338 26.368 25.7613 29.875 25.5317 23.1247 22.0669 21.8424 26.2269 25.5651 23.5561 21.7671 22.4434 21.1385 21.1246 20.506 20.1633 22.0039 24.3466 19.8319 19.6533 19.5342 18.8328 18.668 18.6457 18.2373 18.1107 19.12
threshold=3.30680435922659e-07 3.9123174246924472e-06 2.2589849635323847e-07 -2.410000085830688 33.944999694824226 0 5.1050000190734872 5.2650001049041757 -2.9050000905990596 -2.1550000905990596 5.4149999618530282 -2.695000052452087 -3.1350001096725459 -2.2450000047683711 -7.8150000572204581 33.885000228881843 -2.4750000238418575 35.100000381469734 4.7449998855590829 4.5050001144409189 -9.944999694824217 33.774999618530281 -2.2699999809265132 4.6784063290061803e-09 -0.28999999910593027 37.864999771118171 -4.6449999809265128 4.8849999904632577 -6.569999933242797 1.193879217709082e-09 -5.8250000476837149 5.4749999046325692 5.5699999332427987 31.464999198913578 4.8150000572204599 4.4749999046325692 -7.4900000095367423 2.7752948881243359e-05 33.625000000000007 4.1299998760223398 -5.4949998855590811 2.8750000000000004 -11.735000133514403 -3.8049999475479122 4.3144551042928476e-08 -4.8050000667572013 32.244998931884773 -1.8199999928474424 35.024999618530281
decision_type=2 2 2 2 2 9 2 2 2 2 2 2 2 10 8 10 8 2 10 8 2 8 10 2 10 8 10 2 10 2 10 10 2 10 8 10 2 2 8 10 2 8 10 10 2 8 2 2 10
left_child=2 5 3 8 6 15 21 -8 14 -10 36 -12 -4 18 23 -2 45 25 19 -7 -14 47 32 42 26 -15 -25 -9 29 34 -30 -31 -18 -34 -16 -22 -11 38 39 -3 -17 -38 -1 -32 -23 -6 -47 -5 -49
right_child=1 37 12 4 16 13 7 27 9 10 11 -13 20 17 28 40 22 -19 -20 -21 35 44 -24 24 -26 -27 -28 -29 30 31 43 -33 33 -35 -36 -37 41 -39 -40 -41 -42 -43 -44 -45 -46 46 -48 48 -50
leaf_value=-0.011402907936601198 0.050745897533278433 -0.16789665890774375 -0.069571668050517371 0.054935290400308728 0.047183350381665573 -0.12811220969223058 0.0070477854232760227 0.099698338776739504 -0.058113785888210527 -0.064949045652157381 -0.036508709901712608 0.082323347238568712 -0.047384965795225678 0.066989123933842515 -0.0060141573148977138 0.10183767882548236 -0.0038193377072299342 0.01193587584295553 0.030363774119425986 -0.0040976848135178311 -0.050180008945646538 -0.053555122760009843 -0.060645421547392275 -0.084879411389177456 0.063801206679500441 -0.18225855405987362 -0.055363312716654636 -0.071131308487283287 -0.048049677746714904 -0.052246905805393866 -0.078409785845715785 -0.08868746079460485 0.11221275002306824 -0.068933702258541202 -0.047052941548248788 0.042219758946444162 -0.025359580738849353 0.11771012679117221 0.10634790271331358 0.076212155463966563 0.069049288265707359 0.030794331134758487 -0.052785132488397071 -0.019803051514336027 0.0050713379064849648 -0.040311735447347667 -0.079606263745526498 0.019544005201020478 -0.11847999695864278
leaf_weight=130.50730620324612 381.46402095258236 4.1540128141641608 58.054073244333267 72.571262791752815 16.783073022961617 24.111455917358398 152.76549357175827 132.68789555132389 325.40633833408356 97.83343468606472 60.860644891858101 108.93661795556545 45.425497427582741 473.24590834975243 196.40812008082867 411.62808528542519 443.55722317099571 138.79114456474781 254.11549760401249 97.464439362287521 26.923694282770157 162.34497126936913 150.22843712568283 592.2489355802536 16.533931151032448 4.1457748711109152 481.01773616671562 8.0185646116733533 779.27855445444584 1017.8250370174646 58.513273492455482 214.83401009440422 7.3865541815757743 92.362829431891441 347.71187300980091 305.43172733485699 296.15816442668438 1015.9441701024771 744.64900113642216 248.5992139428854 334.27090208232403 78.94011053442955 905.61022256314754 871.07706592977047 81.620556324720383 234.83355814218521 237.63308085501194 30.796032100915909 14.888632073998449
leaf_count=527 2154 29 254 338 70 114 696 765 1342 400 255 582 195 2685 795 2659 1856 752 1381 501 118 666 613 2384 75 23 1948 36 3160 4117 237 868 30 375 1408 1432 1234 7140 5179 1722 1914 342 3656 3541 341 962 973 128 61
internal_value=0 0.0818415 -0.0370558 -0.0396102 -0.019394 0.0571852 0.0126266 0.0468019 -0.0452589 -0.0243749 -0.00729334 0.0397302 0.0122818 0.036762 -0.0488619 0.0741699 -0.037145 0.0529118 0.0112527 -0.0286928 0.0248603 -0.0150623 -0.0235645 -0.0588623 -0.0695958 0.0648246 -0.0716509 0.0899631 -0.0427626 -0.0505259 -0.0346908 -0.0585979 -0.0133113 -0.0555196 -0.0322394 0.0347346 -0.0241763 0.107794 0.0976945 0.0722002 0.0871437 -0.0135419 -0.0475727 -0.0234921 -0.0339412 -0.056396 -0.0600754 0.0238855 -0.025438
internal_weight=0 4132.58 8854.01 8418.18 1838.48 2119.24 655.693 293.472 6579.7 968.135 642.729 169.797 435.835 991.874 5611.57 1127.36 1182.78 616.183 375.691 121.576 377.781 362.221 693.535 2125.92 1089.8 477.392 1073.27 140.706 3485.65 1776.78 1708.87 1232.66 543.307 99.7494 544.12 332.355 472.932 2013.35 997.402 252.753 745.899 375.098 1036.12 929.59 243.966 489.25 472.467 118.256 45.6847
internal_count=63033 26253 36780 34781 7910 12183 3031 1497 26871 4155 2813 837 1999 5456 22716 6727 4879 3460 1996 615 1745 1534 2874 8590 4407 2708 4332 801 14126 7188 6938 4985 2261 405 2203 1550 1976 14070 6930 1751 4573 1576 4183 3778 1007 2005 1935 527 189
cat_boundaries=0 1
cat_threshold=10
is_linear=0
shrinkage=0.1


Tree=8
num_leaves=50
num_cat=2
split_feature=180 180 180 130 58 152 54 59 54 127 16 125 163 159 168 123 152 162 47 47 106 128 97 97 57 59 168 60 168 59 162 120 143 163 48 46 58 133 91 155 22 159 143 131 174 103 86 109 180
split_gain=3371.55 227.683 126.92 77.0566 84.3567 75.9787 52.5637 49.7425 49.4296 41.772 43.1724 81.7773 57.8178 39.0784 36.2774 35.2982 31.9998 29.2448 28.916 28.1095 26.9754 26.5215 25.8196 24.9153 25.9517 30.3336 24.8583 24.7964 24.1441 23.2342 22.5996 22.2651 21.7033 21.0038 20.3297 21.4249 21.9707 20.2894 24.1349 20.2644 19.9455 24.0577 22.6749 19.7172 19.4118 19.3852 19.22 19.1397 21.3416
threshold=3.8620099473973829e-07 5.6949988902488266e-06 2.2589849635323847e-07 -2.410000085830688 33.944999694824226 2.7749999761581425 31.154999732971195 33.774999618530281 35.225000381469734 -4.7699999809265128 0 -2.5099999904632564 -1.674999952316284 -3.9800000190734859 2.5949999094009404 -5.0350000858306876 2.9050000905990605 4.0099999904632577 34.614999771118171 34.305000305175788 4.805000066757203 -3.5899999141693111 5.6649999618530282 5.2349998950958261 33.975000381469734 36.835000991821296 -2.3950001001358028 33.604999542236335 -2.9050000905990596 32.125000000000007 5.120000123977662 -8.6399998664855939 -4.3599998950958243 -0.94499999284744252 35.585000991821296 34.98500061035157 35.614999771118171 -0.084999999962747083 4.9449999332427987 2.8449999094009404 1 2.5499999523162846 -4.6449999809265128 -5.6050000190734854 -3.6249999999999996 3.8449999094009404 4.7449998855590829 -4.4600000381469718 1.2749468147887912e-09
decision_type=2 2 2 2 2 10 2 8 2 2 1 2 2 2 8 2 10 2 2 2 10 2 8 10 2 10 8 10 8 8 2 2 8 2 2 8 2 10 2 2 1 2 8 10 10 10 2 8 2
left_child=2 5 3 9 6 8 -5 15 17 16 11 12 -11 -4 43 27 22 31 47 28 -10 -17 37 -9 25 -25 -6 -8 44 -28 46 -2 -13 -19 -33 36 -36 40 -39 -7 41 -1 45 -14 -15 -42 -31 48 -18
right_child=1 -3 13 4 26 39 7 23 20 10 -12 32 14 19 -16 21 18 33 -20 -21 -22 -23 -24 24 -26 -27 29 -29 -30 30 -32 34 -34 -35 35 -37 -38 38 -40 -41 42 -43 -44 -45 -46 -47 -48 -49 -50
leaf_value=-0.028356723830009579 -0.013456907207432967 0.10760041959791077 -0.072481681207147097 0.079292148846403676 -0.049530031620006632 0.065336803538539462 0.091883199529588747 -0.049119591879102621 -0.037881359653350197 -0.018184006508124659 -0.044845689681659057 -0.043993181824787508 -0.040855023920669586 -0.16097284136940915 0.10699781439146966 0.011350288346241928 -0.052346220765880261 0.090425056631914996 -0.036392717435852963 -0.017480594392028377 0.032312954666441719 0.10133947159156589 -0.065550184513528856 0.053349411097018851 -0.084690694927249816 -0.047911668787382483 -0.073433444700615622 -0.055277975580177011 0.046457199562861408 -0.03806933742571237 -0.11925562399598506 0.034722841884018099 -0.014535432774857441 -0.084596566061646561 0.061734968975234054 0.090285551227441363 0.0011568521548700355 -0.14230263523152678 0.11083029233015562 0.10365396742466973 0.013088031876816085 0.076826642519020008 -0.030286372738885473 0.050574532631833563 0.0008734836329580874 -0.056014988693940421 0.0019678362605580692 -0.049587463095319056 -0.10368122667850713
leaf_weight=751.02868901193142 57.924853727221489 1670.4780773967505 48.802098780870438 97.35454960167408 525.5431711524725 224.26199924945831 14.806027561426161 181.0503665804863 93.317352533340454 194.13036796450615 1235.3835210353136 686.95458686351776 35.574330449104309 8.4993074685335142 86.93018251657486 52.77396796643734 112.89948719739914 235.27615603804588 251.13052681088448 138.86394943296909 132.45810559391975 86.316948682069778 420.65539772808552 95.77948172390461 27.243175655603409 42.803026765584946 73.432619020342827 50.513252317905426 318.09879633784294 171.8394418656826 19.634353265166283 456.75617679953575 393.3010830283165 7.0625091344118109 280.54981079697609 191.3385656028986 76.113445192575455 4.8032237291336086 17.45232367515564 358.91709324717522 42.042225524783134 22.393372431397438 630.48504577577114 69.997547537088394 57.85964547097683 1179.6288210302591 396.70804980397224 175.99817541241646 286.4791244417429
leaf_count=3024 325 12586 224 580 2143 1432 63 752 476 818 4997 2777 154 39 484 225 454 1515 1010 651 762 501 1692 412 110 178 297 210 1558 701 79 2658 1599 42 1697 1159 448 20 82 2409 169 100 2546 337 271 4744 1659 709 1155
internal_value=0 0.0800078 -0.0324777 -0.0355699 -0.0174489 0.0582038 0.0115512 -0.000411548 0.0465024 -0.0406124 -0.0310591 -0.019013 0.0203241 0.0131015 0.059158 0.0387186 -0.0472402 0.0539766 -0.0647048 0.0210825 0.00330029 0.0671957 -0.042536 -0.0234705 0.0045335 0.0220736 -0.033294 -0.0219207 0.0350113 -0.0203972 -0.0137758 0.046828 -0.0332682 0.0853244 0.0503034 0.0632897 0.0488073 -0.0388798 0.0561988 0.0889191 -0.0396858 -0.0249882 -0.0454429 0.0197657 -0.0198559 -0.0536369 -0.0101331 -0.077062 -0.0891694
internal_weight=0 3784.45 9005.19 8433.07 1835.8 2113.98 648.641 551.286 1530.8 6597.27 2702.27 1466.89 386.632 572.124 192.502 204.41 3895 1305.02 826.507 523.322 225.775 139.091 3068.49 346.876 165.826 138.583 1187.16 65.3193 384.458 661.614 588.182 1062.68 1080.26 242.339 1004.76 548.002 356.663 2647.83 22.2555 583.179 2625.58 773.422 1852.16 105.572 66.359 1221.67 568.547 575.377 399.379
internal_count=63033 25509 37524 34781 7910 12923 3031 2451 9082 26871 11166 6169 1793 2743 975 999 15705 7844 3328 2519 1238 726 12377 1452 700 590 4879 273 1868 2736 2439 6287 4376 1557 5962 3304 2145 10685 102 3841 10583 3124 7459 491 310 4913 2360 2318 1609
cat_boundaries=0 1 2
cat_threshold=12 18
is_linear=0
shrinkage=0.1


Tree=9
num_leaves=50
num_cat=3
split_feature=180 180 180 152 21 130 58 18 155 54 59 123 26 92 93 158 55 114 132 47 159 131 128 180 128 48 171 141 48 97 57 59 126 180 133 92 61 159 60 140 161 105 128 44 71 47 44 144 114
split_gain=2851.61 215.584 115.788 68.6604 63.8557 56.9435 64.505 52.4919 48.3098 43.914 40.6105 31.9707 30.2582 29.8284 74.0603 53.3849 38.5665 30.0189 28.7909 26.663 25.3677 25.062 23.4475 22.5734 23.5071 26.0441 22.2929 22.2351 21.5625 21.2315 21.5193 23.6519 21.0004 23.0466 22.463 20.5559 19.9583 20.3901 21.7132 20.4925 19.7031 19.2507 18.6542 18.4398 18.4058 18.2935 18.1472 18.0768 17.9308
threshold=4.0355995167828956e-07 5.6949988902488266e-06 1.7687595743609566e-07 2.745000004768372 0 -2.410000085830688 33.944999694824226 1 -2.8349999189376827 31.195000648498539 33.774999618530281 -5.0350000858306876 2 4.7750000953674325 5.5250000953674325 1.0000000180025095e-35 31.48499965667725 -4.3599998950958243 -3.7350000143051143 33.545000076293952 -2.2150000333786006 -7.5250000953674308 -3.6499999761581416 3.9237807669678666e-08 -5.1349999904632559 34.764999389648445 2.5949999094009404 -5.2149999141693106 34.055000305175788 5.2349998950958261 33.954999923706062 36.835000991821296 -6.3400001525878897 1.1206851979750355e-07 -0.084999999962747083 4.4049999713897714 34.414999008178718 -0.96500000357627858 34.73500061035157 -3.7599999904632564 2.5699999332427983 3.7100000381469731 -3.6499999761581416 33.244998931884773 34.774999618530281 31.144999504089359 36.454999923706062 -2.7050000429153438 -4.2099997997283927
decision_type=2 2 2 10 1 2 2 1 2 2 8 2 9 2 2 2 2 8 8 2 2 10 2 2 2 2 8 10 2 10 2 10 2 2 10 2 10 2 10 10 2 8 2 8 10 2 10 10 8
left_child=2 3 5 8 -4 13 9 18 27 40 11 26 19 14 16 -16 20 23 44 45 -1 -17 -13 41 25 -25 -11 -2 -5 -12 31 -31 34 -34 -19 -23 37 38 39 -8 -7 -15 -39 -9 -6 -10 -18 -35 -14
right_child=1 -3 4 28 7 6 36 43 12 10 29 22 48 17 15 21 46 32 -20 -21 -22 35 -24 24 -26 -27 -28 -29 -30 30 -32 -33 33 47 -36 -37 -38 42 -40 -41 -42 -43 -44 -45 -46 -47 -48 -49 -50
leaf_value=-0.0034506667459578756 -0.027479845939238114 0.10482106546866421 0.043845256937441797 0.038687471695139565 -0.031309422122292339 -0.010548455651909724 -0.023851914520832306 -0.024544555807294279 -0.15103316848967513 -0.061734804744417719 -0.048995997572871375 0.0082307639672838644 0.079602053049370028 0.013894806544082121 -0.02349334457693775 -0.12124390436865143 -0.039995451243021292 -0.044480887288934602 -0.00014133625139780729 0.011384584891741753 0.13905781262603784 -0.14039059532812587 0.09568277127144087 -0.046641058199984459 -0.048595104553647434 -0.11008066095589671 0.076486949786921998 0.041035013464760739 0.092995268800208516 0.04928260889757264 -0.07749907749705022 -0.044317705343105758 -0.025504140037251828 -0.057143284937188524 0.11833826300648814 0.1004620176846361 -0.044090514768816397 -0.026895419993081676 -0.04943206905884881 0.03049299457256769 0.092133411293176315 -0.043355396576699859 0.1008811787018896 0.047570517915742738 -0.085106986431580448 0.057058763067654131 0.0070196158716246647 0.045887923370122402 0.044784484579884362
leaf_weight=33.361253812909126 126.48368446528912 1549.5383560210466 279.73478011786938 86.334242224693298 151.85280656814575 24.347145304083824 232.15902301669121 46.488286316394806 4.2864384949207297 45.092837169766426 168.2839974462986 49.92677603662014 414.51885178685188 60.225853100419044 93.502748563885689 5.8486072421073905 1224.6209026575089 719.3729081004858 161.60271924734116 288.60171689093113 19.96717894077301 3.6776208132505408 79.443667516112328 106.31349895894527 490.91994421184063 165.37628871202469 15.741933122277258 75.723751381039619 477.28492902219296 86.353932604193687 27.598921790719032 39.275384500622749 792.10992950201035 21.464803531765938 8.5743933469057065 97.175883397459984 570.9869427382946 20.102914720773697 198.58699196577072 98.965074479579926 80.387989103794098 2371.7448970228434 26.469368442893028 149.42656408250332 109.42156279087067 292.92147512733936 87.99801217019558 82.39735609292984 229.97299112379551
leaf_count=136 680 12586 1386 578 679 106 953 217 25 186 690 213 2688 242 393 24 4961 2891 755 1699 94 15 488 428 1977 666 66 444 3349 372 111 161 3193 87 45 560 2328 83 803 407 518 9531 120 709 485 1759 358 335 1453
internal_value=0 0.0768343 -0.0289701 0.055109 0.0050983 -0.0327268 -0.0168216 -0.0129177 0.0434757 0.00926786 -0.00280702 0.0338192 0.0509206 -0.0371205 -0.0251315 0.0316695 -0.0334567 -0.0410173 -0.0325492 0.0324801 0.0499072 0.0800085 0.0619332 -0.0466448 -0.0616562 -0.0852564 -0.0259678 -0.00182203 0.0846765 -0.0244749 0.00245556 0.0200204 -0.0299469 -0.0196966 -0.0425631 0.0916793 -0.03084 -0.0177112 -0.0232887 -0.00760952 0.0682636 -0.0419376 0.0457264 0.0289793 -0.0538398 0.0540576 -0.0368436 0.0245948 0.0661517
internal_weight=0 3545.67 9046.9 1996.13 898.527 8148.37 1763.72 618.792 1432.51 616.453 511.717 190.205 1230.3 6384.65 1566.15 200.205 1365.95 4818.5 422.877 585.81 53.3284 106.702 129.37 3194.58 762.61 271.69 60.8348 202.207 563.619 321.512 153.228 125.629 1623.92 895.972 727.947 100.854 1147.27 576.283 529.711 331.124 104.735 2431.97 46.5723 195.915 261.274 297.208 1312.62 103.862 644.492
internal_count=63033 25261 37772 12675 4231 33541 7605 2845 8748 2911 2287 953 7624 25936 6541 992 5549 19395 1919 3483 230 599 701 12844 3071 1094 252 1124 3927 1334 644 533 6551 3615 2936 575 4694 2366 2163 1360 624 9773 203 926 1164 1784 5319 422 4141
cat_boundaries=0 1 2 3
cat_threshold=12 16 20
is_linear=0
shrinkage=0.1


Tree=10
num_leaves=50
num_cat=2
split_feature=180 180 180 26 132 54 25 44 131 60 56 159 57 117 143 57 120 71 92 143 162 53 180 127 88 134 127 177 164 101 53 116 159 55 146 162 144 128 119 176 133 124 70 68 180 106 128 44 70
split_gain=2413.72 219.052 86.4179 68.4652 54.0117 55.8256 67.9975 37.8227 37.2672 36.0021 34.5555 29.8445 27.4715 27.4132 28.6522 24.3036 29.1798 22.075 21.9121 21.9112 21.3726 21.1538 20.7987 23.9944 19.8125 19.7052 19.6385 19.2021 18.7295 18.5753 18.2688 17.91 17.0926 18.4551 17.0815 17.0702 17.0384 17.0277 16.9951 16.931 19.8724 16.6712 24.9801 16.3291 15.8334 15.8191 15.817 15.6444 15.6257
threshold=3.8620099473973829e-07 5.6949988902488266e-06 2.2589849635323847e-07 0 -3.7350000143051143 33.48500061035157 1 33.885000228881843 -2.1650000810623165 34.155000686645515 31.814999580383304 -3.9800000190734859 33.475000381469734 -12.144999980926512 -7.6400001049041739 33.694999694824226 -10.11999988555908 33.395000457763679 4.6649999618530282 -0.084999999962747083 3.7749999761581425 31.085000038146976 5.9515269157373047e-08 -6.6649999618530265 4.7650001049041757 -6.0600001811981192 -5.879999876022338 -4.254999876022338 -2.6049998998641963 4.8150000572204599 32.289999008178718 -3.0849999189376827 -2.1650000810623165 31.48499965667725 -2.2150000333786006 -2.2649999856948848 0.4199999868869782 -3.5899999141693111 -8.1149997711181623 -2.4950000047683711 -0.28999999910593027 -5.4949998855590811 34.694999694824226 33.674999237060554 7.0829369036573566e-08 4.7449998855590829 -1.3250000476837156 31.73499965667725 32.174999237060554
decision_type=2 2 2 9 8 2 9 10 8 8 2 2 2 8 8 2 2 8 2 8 2 2 2 2 2 8 2 8 2 10 2 10 2 2 8 2 10 2 10 10 10 2 10 10 2 10 2 10 10
left_child=2 3 4 7 13 6 17 -2 21 18 28 38 24 -1 22 27 -17 44 -8 20 30 34 39 -24 25 -10 -9 -13 43 -21 -12 -23 -16 -34 -7 -20 45 -26 -4 40 -15 -35 -43 -5 -6 -18 -11 -14 -30
right_child=1 -3 11 10 5 8 9 26 12 46 19 15 47 14 32 16 36 -19 35 29 -22 31 23 -25 37 -27 -28 -29 48 -31 -32 -33 33 41 -36 -37 -38 -39 -40 -41 -42 42 -44 -45 -46 -47 -48 -49 -50
leaf_value=-0.0028098374751921703 0.04270769198332109 0.102200238767698 -0.1777999856285985 0.032520312184468735 -0.0050319935340744151 -0.029933208060637047 0.092593569700243433 0.098631023010928354 -0.068593084739584489 -0.021455162070290454 0.020615251427155808 -0.055010821335023934 0.03653440324413728 -0.029861263660687989 -0.034025691782978852 -0.17466527560172024 -0.053512125281288292 -0.034046600230129814 -0.012545301568543585 0.021482460950047494 0.085633970901604531 -0.040021809438576007 -0.099123950901055136 -0.046034337558932055 0.01097625371392515 0.040814190203355215 0.064777995508574729 0.049531635973794293 -0.051258490591637444 -0.23265563630381036 0.057627344476408007 -0.015128211369954604 0.043706297713054627 -0.050208808033942481 0.080781177753316724 0.060059055826123454 0.050505040179102692 0.093623333381767787 -0.032836927224959706 -0.048592215529853051 0.12972656902413818 -0.027000948970388617 0.028730267436513218 -0.063216640820203868 0.079536281769223074 0.0082507329008420054 0.1083044680983406 -0.027833793485269948 0.031507637437425941
leaf_weight=251.12427307665348 357.24685963243246 1436.1998134329915 10.163114681839941 24.45047652721405 90.747115701436996 26.820592969655991 107.15219409018755 366.66310898959637 31.76231686770916 102.55942012369633 303.77314411848783 19.04714560508728 43.702040046453476 600.00315494835377 2412.9022389054298 9.4499730467796308 58.732479885220528 352.84670212864876 52.517669558525085 6.3476200103759748 107.73472035676241 1411.7020743191242 144.68940514326096 206.81913352012634 43.397281810641289 34.174722567200661 321.71634655445814 226.49405665695667 26.936179727315903 5.2587462514638901 237.72091297805309 363.41700799763203 49.48486353456974 136.10232283174992 29.006390273571014 84.463568396866322 60.928555816411972 58.577749729156494 39.597057208418846 1096.6242014020681 7.9055999368429175 253.08849647641182 117.88840363919735 65.654132768511772 29.283084362745285 141.08727094531059 10.341084212064741 277.6353951394558 148.92502205073833
leaf_count=1032 2267 12586 45 130 388 109 642 2860 137 457 1855 89 176 2439 9782 42 272 1476 216 36 730 5712 588 848 183 147 2143 1156 155 31 1506 1474 228 551 118 388 288 359 179 4463 43 1034 481 330 124 672 64 1122 880
internal_value=0 0.072492 -0.0263283 0.0508603 -0.0288678 -0.0185062 0.00375259 0.0684539 -0.0264679 0.0361141 0.0299493 0.0115144 -0.00195053 -0.0350537 -0.0366649 0.0186501 -0.00204372 -0.0210008 0.0587202 0.0425223 0.0449569 -0.0330192 -0.0457392 -0.0678873 0.03083 -0.011888 0.0828097 0.0414221 -0.000164416 -0.0936654 0.0368639 -0.0349254 -0.0303819 -0.0145848 0.0275914 0.032223 0.00421239 0.0584514 -0.0624445 -0.0411718 -0.0277859 -0.0202734 -0.00929078 -0.0372378 0.0155996 -0.00990306 -0.00956987 -0.0190797 0.0188306
internal_weight=0 3408.63 8992.24 1972.43 8426.74 3150.11 829.911 1045.63 2320.2 357.034 926.801 565.5 489.25 5276.63 5025.51 515.739 270.198 472.877 244.133 660.835 649.229 1830.95 2056.04 351.509 167.912 65.937 688.379 245.541 265.966 11.6064 541.494 1775.12 2969.47 556.564 55.827 136.981 260.748 101.975 49.7602 1704.53 607.909 507.079 370.977 90.1046 120.03 199.82 112.901 321.337 175.861
internal_count=63033 25509 37524 12923 34781 13292 3755 7270 9537 1767 5653 2743 2124 21489 20457 2519 1274 1988 1246 4158 4091 7413 8381 1436 826 284 5003 1245 1495 67 3361 7186 12076 2294 227 604 1232 542 224 6945 2482 2066 1515 460 512 944 521 1298 1035
cat_boundaries=0 1 2
cat_threshold=10 20
is_linear=0
shrinkage=0.1


Tree=11
num_leaves=50
num_cat=3
split_feature=180 180 180 152 21 155 18 130 127 159 48 129 58 55 152 61 116 180 98 147 51 167 142 142 180 127 47 134 54 158 65 167 132 14 88 170 161 63 65 80 142 109 87 141 156 143 46 170 52
split_gain=2046.1 200.219 87.0356 65.1851 53.1856 49.7568 44.3317 39.9752 51.451 41.7162 36.2691 29.4508 29.4108 28.4756 27.1593 26.9972 25.4751 25.4051 23.0965 22.5162 21.4529 21.0181 20.4676 19.9508 20.3701 21.369 19.3807 19.2813 22.4921 26.9758 18.7104 18.4542 19.9477 19.1933 18.0226 18.5663 17.9259 17.9183 23.7318 23.1433 16.8796 16.6783 16.466 18.514 16.437 16.2692 17.418 17.7611 18.4568
threshold=4.2316983694945526e-07 5.6949988902488266e-06 1.6851662110184409e-07 3.4400000572204594 0 -2.8349999189376827 1 -2.410000085830688 -0.4849999845027923 2.6049998998641972 35.114999771118171 -0.084999999962747083 35.725000381469734 32.980001449584968 2.9450000524520878 34.414999008178718 -6.6150000095367423 2.5510265899697518e-08 4.9349999427795419 -1.9450000524520872 33.585000991821296 -1.2250000238418577 -0.4849999845027923 -3.2400000095367427 3.9759062708810697e-09 -6.0750000476837149 33.854999542236335 -5.9349999427795401 31.530000686645511 -1.0850000381469724 34.454999923706062 -1.3650000095367429 -7.9749999046325675 2 5.1849999427795419 -2.6149998903274532 -1.1050000190734861 36.274999618530281 31.425000190734867 5.0050001144409189 -10.555000305175779 -1.1150000095367429 4.7449998855590829 -5.2149999141693106 3.4750000238418584 -9.0150003433227521 34.745000839233406 -0.96500000357627858 35.510000228881843
decision_type=2 2 2 10 1 2 1 2 2 2 2 2 2 2 10 10 10 2 8 8 2 8 8 8 2 2 2 10 2 2 10 10 10 1 2 8 2 8 10 8 10 8 2 10 2 8 8 10 2
left_child=2 3 7 5 36 21 16 14 9 11 18 15 45 -11 27 17 -6 34 22 -19 -13 42 -7 24 -16 44 41 -1 29 40 -15 32 -31 -34 35 -9 -4 -30 -39 -40 -29 -8 -2 -44 -26 -12 47 -47 -49
right_child=1 -3 4 -5 6 10 26 8 -10 13 12 20 -14 30 23 -17 -18 19 -20 -21 -22 -23 -24 -25 25 -27 -28 28 37 31 -32 -33 33 -35 -36 -37 -38 38 39 -41 -42 -43 43 -45 -46 46 -48 48 -50
leaf_value=-0.032421032806130734 -0.18016368946612571 0.099699631203953434 0.028234064506259527 0.08527982282112509 -0.053787890869144345 0.0030656849279332519 0.064192019738254544 -0.070322583316804313 0.076876126586462978 0.093938294441286707 0.098114966179123436 -0.033787800380684505 0.01673857423329405 0.046713375525248402 -0.034501593082689151 -0.037429382809810986 -0.0070678878583841712 -0.014747802895997362 0.04138151687292576 0.03926484627637522 0.10936083645347097 -0.10196425599599596 -0.17238972628446539 -0.019254547170909624 -0.087916732278548571 -0.042962450301687521 -0.0046399548539817707 0.069617091709554907 -0.026897219458056516 -0.074158866242718086 -0.069288871104316627 -0.040826551713089992 0.078899509929968914 -0.15087069097601372 0.022967588851034015 -0.02092867729809483 0.089986513856263439 0.10671473535579504 -0.050708112542141762 0.044710644731129311 -0.031100622054595607 -0.10802940443316851 -0.01628290843404346 0.050022422415186132 0.052616371426809444 0.060379900161199623 0.085991109649729391 0.028424693041313044 -0.095038765414818371
leaf_weight=2983.8044329583645 4.7287604212760916 1330.4610736817122 245.94943169504404 384.26732103526592 215.83190751075745 166.29332222044468 108.70507700741291 98.182468116283417 61.050238601863384 54.837012372910976 150.24357903748751 16.261692225933075 127.51423789560795 29.74837239086628 433.39521285891533 707.74591548740864 254.13181356340647 156.59834890812635 320.11279668658972 152.18479107320309 29.390786215662956 20.835669286549091 6.9255245476961127 259.30332879722118 260.74249602854252 253.09088586270809 101.99551250785589 18.574503913521767 1702.4919209033251 10.607187598943709 26.106468021869659 23.884895667433739 95.271290346980095 3.7797143459320059 68.977922707796097 338.32899089157581 58.115815259516239 21.967274829745293 56.526651620864868 46.189393952488899 159.76364661753178 5.9298632889986029 110.91480380296707 67.886866934597492 8.5971423983573896 218.12600050866604 167.98644933849573 63.644729539752007 14.952985152602194
leaf_count=12042 25 12586 1237 2995 975 1053 528 408 406 319 1067 74 838 127 1752 2889 1165 664 2071 638 183 111 40 1055 1069 1038 483 76 6838 45 111 101 513 17 312 1412 310 102 227 186 654 29 614 424 35 1511 1167 416 95
internal_value=0 0.0701995 -0.0232984 0.0486867 0.0046763 0.0389229 -0.0108258 -0.0267293 -0.0133006 -0.0165808 0.0464816 -0.0207701 0.0604461 0.0427498 -0.0304147 -0.0231439 -0.0279299 -0.0107273 0.025465 0.0118725 0.0583704 -0.00678486 -0.00394926 -0.0438557 -0.0505296 -0.0638261 0.0258754 -0.0272266 -0.0199808 0.00483905 -0.0075059 0.0388253 0.0561745 0.0701316 -0.0245326 -0.0320386 0.038762 -0.0242173 0.0123756 -0.00780017 -0.0206105 0.0552833 0.00402058 0.0088917 -0.083431 0.0695091 0.0602606 0.0456937 0.00493613
internal_weight=0 3154.89 9068.06 1824.43 990.659 1440.17 686.594 8077.4 1739.41 1678.36 1235.8 1567.67 742.468 110.692 6337.99 1522.02 469.964 814.273 493.332 308.783 45.6525 204.366 173.219 1215.13 955.826 522.431 216.63 5122.86 2139.06 311.881 55.8548 133.543 109.658 99.051 505.489 436.511 304.065 1827.18 124.683 102.716 178.338 114.635 183.53 178.802 269.34 614.954 464.71 296.724 78.5977
internal_count=63033 25013 38020 12427 4727 9432 3180 33293 7543 7137 8258 6580 5094 557 25750 6323 2140 3434 3164 1302 257 1174 1093 4949 3894 2142 1040 20801 8759 1406 238 676 575 530 2132 1820 1547 7353 515 413 730 557 1063 1038 1104 4256 3189 2022 511
cat_boundaries=0 1 2 3
cat_threshold=12 16 4
is_linear=0
shrinkage=0.1


Tree=12
num_leaves=50
num_cat=3
split_feature=180 180 180 127 127 87 89 131 20 53 47 125 23 155 44 70 113 96 136 0 180 149 167 96 152 92 141 134 50 89 150 180 92 78 138 167 41 103 172 161 81 151 135 52 115 69 129 83 92
split_gain=1761.29 174.846 107.486 49.0496 42.0875 43.3346 76.8543 43.4766 37.4547 37.9316 35.0421 33.1699 31.2006 28.6432 26.8475 25.926 25.2651 30.7925 25.3215 22.2763 20.6142 25.6921 28.4749 22.4558 20.2674 19.7844 19.1789 18.951 18.8555 18.7442 18.6008 18.4763 18.4485 19.2465 17.5791 19.5466 19.1209 17.4152 17.0399 16.6776 17.0306 16.4576 16.419 16.405 18.2005 16.821 16.1744 16.1686 16.1174
threshold=8.6911097696429362e-07 2.2589849635323847e-07 7.5210425620753094e-06 -5.7100000381469718 -6.9900000095367423 5.0150001049041757 4.7950000762939462 -7.3350000381469718 0 31.85000038146973 34.245000839233406 -5.7400000095367423 1 -2.8349999189376827 33.854999542236335 31.119999885559086 -6.8599998950958243 4.7349998950958261 -9.9949998855590803 2 3.9759062708810697e-09 3.304999947547913 -2.1350001096725459 5.555000066757203 -2.2050000429153438 4.4049999713897714 -5.9049999713897696 -13.15499973297119 33.489999771118171 5.0850000381469735 -1.4900000095367429 6.977806998875736e-09 4.8849999904632577 5.4049999713897714 -9.9699997901916486 -3.0849999189376827 31.775000572204593 4.6949999332427987 -2.1650000810623165 -1.3849999904632566 5.1349999904632577 6.2699999809265146 -1.3250000476837156 34.68499946594239 -0.85499998927116383 34.305000305175788 -5.2999999523162833 4.9549999237060556 3.7699999809265141
decision_type=2 2 2 2 2 2 2 8 1 2 2 2 1 2 8 10 10 10 8 1 2 10 8 10 10 2 8 8 2 2 10 2 2 10 8 8 8 10 8 2 10 10 8 2 10 8 2 10 2
left_child=1 4 3 14 20 19 -7 -8 9 -9 16 -11 25 -5 15 -2 17 18 -3 39 27 22 24 -24 -22 -13 -21 -1 -19 47 38 -14 33 -10 -28 -36 -37 -12 -23 -6 -41 48 -30 -18 -45 -46 -39 -27 -29
right_child=2 10 -4 13 5 6 7 8 32 11 37 12 31 -15 -16 -17 43 28 -20 26 21 30 23 -25 -26 29 34 41 42 -31 -32 -33 -34 -35 35 36 -38 46 -40 40 -42 -43 -44 44 45 -47 -48 -49 -50
leaf_value=0.028998543849912569 -0.24831467233254984 0.095531810066210296 0.09952582877822376 -0.010570258589290126 -0.052035271232926186 -0.030517042062395385 -0.027467785353169478 -0.00022911260921102533 -0.063935727632062095 -0.00071048049480656799 -0.052842531860566144 -0.082800843540000335 -0.080709395715171509 0.047771009115004703 0.093061507272884758 0.050961999670139417 0.056258299972510944 0.071399011578888713 -0.062901901251679368 -0.029319177377583345 -0.029250002266004511 -0.10998651255681569 -0.0099550359774533709 -0.058437060580607325 -0.064704830716448572 -0.076265848442647277 -0.043786061741020441 0.039517158286788916 0.015718933308188854 0.091977353228191894 -0.016049919346633277 0.049361507376732922 0.0043189606005522782 0.036533796268589831 -0.041304327435295773 -0.040953680029556398 0.0061588432936862088 -0.01206391270639205 -0.0555313478060038 -0.0021758074049155062 -0.054103595200317649 0.045584724939375432 -0.10845810672514576 0.027197119557935398 0.02596565911436427 -0.23736110015502138 0.047334916387566747 0.06149307962367459 -0.030283934323918012
leaf_weight=63.651158392429352 2.9453395009040824 11.509147644042967 1131.9028338342905 97.417126201093197 508.52753177285194 926.85406638681889 299.77330772578716 258.7266743183136 89.014429435133934 105.22095464169979 75.523832440376282 7.534969985485076 24.122513875365257 618.04950962215662 405.00642770528793 168.04681405425072 299.41085383296013 63.055197797715664 81.681456670165062 1236.1979497894645 284.60602302849293 106.03323182463646 493.13872957229614 118.4915791451931 371.93181937932968 12.551681056618689 141.18216624855995 33.947602272033691 154.26066831499338 237.76761746406555 55.573172837495804 19.95477107167244 332.12522356212139 24.26450888812542 132.92710433900356 98.648599028587341 679.70961411297321 196.44155982136726 125.44748717546463 171.21121381223202 100.07533591985703 30.676903381943703 11.437406152486799 254.17669510096312 4.6238577365875217 5.1031344383955011 59.79773260653019 26.52382929623127 1294.9095244258642
leaf_count=255 20 65 11593 591 2054 3734 1239 1066 359 464 410 32 103 4377 3472 1209 1793 379 416 5032 1146 432 2014 479 1514 51 580 136 913 1528 225 89 1348 98 535 403 2793 1077 511 705 417 123 66 1469 27 28 347 110 5206
internal_value=0 -0.0183494 0.0770299 0.0573134 -0.0234753 -0.0182379 -0.0080637 0.00641268 0.015339 0.0296456 0.0170776 0.0481521 0.0638053 0.0398273 0.0790334 0.045807 0.0274654 0.00511885 -0.0433352 -0.0260776 -0.033029 -0.0409874 -0.0348724 -0.0193475 -0.0493353 0.074459 -0.0207818 -0.0243322 0.0248583 0.0814288 -0.0680027 -0.0177878 -0.00740066 -0.042415 -0.0109515 -0.00586453 0.000187834 -0.0106407 -0.0804754 -0.0408303 -0.0213315 -0.0268291 0.00714754 0.0402368 0.0220598 -0.112185 0.0017978 0.0172427 -0.0285008
internal_weight=0 9628.34 2423.37 1291.47 8411.32 5432.91 2364.43 1437.58 1137.81 692.403 1217.02 433.676 328.455 715.467 575.999 170.992 885.258 321.944 93.1906 3068.48 2978.41 1555.22 1268.17 611.63 656.538 284.378 2288.67 1423.19 228.753 276.843 287.054 44.0773 445.404 113.279 1052.47 911.285 778.358 331.763 231.481 779.814 271.287 1359.53 165.698 563.315 263.904 9.72699 256.239 39.0755 1328.86
internal_count=63033 41771 21262 9669 34781 22740 10221 6487 5248 3443 6990 2377 1913 4968 4701 1229 5156 1839 481 12519 12041 6321 5153 2493 2660 1721 9343 5720 1358 1689 1168 192 1805 457 4311 3731 3196 1834 943 3176 1122 5465 979 3317 1524 55 1424 161 5342
cat_boundaries=0 1 2 3
cat_threshold=10 8 16
is_linear=0
shrinkage=0.1


Tree=13
num_leaves=50
num_cat=2
split_feature=180 180 180 162 134 54 158 126 155 48 121 55 91 152 46 55 128 96 88 70 8 109 161 139 167 60 72 177 130 105 67 84 169 156 45 29 128 101 172 158 119 159 112 132 180 151 61 46 170
split_gain=1505.14 142.238 107.385 45.8168 37.5784 45.33 37.797 36.5119 36.0894 32.218 29.7267 29.3128 28.9296 28.1221 25.4325 22.1205 21.9867 22.7023 21.7409 21.5666 21.3564 21.0277 20.9995 20.8912 20.4665 19.9389 18.9618 18.8615 18.7632 18.6806 17.7275 17.7088 17.5121 17.4587 17.2568 16.8853 16.5647 21.3774 17.7677 16.4236 17.9706 16.4108 16.3384 16.2764 16.2617 16.0829 16.8011 15.7253 16.4489
threshold=8.6911097696429362e-07 2.2589849635323847e-07 7.5210425620753094e-06 4.0099999904632577 -5.9349999427795401 31.530000686645511 1.0000000180025095e-35 -5.379999876022338 -2.8349999189376827 34.055000305175788 -4.8450000286102286 37.114999771118171 5.2249999046325692 2.5949999094009404 31.775000572204593 34.48500061035157 -8.4450001716613752 5.6050000190734872 5.1849999427795419 32.524999618530281 0 -4.3099999427795401 1.6600000262260439 -14.785000324249266 -1.0049999952316282 34.704999923706062 4.8450000286102304 4.0099999904632577 -0.54499998688697804 4.4049999713897714 37.239999771118171 5.6549999713897714 -3.0549999475479122 -3.4350000619888301 36.475000381469734 1 -3.8749999999999996 5.3450000286102304 -2.5749999284744258 4.2249999046325692 -8.0500001907348615 2.6049998998641972 -11.120000362396238 -12.695000171661375 5.0252424443897334e-06 -0.67500001192092884 36.295000076293952 34.225000381469734 3.1049998998641972
decision_type=2 2 2 2 10 2 2 2 2 2 2 2 2 8 10 2 2 10 2 10 9 10 2 8 10 10 10 10 2 10 8 2 8 2 8 9 2 8 8 2 10 2 10 10 2 8 10 10 10
left_child=1 4 3 8 14 6 -6 11 -2 19 12 24 22 20 15 18 42 33 -1 36 -11 23 29 43 -8 -24 31 -23 34 -3 39 -12 44 -18 -25 -35 37 -10 -38 -14 -41 -30 -7 -16 -22 -19 -47 48 -34
right_child=2 10 -4 -5 5 16 7 -9 9 13 26 -13 30 -15 21 -17 17 45 -20 -21 32 27 25 28 -26 -27 -28 -29 41 -31 -32 -33 47 35 -36 -37 38 -39 -40 40 -42 -43 -44 -45 -46 46 -48 -49 -50
leaf_value=-0.036169720713882227 -0.0060247716037992458 -0.11400901546533118 0.097309835850471788 0.093348129909076691 -0.0099686418139094436 0.014620608730832594 0.091241357354104935 -0.026038553046119118 -0.23226643912413703 0.069263020437311126 0.014016344103524914 -0.037918567171878692 0.04521536033160882 0.091824077834334855 0.20051638388835744 -0.061252672334709428 -0.037455868053338871 -0.054590131241523968 0.035815607157487876 0.030316444190072036 -0.016674340897145288 -0.0081452188555881586 0.06202853570712117 -0.033592238894980052 -0.047431088577445317 -0.10370652842310438 0.03857510994296566 -0.045875705130432605 -0.0026721604340351752 -0.026804238696332194 -0.15330907872026911 -0.073410165098070912 0.025095412810167451 -0.025566687960231416 -0.0055467193913797648 -0.0035618839993520023 -0.16715367209108589 0.085453335099501163 0.04756551766726598 -0.25682392016037053 -0.0031466981683099349 0.11760536709757662 -0.045725692067774472 0.016685841683315654 -0.24788689388621848 0.022346229590271154 -0.097693305807600883 0.068005858625963922 -0.098029762935820941
leaf_weight=308.31961958855391 124.00372618436813 27.990732781589031 1046.3275110796094 237.19521421939135 308.74233237653971 50.683784648776054 144.7239610478282 57.865730285644531 8.7572763487696612 235.7727188244462 224.8028656989336 23.879205405712128 141.62407384067774 213.05366460978985 5.4854259341955176 370.72078832983971 229.55664230883121 218.06550699472427 48.564066469669342 156.98914787173271 36.415148131549358 1065.7142720073462 42.186994202435017 2496.6069019734859 11.487796962261198 8.7675106748938543 512.01762495934963 151.30336537957191 85.213342607021332 200.68732447177172 5.1891149729490271 25.830935850739479 100.9743617400527 438.11367060989141 240.5363832488656 1622.2928067743778 5.1301240175962448 2.7931537404656419 15.490279570221903 3.6651211008429518 11.729506507515906 13.085897989571093 390.80363403260708 39.490257650613785 3.3191526532173148 60.337297081947327 14.452617526054381 89.256623990833759 12.156610101461409
leaf_count=1261 781 139 11593 2135 1297 204 956 239 62 1820 1318 97 841 1877 22 1506 935 879 220 1105 236 4341 253 10208 53 49 3059 618 367 1065 30 150 728 1790 986 6679 34 20 101 19 67 85 1575 162 32 243 58 657 81
internal_value=0 -0.0165507 0.0737113 0.0538196 -0.0211609 -0.0133844 0.0131151 0.0430655 0.044482 0.0515982 0.0155856 0.0652696 -0.00505403 0.0616091 -0.0269163 -0.044145 -0.0181746 -0.0146495 -0.0263741 0.0150312 0.0481387 -0.0238569 -0.0245426 -0.0285135 0.0810434 0.0335113 0.0275431 -0.012836 -0.029586 -0.0374783 0.0285427 0.00500595 0.0237277 -0.0112967 -0.0311276 -0.00838224 -0.0595587 -0.155435 -0.0058542 0.0345525 -0.0635416 0.0133396 -0.0387978 0.0391066 -0.0359884 -0.040866 -0.000850554 0.0366241 0.0118649
internal_weight=0 9600.54 2287.63 1241.31 8396.05 3571 546.699 237.957 1004.11 880.108 1204.49 180.091 441.84 690.948 4825.04 727.604 3024.31 2582.82 356.884 189.16 477.895 4097.44 279.633 2880.42 156.212 50.9545 762.651 1217.02 2835.44 228.678 162.208 250.634 242.122 2289.96 2737.14 2060.41 32.1708 11.5504 20.6204 157.019 15.3946 98.2992 441.487 44.9757 39.7343 292.855 74.7899 202.388 113.131
internal_count=63033 41771 21262 9669 34781 15005 2642 1345 7534 6753 6990 1106 2463 5431 19776 2987 12363 10584 1481 1322 3554 16789 1506 11830 1009 302 4527 4959 11646 1204 957 1468 1734 9404 11194 8469 217 82 135 927 86 452 1779 184 268 1180 301 1466 809
cat_boundaries=0 1 2
cat_threshold=24 16
is_linear=0
shrinkage=0.1


Tree=14
num_leaves=50
num_cat=1
split_feature=180 180 180 127 132 25 168 56 90 55 127 92 44 143 52 180 136 152 89 133 129 90 156 160 46 89 58 142 111 127 42 101 119 66 86 168 112 137 62 73 108 153 141 85 117 122 88 138 129
split_gain=1287.41 116.474 106.241 43.7674 37.9125 42.107 35.2934 35.0834 31.8445 31.0051 29.8181 30.6234 26.1121 24.7602 24.5585 22.1136 26.2577 21.9719 21.901 29.0527 21.787 21.7578 21.2289 20.6322 20.1087 19.4342 18.9849 18.8638 18.7262 18.3003 17.8673 18.9627 18.0608 17.2226 17.1928 16.4599 16.283 16.2649 16.2161 15.5734 15.4154 16.2512 16.2202 15.3737 19.4776 14.9481 14.8558 14.8532 18.1741
threshold=8.6911097696429362e-07 2.6065215763537713e-07 7.5210425620753094e-06 -5.7100000381469718 -3.7350000143051143 0 -2.1650000810623165 32.534999847412116 5.6549999713897714 31.534999847412113 -2.7949999570846553 4.7950000762939462 33.854999542236335 -7.6400001049041739 35.05999946594239 4.9772539423287307e-09 -3.9350000619888301 5.0250000953674325 4.9849998950958261 -6.3150000572204581 -5.8250000476837149 4.9449999332427987 -1.3450000286102293 -2.4950000047683711 35.594999313354499 5.3150000572204599 36.245000839233406 -0.4849999845027923 -10.715000152587889 -3.195000052452087 33.335000991821296 4.3550000190734872 -3.3249999284744258 33.414999008178718 5.0350000858306894 -2.3249999284744258 -1.9199999570846555 -6.0950000286102286 34.094999313354499 5.2249999046325692 -6.569999933242797 -4.0950000286102286 -6.1600000858306876 4.8350000381469735 -1.5199999809265134 -6.6499998569488517 4.6250000000000009 -3.5249999761581416 -7.5250000953674308
decision_type=2 2 2 2 8 9 8 2 2 2 2 2 8 8 2 2 10 10 2 8 2 2 2 2 8 2 2 8 8 2 10 10 8 8 2 8 10 8 8 10 10 8 10 2 10 2 2 10 2
left_child=1 4 3 12 13 8 30 28 23 18 -11 25 27 15 39 -1 17 20 -8 -20 -17 37 26 -6 35 -12 -23 -2 -3 -22 31 -7 -33 -27 46 -16 38 -5 -10 -9 41 -15 -42 -28 -45 -34 -25 -44 -49
right_child=2 7 -4 21 5 6 9 14 36 10 11 -13 -14 40 24 16 -18 -19 19 -21 29 22 -24 34 -26 33 43 -29 -30 -31 -32 32 45 -35 -36 -37 -38 -39 -40 -41 42 -43 47 44 -46 -47 -48 48 -50
leaf_value=-0.022229962007257978 0.044350018359420262 -0.098286437360571494 0.095141476911548534 -0.03963421621752139 -0.023967051974859131 -0.08344013308044429 -0.0046918480852873243 0.029810267674804498 -0.06699717617276589 -0.016820963846166073 0.085138618576281327 -0.015977654513859411 0.087526889276213229 0.0094877660722105413 -0.038215991957840117 -0.058620333634099756 -0.01601145413274006 -0.11149366638408387 -0.029912223620078185 0.11128490462814729 -0.036776411815399861 0.058295583497997544 -0.0081725383681020679 -0.12718861089405498 0.047983102138916441 0.097599198821940791 -0.082460772039665009 -0.1777200440201121 -0.0051419293562411069 0.030355479838780064 -0.035033237383935094 -0.014360525021290578 -0.13089059741000739 -0.025917149540148496 0.059485268746269748 0.014030696164053603 -0.15235551558644711 0.031452273349324676 0.022618347367994413 0.071141909584837529 -0.021214856314481466 -0.02784473099796661 -0.0097916772748068773 0.049304623456508191 -0.15025491066345553 0.055926147501430802 0.021460185799993831 -0.033192328785171615 0.035603088372106795
leaf_weight=1121.45132740587 156.03102102130651 23.487875238060951 967.24016799777746 62.679957546293736 66.951771587133408 28.868702076375484 60.776179030537605 233.44702831655741 40.433065041899681 1085.6156996265054 80.110819555819035 118.59367650747299 356.9616220369935 126.36838567256927 94.945005923509598 505.59415522217751 280.78032295405865 56.842529967427254 19.505298927426338 57.623230248689651 179.95765683799982 409.26725958287716 71.790670357644558 6.9700214117765418 98.667678028345108 15.63913371413946 16.577035807073116 3.9212837293744078 266.30647498369217 52.439762227237225 900.87826466560364 188.92962421476841 4.5693131536245337 40.583385460078716 171.86132863909006 165.2437686547637 10.918598942458628 66.160954788327217 40.335204802453518 149.57219294458628 764.79476062953472 1508.9825322777033 523.99824997037649 46.253298290073872 5.4692500159144393 68.371553339064121 189.83368857949972 48.920466586947441 178.56530559062958
leaf_count=4581 1204 131 11593 396 280 118 253 1482 167 4465 525 491 3472 520 542 2080 1164 242 84 339 738 3141 486 28 619 75 116 25 1478 228 3711 783 19 183 815 1008 45 452 167 974 3116 6166 2143 341 36 281 803 197 730
internal_value=0 -0.0149252 0.0705027 0.0505618 -0.0187567 -0.0101421 -0.0152137 0.016814 0.0155328 -0.00494902 -0.00959378 0.0211835 0.0724818 -0.0239064 0.0283395 -0.0320553 -0.0422993 -0.0515857 0.0402016 0.0755771 -0.0469714 0.0338546 0.0425288 0.0271017 0.00954267 0.0535092 0.0501505 0.0389059 -0.0126913 -0.0216283 -0.0280769 -0.0065222 0.00195726 0.00844077 0.036376 -0.00503455 -0.0377382 -0.00313067 -0.0222437 0.0459506 -0.0182256 -0.0249599 -0.0109625 0.00134356 0.0282028 0.0442232 0.0161956 -0.00052846 0.0208087
internal_weight=0 9577.73 2162.35 1195.11 8546.06 3197.37 2670.06 1031.67 527.304 1478.45 1340.54 254.927 516.914 5348.7 741.876 2197.07 1075.61 794.834 137.905 77.1285 737.992 678.198 549.358 435.617 358.856 136.333 477.567 159.952 289.794 232.397 1191.62 290.739 261.87 56.2225 368.665 260.189 91.6869 128.841 80.7683 383.019 3151.63 1635.35 1516.28 68.2996 51.7225 72.9409 196.804 751.484 227.486
internal_count=63033 41771 21262 9669 35537 13632 11327 6234 2305 6415 5739 1274 4701 21905 4625 9033 4452 3288 676 423 3046 4968 4120 1926 2169 783 3634 1229 1609 966 4912 1201 1083 258 1646 1550 379 848 334 2456 12872 6686 6186 493 377 300 831 3070 927
cat_boundaries=0 1
cat_threshold=8
is_linear=0
shrinkage=0.1


Tree=15
num_leaves=50
num_cat=5
split_feature=180 180 180 162 18 91 152 47 21 54 24 123 126 43 37 106 118 83 0 120 152 165 167 158 141 132 64 54 141 157 171 83 169 112 133 135 179 13 167 145 173 49 64 172 111 165 173 71 46
split_gain=1099.47 104.838 96.5956 42.2496 33.0794 37.9548 30.6933 28.0899 26.783 28.8345 30.1706 29.3324 26.5779 26.3904 22.4609 22.5752 22.3999 22.1253 21.8739 21.4459 21.344 19.9229 19.5718 19.4771 18.0616 17.9637 17.3164 17.7676 17.1172 19.855 17.1917 17.1062 17.0906 19.2447 16.8103 18.6916 16.4933 16.063 20.3047 17.5265 16.0084 15.9888 15.9354 19.2616 15.7 18.3279 15.8354 15.5484 15.5389
threshold=8.6911097696429362e-07 7.5210425620753094e-06 1.8533549450694411e-07 4.0099999904632577 0 5.3750000000000009 2.5949999094009404 33.854999542236335 1 31.154999732971195 2 -5.8099999427795401 -5.379999876022338 33.039999008178718 37.864999771118171 4.6250000000000009 -0.62999999523162831 5.7550001144409189 3 -1.1150000095367429 -1.9350000023841856 -2.1500000953674312 -1.1850000023841856 4.2249999046325692 -8.8200001716613752 -0.85499998927116383 37.034999847412116 31.000000000000004 -3.4999999999999996 -3.4950000047683711 -3.695000052452087 4.5350000858306894 -1.6449999809265134 -4.504999876022338 -2.3900001049041744 -5.319999933242797 -3.2450000047683711 4 3.995000004768372 -4.6800000667572013 -1.6649999618530271 34.82500076293946 36.284999847412116 -3.9750000238418575 -8.1700000762939435 3.9250000715255742 5.8350000381469735 36.245000839233406 31.250000000000004
decision_type=2 2 2 2 1 2 8 2 1 2 1 2 2 10 8 10 10 8 1 2 10 2 10 2 10 10 8 2 10 2 10 10 10 8 10 10 8 1 8 10 10 2 10 10 10 2 10 8 8
left_child=2 3 8 6 5 17 13 -6 9 12 11 -11 22 -2 15 -15 25 24 20 -8 44 -13 -1 -7 -4 -17 27 -9 34 -30 -31 47 33 -21 -20 42 -33 -26 39 -39 -27 -3 -36 -44 -10 -46 -47 -12 -29
right_child=1 41 4 -5 7 23 19 26 18 10 31 21 -14 14 -16 16 -18 -19 28 32 -22 -23 -24 -25 37 40 -28 48 29 30 -32 36 -34 -35 35 -37 -38 38 -40 -41 -42 -43 43 -45 45 46 -48 -49 -50
leaf_value=0.081857213568492945 0.064636164353591916 0.097036285627301405 -0.039296679476447022 0.088081949999563258 0.056718081458703919 0.031475279390765852 0.074075295340717578 -0.14605542885837461 -0.0016490070453912748 -0.033059993556399221 -0.071301870432837172 0.088490645845269611 -0.043049628976855631 -0.027619018545780711 -0.26836875053208747 0.036135649542669387 -0.081472030772841875 -0.10763193062818006 -0.022432809762849726 -0.35329421975432873 -0.041544693892369838 0.010500738150829789 -0.076529534791394904 -0.097049804934757525 -0.039382740835500779 -0.0080474334855397591 -0.13320525213395087 -0.056832906245079119 0.044177979400480863 -0.046343657040439093 -0.0056907059701129855 -0.04369394102260498 0.086207931730480941 0.027989471160390134 -0.02883981247966735 0.020613501529310949 -0.005237953723403241 -0.090759898354751636 -0.12689126300896877 0.01718344400195455 -0.23311337678300179 0.048707353288567991 -0.12790755932149567 0.071943853555037227 -0.020263822691764136 -0.070440560109551562 0.082125144412484155 0.032293496993221815 0.030904182106532924
leaf_weight=86.039790995419025 150.12875598669052 819.63592731952667 158.91315720230341 208.69229356944561 242.78706640005112 338.14366815984249 240.93591292947531 6.8680487424135199 321.5904883518815 55.366608694195747 88.898578941822052 73.237204469740391 28.240539595484734 88.023562245070934 2.73907347023487 419.14411281049252 18.034262105822563 24.256345510482788 3378.0547685623169 3.1784076243638992 831.41238141804934 59.257560670375824 8.5797249078750593 12.216939374804495 75.592578396201134 10.681728355586527 8.6953786462545377 23.619714014232159 72.773274287581444 115.18892907351255 1073.2334301695228 134.04645321518183 3.6043017581105214 2.2686454206705093 238.94743569195271 203.04903499782085 663.8620740622282 15.708677932620047 10.737730473279951 354.38811147212982 4.4881622567772856 74.692418433725834 5.6910450458526602 31.601284846663475 524.39621715247631 123.92048834264278 7.19843666255474 17.308747574687004 138.86502186954021
leaf_count=621 1215 10709 811 2135 1479 2000 2278 35 1330 226 360 389 122 594 17 3120 123 123 13857 25 3431 240 38 66 381 75 44 132 295 471 4408 549 35 20 979 851 2703 81 58 1968 32 884 23 132 2161 503 30 70 804
internal_value=0 0.0673112 -0.0134606 0.0473669 0.0106966 0.000532517 0.0383585 0.0337906 -0.0176465 -0.00381333 -0.0090124 0.0266481 0.0420855 0.027526 0.0172678 0.0187157 0.0277321 -0.0139541 -0.0200381 0.0683983 -0.0296039 0.0536101 0.0674953 0.0269937 -0.0102614 0.0322666 0.00442435 0.0114909 -0.0166071 -0.00652615 -0.00963103 -0.016534 -0.0827164 -0.194493 -0.0199462 -0.00242037 -0.0116985 -0.000152279 0.00844697 0.0126018 -0.0746354 0.093 -0.0193513 0.0414453 -0.0197465 -0.028625 -0.0620647 -0.0544188 0.0181502
internal_weight=0 2046.25 9552.69 1151.92 1410.79 989.957 943.227 420.835 8141.89 1214.84 1091.98 187.861 122.86 693.24 543.111 540.372 452.348 639.597 6927.06 249.987 1808.52 132.495 94.6195 350.361 615.34 434.314 178.048 169.353 5118.54 1261.2 1188.42 904.116 9.05135 5.44705 3857.34 479.289 797.909 456.427 380.835 370.097 15.1699 894.328 276.24 37.2923 977.106 655.515 131.119 106.207 162.485
internal_count=63033 21262 41771 9669 7982 5488 7534 2494 33789 5318 4537 855 781 5176 3961 3944 3350 3422 28471 2358 7455 629 659 2066 3299 3227 1015 971 21016 5174 4879 3682 80 45 15842 1985 3252 2488 2107 2049 107 11593 1134 155 4024 2694 533 430 936
cat_boundaries=0 1 2 3 4 5
cat_threshold=16 8 8 16 16
is_linear=0
shrinkage=0.1


Tree=16
num_leaves=50
num_cat=3
split_feature=180 180 180 155 152 131 159 49 5 55 169 8 56 160 160 167 152 102 51 128 144 170 56 180 162 24 160 61 89 169 169 40 108 61 56 137 89 177 146 38 70 132 180 160 108 95 69 157 68
split_gain=938.505 103.871 79.5712 54.1587 45.1322 30.0444 32.7832 30.3042 29.5541 28.5849 26.7375 26.4241 26.3329 24.9828 39.2107 29.1485 24.48 24.5319 21.8046 20.1075 20.9514 19.9278 19.8679 19.7787 19.7809 19.7757 18.2697 17.7387 17.4412 17.1357 16.9044 16.8492 16.6837 16.5376 16.2622 19.035 17.8445 16.8741 16.2345 16.1969 16.1932 16.1837 17.6639 21.2366 16.073 19.9405 19.5846 17.2411 15.7933
threshold=8.6911097696429362e-07 1.6224528735619973e-05 2.6065215763537713e-07 -2.8349999189376827 2.5949999094009404 -7.6699998378753653 -2.195000052452087 33.174999237060554 0 31.534999847412113 4.5350000858306894 1 32.534999847412116 -0.6899999976158141 -0.62999999523162831 -1.0850000381469724 -1.314999997615814 5.2049999237060556 31.185000419616703 -1.6549999713897703 2.6400001049041752 3.6950000524520878 31.425000190734867 4.1086787305744117e-08 4.3999998569488534 2 -1.0049999952316282 35.424999237060554 4.8450000286102304 3.8750000000000004 -2.0149999856948848 31.119999885559086 -6.4049999713897696 36.395000457763679 33.815000534057624 -0.85499998927116383 4.8450000286102304 -4.6800000667572013 -1.0850000381469724 34.774999618530281 32.174999237060554 -7.1150000095367423 1.2236004920396229e-07 -2.564999938011169 -7.8599998950958243 5.0850000381469735 35.754999160766609 -2.2050000429153438 34.274999618530281
decision_type=2 2 2 2 8 8 2 2 9 2 10 9 2 2 2 8 8 10 2 2 10 8 2 2 2 1 2 10 2 8 8 10 10 10 2 8 2 8 10 10 10 10 2 2 8 10 10 2 8
left_child=2 3 5 -2 11 23 8 39 44 21 18 -5 40 16 15 -15 22 -18 -11 20 30 26 -10 -1 -25 -24 27 -9 -22 41 -14 -13 -19 -32 35 37 -37 -33 -29 -8 -4 -20 -43 -44 47 -46 -47 -7 -27
right_child=1 -3 12 4 -6 6 7 9 13 10 -12 31 19 14 -16 -17 17 32 29 -21 28 -23 25 24 -26 48 -28 38 -30 -31 33 34 -34 -35 -36 36 -38 -39 -40 -41 -42 42 43 -45 45 46 -48 -49 -50
leaf_value=-0.020392329607968957 -0.0094495888252630941 0.097547699713775263 -0.066277232676217948 0.060430701475159554 0.084405295617514739 -0.050314147076686071 -0.0084254594141109848 0.097794149271968611 -0.044323584253938203 0.091703613198978018 -0.057381428850270123 -0.17052473604899945 -0.0098572881470975985 0.058265936204706853 -0.019875893036724764 -0.060175879023764194 -0.023409831966481859 -0.070632675972383305 -0.02353394742923192 0.090331965113487858 0.012526107949087284 -0.094318635986279695 0.0081139821975281714 -0.035914812589519673 -0.098945639127797622 -0.0061986048170761081 -0.03715182927833937 -0.14417874226377514 0.084592882003271516 0.053832142737220146 0.030373599904441696 -0.1416576619005841 -0.03202195082452719 -0.097515762768226988 0.045936480943010255 -0.35634944809327274 -0.036991112337082722 0.016997838804911843 0.10468839199955211 -0.055657288164739062 -0.00095379006237057045 0.0022433752635779135 -0.10913356482874646 0.064970221904664574 0.018283343550899719 -0.0029569913637655827 -0.077147521481764514 -0.0033504348503014831 -0.027400617442786376
leaf_weight=1742.747005790472 145.2569810077548 629.73099114745855 44.860834322869778 391.5902553871274 365.67948465049267 116.37946969270706 177.28091152012348 83.448473021388054 231.55639883875847 29.314099691808224 69.44031597673893 4.459967114031314 220.24096141010523 139.91454200446606 306.25674786418676 24.401927277445793 713.03305250406265 247.74926248192787 211.63216058164835 43.731801509857178 56.957339085638523 8.3493093103170377 349.90379546582699 415.2442372739315 56.573213130235672 608.99612592160702 14.839158177375792 6.1884177178144455 81.826709754765034 65.374825775623322 308.010353051126 6.9411690458655357 204.11312565952539 10.454430706799029 192.33099007606506 2.6906696632504454 5.0026870891451836 195.89051937311888 4.547351807355879 122.9633744508028 246.28007343411446 681.85169151425362 7.6740676909685126 80.476072259247303 502.73512654006481 181.80242376774549 44.239203810691833 238.0907246991992 830.38785941898823
