tree
version=v4
num_class=1
num_tree_per_iteration=1
label_index=0
max_feature_idx=1000
objective=binary sigmoid:1
feature_names=0 1 2 3 4 5 6 7 8 9 10 11 12 13 14 15 16 17 18 19 20 21 22 23 24 25 26 27 28 29 30 31 32 33 34 35 36 37 38 39 40 41 42 43 44 45 46 47 48 49 50 51 52 53 54 55 56 57 58 59 60 61 62 63 64 65 66 67 68 69 70 71 72 73 74 75 76 77 78 79 80 81 82 83 84 85 86 87 88 89 90 91 92 93 94 95 96 97 98 99 100 101 102 103 104 105 106 107 108 109 110 111 112 113 114 115 116 117 118 119 120 121 122 123 124 125 126 127 128 129 130 131 132 133 134 135 136 137 138 139 140 141 142 143 144 145 146 147 148 149 150 151 152 153 154 155 156 157 158 159 160 161 162 163 164 165 166 167 168 169 170 171 172 173 174 175 176 177 178 179 180 181 182 183 184 185 186 187 188 189 190 191 192 193 194 195 196 197 198 199 200 201 202 203 204 205 206 207 208 209 210 211 212 213 214 215 216 217 218 219 220 221 222 223 224 225 226 227 228 229 230 231 232 233 234 235 236 237 238 239 240 241 242 243 244 245 246 247 248 249 250 251 252 253 254 255 256 257 258 259 260 261 262 263 264 265 266 267 268 269 270 271 272 273 274 275 276 277 278 279 280 281 282 283 284 285 286 287 288 289 290 291 292 293 294 295 296 297 298 299 300 301 302 303 304 305 306 307 308 309 310 311 312 313 314 315 316 317 318 319 320 321 322 323 324 325 326 327 328 329 330 331 332 333 334 335 336 337 338 339 340 341 342 343 344 345 346 347 348 349 350 351 352 353 354 355 356 357 358 359 360 361 362 363 364 365 366 367 368 369 370 371 372 373 374 375 376 377 378 379 380 381 382 383 384 385 386 387 388 389 390 391 392 393 394 395 396 397 398 399 400 401 402 403 404 405 406 407 408 409 410 411 412 413 414 415 416 417 418 419 420 421 422 423 424 425 426 427 428 429 430 431 432 433 434 435 436 437 438 439 440 441 442 443 444 445 446 447 448 449 450 451 452 453 454 455 456 457 458 459 460 461 462 463 464 465 466 467 468 469 470 471 472 473 474 475 476 477 478 479 480 481 482 483 484 485 486 487 488 489 490 491 492 493 494 495 496 497 498 499 500 501 502 503 504 505 506 507 508 509 510 511 512 513 514 515 516 517 518 519 520 521 522 523 524 525 526 527 528 529 530 531 532 533 534 535 536 537 538 539 540 541 542 543 544 545 546 547 548 549 550 551 552 553 554 555 556 557 558 559 560 561 562 563 564 565 566 567 568 569 570 571 572 573 574 575 576 577 578 579 580 581 582 583 584 585 586 587 588 589 590 591 592 593 594 595 596 597 598 599 600 601 602 603 604 605 606 607 608 609 610 611 612 613 614 615 616 617 618 619 620 621 622 623 624 625 626 627 628 629 630 631 632 633 634 635 636 637 638 639 640 641 642 643 644 645 646 647 648 649 650 651 652 653 654 655 656 657 658 659 660 661 662 663 664 665 666 667 668 669 670 671 672 673 674 675 676 677 678 679 680 681 682 683 684 685 686 687 688 689 690 691 692 693 694 695 696 697 698 699 700 701 702 703 704 705 706 707 708 709 710 711 712 713 714 715 716 717 718 719 720 721 722 723 724 725 726 727 728 729 730 731 732 733 734 735 736 737 738 739 740 741 742 743 744 745 746 747 748 749 750 751 752 753 754 755 756 757 758 759 760 761 762 763 764 765 766 767 768 769 770 771 772 773 774 775 776 777 778 779 780 781 782 783 784 785 786 787 788 789 790 791 792 793 794 795 796 797 798 799 800 801 802 803 804 805 806 807 808 809 810 811 812 813 814 815 816 817 818 819 820 821 822 823 824 825 826 827 828 829 830 831 832 833 834 835 836 837 838 839 840 841 842 843 844 845 846 847 848 849 850 851 852 853 854 855 856 857 858 859 860 861 862 863 864 865 866 867 868 869 870 871 872 873 874 875 876 877 878 879 880 881 882 883 884 885 886 887 888 889 890 891 892 893 894 895 896 897 898 899 900 901 902 903 904 905 906 907 908 909 910 911 912 913 914 915 916 917 918 919 920 921 922 923 924 925 926 927 928 929 930 931 932 933 934 935 936 937 938 939 940 941 942 943 944 945 946 947 948 949 950 951 952 953 954 955 956 957 958 959 960 961 962 963 964 965 966 967 968 969 970 971 972 973 974 975 976 977 978 979 980 981 982 983 984 985 986 987 988 989 990 991 992 993 994 995 996 997 998 999 1000
feature_infos=-1:1:3:4:2:0 -1:3:1:4:2:0 -1:1:3:4:2:0 -1:3:1:4:2:0 -1:1:4:3:2:0 -1:1:3:4:2:0 -1:1:3:4:2:0 -1:3:1:4:2:0 -1:1:3:4:2:0 -1:3:1:4:2:0 -1:4:2:1:3:0 -1:4:1:3:2:0 -1:3:4:1:2:0 -1:3:1:4:2:0 -1:3:2:1:4:0 -1:3:1:2:4:0 -1:1:4:3:2:0 -1:4:1:3:2:0 -1:2:4:1:3:0 -1:4:1:3:2:0 -1:4:3:2:1:0 -1:3:2:1:4:0 -1:1:4:3:2:0 -1:3:2:1:4:0 -1:2:4:3:1:0 -1:1:4:2:3:0 -1:2:4:3:1:0 -1:3:4:2:1:0 -1:3:4:1:2:0 -1:2:1:3:4:0 -1:2:3:1:4:0 -1:3:1:2:4:0 -1:3:2:1:4:0 -1:1:3:2:4:0 -1:3:1:2:4:0 -1:3:2:1:4:0 -1:3:2:1:4:0 -1:3:2:4:1:0 -1:3:2:1:4:0 -1:2:3:4:1:0 -1:2:1:3:4:0 -1:2:3:1:4:0 -1:3:2:1:4:0 -1:3:2:1:4:0 -1:3:2:4:1:0 -1:2:3:4:1:0 -1:3:2:1:4:0 -1:3:2:1:4:0 -1:2:3:4:1:0 -1:2:3:1:4:0 -1:3:2:1:4:0 -1:2:3:1:4:0 -1:2:3:1:4:0 -1:2:3:1:4:0 -1:2:3:1:4:0 -1:3:2:1:4:0 -1:3:2:1:4:0 -1:2:3:1:4:0 -1:2:3:4:1:0 -1:3:2:4:1:0 -1:3:2:4:1:0 -1:3:2:4:1:0 -1:3:2:1:4:0 -1:3:2:1:4:0 -1:3:2:1:4:0 -1:2:3:1:4:0 -1:2:3:1:4:0 -1:3:2:4:1:0 -1:3:2:4:1:0 -1:2:3:4:1:0 -1:2:3:4:1:0 -1:3:2:4:1:0 -1:3:2:4:1:0 -1:2:3:4:1:0 -1:2:3:4:1:0 -1:2:3:4:1:0 -1:2:3:4:1:0 -1:2:3:4:1:0 -1:4:2:3:1:0 -1:2:4:3:1:0 -1:2:3:4:1:0 -1:2:3:1:4:0 -1:4:2:3:1:0 -1:3:4:2:1 -1:3:2:4:1 -1:3:2:4:1 -1:2:3:4:1 -1:2:4:3:1 -1:2:4:1:3 -1:2:1:4:3 -1:2:4:3:1 -1:1:3:4:2 -1:3:2:4:1 -1:2:4:1:3 -1:3:4:1:2 -1:2:4:3:1 -1:2:4 -1:2:1:4:3 -1:2:4:1:3 -1:2:3 -1:4:1:2:3 -1:3:1:4:2 -1:3:2:1:4 -1:4:1:2:3 -1:3:4:1:2 -1:3:2:4:1 -1:2:4:1:3 -1:2:4:1:3 -1:3:1:2:4 -1:2:3:4:1 -1:1:3:2:4 -1:3:2:1:4 -1:3:2:4:1 -1:3:2:4:1 -1:3:2:1:4 -1:3:1:2:4 -1:2:3:1:4:0 -1:1:2:4:3:0 -1:1:2:4:3:0 -1:4:2:3:1:0 -1:3:2:4:1:0 -1:2:3:1:4:0 -1:2:1:3:4:0 -1:2:1:3:4:0 -1:2:3:4:1:0 -1:2:3:4:1:0 -1:2:4:3:1:0 -1:2:3:1:4:0 -1:2:3:1:4:0 -1:3:2:4:1:0 -1:2:3:4:1:0 -1:2:3:1:4:0 -1:2:3:4:1:0 -1:2:3:1:4:0 -1:2:3:4:1:0 -1:2:3:4:1:0 -1:2:3:4:1:0 -1:2:3:1:4:0 -1:3:2:1:4:0 -1:4:3:2:1:0 -1:2:3:1:4:0 -1:2:3:4:1:0 -1:2:3:4:1:0 -1:2:3:4:1:0 -1:3:2:1:4:0 -1:3:2:4:1:0 -1:3:2:4:1:0 -1:2:3:4:1:0 -1:3:2:4:1:0 -1:2:3:4:1:0 -1:3:2:1:4:0 -1:2:3:4:1:0 -1:2:3:1:4:0 -1:3:2:1:4:0 -1:3:2:4:1:0 -1:2:3:4:1:0 -1:3:2:4:1:0 -1:2:3:4:1:0 -1:3:2:4:1:0 -1:2:3:4:1:0 -1:2:4:3:1:0 -1:2:3:4:1:0 -1:2:3:4:1:0 -1:3:1:4:2:0 -1:3:2:4:1:0 -1:2:3:4:1:0 -1:2:3:1:4:0 -1:2:3:1:4:0 -1:3:2:4:1:0 -1:2:3:4:1:0 -1:2:3:1:4:0 -1:3:2:4:1:0 -1:3:4:1:2:0 -1:3:4:2:1:0 -1:2:1:3:4:0 -1:4:2:1:3:0 -1:2:1:3:4:0 -1:4:2:1:3:0 -1:4:1:3:2:0 -1:4:1:3:2:0 -1:4:3:2:1:0 -1:4:1:3:2:0 -1:4:1:3:2:0 -1:4:3:1:2:0 -1:4:3:1:2:0 -1:4:1:2:3:0 -1:4:1:2:3:0 -1:4:2:1:3:0 -1:4:3:1:2:0 -1:4:1:3:2:0 -1:4:1:3:2:0 -1:3:4:1:2:0 -1:4:1:3:2:0 -1:4:1:2:3:0 -1:4:3:1:2:0 -1:4:1:3:2:0 -1:4:3:1:2:0 -1:4:1:2:3:0 -1:4:1:2:3:0 -1:4:1:3:2:0 [30.940000534057617:38.049999237060547] [30.979999542236328:38.049999237060547] [30.979999542236328:38.049999237060547] [30.979999542236328:38.049999237060547] [30.979999542236328:38.049999237060547] [30.940000534057617:38.049999237060547] [30.979999542236328:38.049999237060547] [30.979999542236328:38.049999237060547] [30.940000534057617:38.049999237060547] [30.979999542236328:38.049999237060547] [30.979999542236328:38.049999237060547] [30.979999542236328:38.049999237060547] [30.979999542236328:38.049999237060547] [30.940000534057617:38.049999237060547] [30.979999542236328:38.049999237060547] [30.979999542236328:38.049999237060547] [30.979999542236328:38.049999237060547] [30.940000534057617:38.049999237060547] [30.940000534057617:38.049999237060547] [30.940000534057617:38.049999237060547] [30.940000534057617:38.049999237060547] [30.979999542236328:38.049999237060547] [30.979999542236328:38.049999237060547] [30.940000534057617:38.049999237060547] [30.979999542236328:38.049999237060547] [30.940000534057617:38.049999237060547] [30.979999542236328:38.049999237060547] [30.979999542236328:38.049999237060547] [30.979999542236328:38.049999237060547] [30.979999542236328:38.049999237060547] [30.979999542236328:38.049999237060547] [30.979999542236328:38.049999237060547] [30.979999542236328:38.049999237060547] [30.979999542236328:38.049999237060547] [30.979999542236328:38.049999237060547] [30.979999542236328:38.049999237060547] [30.979999542236328:38.049999237060547] [30.979999542236328:38.049999237060547] [30.979999542236328:38.049999237060547] [30.940000534057617:38.049999237060547] [30.979999542236328:38.049999237060547] [30.979999542236328:38.049999237060547] [30.979999542236328:38.049999237060547] [30.979999542236328:38.049999237060547] [30.940000534057617:38.049999237060547] [30.979999542236328:38.049999237060547] [30.979999542236328:38.049999237060547] [30.979999542236328:38.049999237060547] [30.979999542236328:38.049999237060547] [30.979999542236328:38.049999237060547] [30.979999542236328:38.049999237060547] [30.979999542236328:38.049999237060547] [30.979999542236328:38.049999237060547] [30.979999542236328:38.049999237060547] [30.940000534057617:38.049999237060547] [30.979999542236328:38.049999237060547] [30.979999542236328:38.049999237060547] [30.979999542236328:38.049999237060547] [30.979999542236328:38.049999237060547] [30.940000534057617:38.049999237060547] [30.940000534057617:38.049999237060547] [30.979999542236328:38.049999237060547] [30.979999542236328:38.049999237060547] [30.940000534057617:38.049999237060547] [30.979999542236328:38.049999237060547] [30.979999542236328:38.049999237060547] [30.979999542236328:38.049999237060547] [30.979999542236328:38.049999237060547] [30.979999542236328:38.049999237060547] [30.940000534057617:38.049999237060547] [30.979999542236328:38.049999237060547] [30.979999542236328:38.049999237060547] [30.979999542236328:38.049999237060547] [30.940000534057617:38.049999237060547] [30.979999542236328:38.049999237060547] [30.979999542236328:38.049999237060547] [30.940000534057617:38.049999237060547] [30.940000534057617:38.049999237060547] [30.940000534057617:38.049999237060547] [30.940000534057617:38.049999237060547] [30.979999542236328:38.049999237060547] [30.979999542236328:38.049999237060547] [30.979999542236328:38.049999237060547] [30.979999542236328:38.049999237060547] [30.979999542236328:38.049999237060547] [30.979999542236328:38.049999237060547] [30.979999542236328:38.049999237060547] [30.979999542236328:38.049999237060547] [30.940000534057617:38.049999237060547] [30.979999542236328:38.049999237060547] [30.979999542236328:38.049999237060547] [30.979999542236328:38.049999237060547] [30.940000534057617:38.049999237060547] [30.979999542236328:37.880001068115234] [30.979999542236328:38.049999237060547] [31.020000457763672:38.049999237060547] [31.139999389648438:37.369998931884766] [30.979999542236328:36.509998321533203] [31.049999237060547:37.770000457763672] [30.979999542236328:37.229999542236328] [30.979999542236328:37.049999237060547] [30.979999542236328:37.849998474121094] [30.979999542236328:38.049999237060547] [30.979999542236328:37.880001068115234] [30.940000534057617:38.049999237060547] [30.979999542236328:38.049999237060547] [30.979999542236328:37.880001068115234] [30.979999542236328:38.049999237060547] [30.979999542236328:38.049999237060547] [30.979999542236328:38.049999237060547] [30.979999542236328:38.049999237060547] [30.940000534057617:38.049999237060547] [30.940000534057617:38.049999237060547] [30.979999542236328:38.049999237060547] [30.979999542236328:38.049999237060547] [30.979999542236328:38.049999237060547] [30.940000534057617:38.049999237060547] [30.940000534057617:38.049999237060547] [30.940000534057617:38.049999237060547] [30.979999542236328:38.049999237060547] [30.979999542236328:38.049999237060547] [30.940000534057617:38.049999237060547] [30.979999542236328:38.049999237060547] [30.940000534057617:38.049999237060547] [30.979999542236328:38.049999237060547] [30.979999542236328:38.049999237060547] [30.940000534057617:38.049999237060547] [30.979999542236328:38.049999237060547] [30.940000534057617:38.049999237060547] [30.979999542236328:38.049999237060547] [30.979999542236328:38.049999237060547] [30.979999542236328:38.049999237060547] [30.940000534057617:38.049999237060547] [30.979999542236328:38.049999237060547] [30.979999542236328:38.049999237060547] [30.979999542236328:38.049999237060547] [30.979999542236328:38.049999237060547] [30.940000534057617:38.049999237060547] [30.979999542236328:38.049999237060547] [30.979999542236328:38.049999237060547] [30.979999542236328:38.049999237060547] [30.979999542236328:38.049999237060547] [30.940000534057617:38.049999237060547] [30.979999542236328:38.049999237060547] [30.979999542236328:38.049999237060547] [30.940000534057617:38.049999237060547] [30.979999542236328:38.049999237060547] [30.979999542236328:38.049999237060547] [30.979999542236328:38.049999237060547] [30.979999542236328:38.049999237060547] [30.979999542236328:38.049999237060547] [30.979999542236328:38.049999237060547] [30.979999542236328:38.049999237060547] [30.979999542236328:38.049999237060547] [30.979999542236328:38.049999237060547] [30.979999542236328:38.049999237060547] [30.979999542236328:38.049999237060547] [30.979999542236328:38.049999237060547] [30.979999542236328:38.049999237060547] [30.940000534057617:38.049999237060547] [30.979999542236328:38.049999237060547] [30.940000534057617:38.049999237060547] [30.940000534057617:38.049999237060547] [30.940000534057617:38.049999237060547] [30.979999542236328:38.049999237060547] [30.979999542236328:38.049999237060547] [30.979999542236328:38.049999237060547] [30.979999542236328:38.049999237060547] [30.979999542236328:38.049999237060547] [30.979999542236328:38.049999237060547] [30.979999542236328:38.049999237060547] [30.940000534057617:38.049999237060547] [30.979999542236328:38.049999237060547] [30.979999542236328:38.049999237060547] [30.979999542236328:38.049999237060547] [30.979999542236328:38.049999237060547] [30.979999542236328:38.049999237060547] [30.979999542236328:38.049999237060547] [30.979999542236328:38.049999237060547] [30.979999542236328:38.049999237060547] [30.979999542236328:38.049999237060547] [30.979999542236328:38.049999237060547] [30.979999542236328:38.049999237060547] [30.940000534057617:38.049999237060547] [30.979999542236328:38.049999237060547] [30.979999542236328:38.049999237060547] [30.940000534057617:38.049999237060547] [30.979999542236328:38.049999237060547] [30.979999542236328:38.049999237060547] [30.940000534057617:38.049999237060547] [30.979999542236328:38.049999237060547] [30.979999542236328:38.049999237060547] [30.940000534057617:38.049999237060547] [30.940000534057617:38.049999237060547] [30.979999542236328:38.049999237060547] [30.979999542236328:38.049999237060547] [30.979999542236328:38.049999237060547] [30.979999542236328:38.049999237060547] [30.979999542236328:38.049999237060547] [30.979999542236328:38.049999237060547] [2.8499999046325684:6.1999998092651367] [2.8499999046325684:6.1999998092651367] [2.8499999046325684:6.1999998092651367] [2.8499999046325684:6.1999998092651367] [2.8499999046325684:6.1999998092651367] [2.8499999046325684:6.1999998092651367] [2.8499999046325684:6.1999998092651367] [2.8499999046325684:6.1999998092651367] [2.8499999046325684:6.1999998092651367] [2.8499999046325684:6.1999998092651367] [2.8499999046325684:6.1999998092651367] [2.8499999046325684:6.1999998092651367] [2.8499999046325684:6.1999998092651367] [2.8499999046325684:6.1999998092651367] [2.8499999046325684:6.1999998092651367] [2.8499999046325684:6.1999998092651367] [2.8499999046325684:6.1999998092651367] [2.8499999046325684:6.1999998092651367] [2.8499999046325684:6.1999998092651367] [2.8499999046325684:6.1999998092651367] [2.8499999046325684:6.1999998092651367] [2.8499999046325684:6.1999998092651367] [2.8499999046325684:6.1999998092651367] [2.8499999046325684:6.1999998092651367] [2.8499999046325684:6.1999998092651367] [2.8499999046325684:6.1999998092651367] [2.8499999046325684:6.1999998092651367] [2.8499999046325684:6.1999998092651367] [2.8499999046325684:6.1999998092651367] [2.8499999046325684:6.1999998092651367] [2.8499999046325684:6.1999998092651367] [2.8499999046325684:6.1999998092651367] [2.8499999046325684:6.1999998092651367] [2.8499999046325684:6.1999998092651367] [2.8499999046325684:6.1999998092651367] [2.8499999046325684:6.1999998092651367] [2.8499999046325684:6.1999998092651367] [2.8499999046325684:6.1999998092651367] [2.8499999046325684:6.1999998092651367] [2.8499999046325684:6.1999998092651367] [2.8499999046325684:6.1999998092651367] [2.8499999046325684:6.1999998092651367] [2.8499999046325684:6.1999998092651367] [2.8499999046325684:6.1999998092651367] [2.8499999046325684:6.1999998092651367] [2.8499999046325684:6.1999998092651367] [2.8499999046325684:6.1999998092651367] [2.8499999046325684:6.1999998092651367] [2.8499999046325684:6.1999998092651367] [2.8499999046325684:6.1999998092651367] [2.8499999046325684:6.1999998092651367] [2.8499999046325684:6.1999998092651367] [2.8499999046325684:6.1999998092651367] [2.8499999046325684:6.1999998092651367] [2.8499999046325684:6.1999998092651367] [2.8499999046325684:6.1999998092651367] [2.8499999046325684:6.1999998092651367] [2.8499999046325684:6.1999998092651367] [2.8499999046325684:6.1999998092651367] [2.8499999046325684:6.1999998092651367] [2.8499999046325684:6.1999998092651367] [2.8499999046325684:6.1999998092651367] [2.8499999046325684:6.1999998092651367] [2.8499999046325684:6.1999998092651367] [2.8499999046325684:6.1999998092651367] [2.8499999046325684:6.1999998092651367] [2.8499999046325684:6.1999998092651367] [2.8499999046325684:6.1999998092651367] [2.8499999046325684:6.1999998092651367] [2.8499999046325684:6.1999998092651367] [2.8499999046325684:6.1999998092651367] [2.8499999046325684:6.1999998092651367] [2.8499999046325684:6.1999998092651367] [2.8499999046325684:6.1999998092651367] [2.8499999046325684:6.1999998092651367] [2.8499999046325684:6.1999998092651367] [2.8499999046325684:6.1999998092651367] [2.8499999046325684:6.1999998092651367] [2.8499999046325684:6.1999998092651367] [2.8499999046325684:6.1999998092651367] [2.8499999046325684:6.1999998092651367] [2.8499999046325684:6.1999998092651367] [2.8499999046325684:6.1999998092651367] [2.8499999046325684:6.1999998092651367] [2.8499999046325684:6.1999998092651367] [2.8499999046325684:6.1999998092651367] [2.8499999046325684:6.1999998092651367] [2.8499999046325684:6.1999998092651367] [2.8499999046325684:6.1999998092651367] [2.8499999046325684:6.1999998092651367] [2.8499999046325684:6.1999998092651367] [2.8499999046325684:6.1999998092651367] [2.8499999046325684:6.1999998092651367] [2.8499999046325684:6.1999998092651367] [2.8499999046325684:6.1999998092651367] [3.3399999141693115:6.1999998092651367] [3.3399999141693115:6.1999998092651367] [4.2699999809265137:6.1100001335144043] [4.3299999237060547:5.8400001525878906] [3.3399999141693115:6.0100002288818359] [3.3499999046325684:6.1999998092651367] [3.6800000667572021:6.1999998092651367] [2.8499999046325684:6.1100001335144043] [2.8499999046325684:6.1999998092651367] [2.8499999046325684:6.1999998092651367] [2.8499999046325684:6.1999998092651367] [2.8499999046325684:6.1999998092651367] [2.8499999046325684:6.1999998092651367] [2.8499999046325684:6.1999998092651367] [2.8499999046325684:6.1999998092651367] [2.8499999046325684:6.1999998092651367] [2.8499999046325684:6.1999998092651367] [2.8499999046325684:6.1999998092651367] [2.8499999046325684:6.1999998092651367] [2.8499999046325684:6.1999998092651367] [2.8499999046325684:6.1999998092651367] [2.8499999046325684:6.1999998092651367] [2.8499999046325684:6.1999998092651367] [2.8499999046325684:6.1999998092651367] [2.8499999046325684:6.1999998092651367] [2.8499999046325684:6.1999998092651367] [2.8499999046325684:6.1999998092651367] [2.8499999046325684:6.1999998092651367] [2.8499999046325684:6.1999998092651367] [2.8499999046325684:6.1999998092651367] [2.8499999046325684:6.1999998092651367] [2.8499999046325684:6.1999998092651367] [2.8499999046325684:6.1999998092651367] [2.8499999046325684:6.1999998092651367] [2.8499999046325684:6.1999998092651367] [2.8499999046325684:6.1999998092651367] [2.8499999046325684:6.1999998092651367] [2.8499999046325684:6.1999998092651367] [2.8499999046325684:6.1999998092651367] [2.8499999046325684:6.1999998092651367] [2.8499999046325684:6.1999998092651367] [2.8499999046325684:6.1999998092651367] [2.8499999046325684:6.1999998092651367] [2.8499999046325684:6.1999998092651367] [2.8499999046325684:6.1999998092651367] [2.8499999046325684:6.1999998092651367] [2.8499999046325684:6.1999998092651367] [2.8499999046325684:6.1999998092651367] [2.8499999046325684:6.1999998092651367] [2.8499999046325684:6.1999998092651367] [2.8499999046325684:6.1999998092651367] [2.8499999046325684:6.1999998092651367] [2.8499999046325684:6.1999998092651367] [2.8499999046325684:6.1999998092651367] [2.8499999046325684:6.1999998092651367] [2.8499999046325684:6.1999998092651367] [2.8499999046325684:6.1999998092651367] [2.8499999046325684:6.1999998092651367] [2.8499999046325684:6.1999998092651367] [2.8499999046325684:6.1999998092651367] [2.8499999046325684:6.1999998092651367] [2.8499999046325684:6.1999998092651367] [2.8499999046325684:6.1999998092651367] [2.8499999046325684:6.1999998092651367] [2.8499999046325684:6.1999998092651367] [2.8499999046325684:6.1999998092651367] [2.8499999046325684:6.1999998092651367] [2.8499999046325684:6.1999998092651367] [2.8499999046325684:6.1999998092651367] [2.8499999046325684:6.1999998092651367] [2.8499999046325684:6.1999998092651367] [2.8499999046325684:6.1999998092651367] [2.8499999046325684:6.1999998092651367] [2.8499999046325684:6.1999998092651367] [2.8499999046325684:6.1999998092651367] [2.8499999046325684:6.1999998092651367] [2.8499999046325684:6.1999998092651367] [2.8499999046325684:6.1999998092651367] [2.8499999046325684:6.1999998092651367] [2.8499999046325684:6.1999998092651367] [2.8499999046325684:6.1999998092651367] [2.8499999046325684:6.1999998092651367] [2.8499999046325684:6.1999998092651367] [2.8499999046325684:6.1999998092651367] [2.8499999046325684:6.1999998092651367] [2.8499999046325684:6.1999998092651367] [2.8499999046325684:6.1999998092651367] [2.8499999046325684:6.1999998092651367] [2.8499999046325684:6.1999998092651367] [2.8499999046325684:6.1999998092651367] [2.8499999046325684:6.1999998092651367] [2.8499999046325684:6.1999998092651367] [2.8499999046325684:6.1999998092651367] [2.8499999046325684:6.1999998092651367] [2.8499999046325684:6.1999998092651367] [2.8499999046325684:6.1999998092651367] [2.8499999046325684:6.1999998092651367] [2.8499999046325684:6.1999998092651367] [2.8499999046325684:6.1999998092651367] [2.8499999046325684:6.1999998092651367] [2.8499999046325684:6.1999998092651367] [2.8499999046325684:6.1999998092651367] [2.8499999046325684:6.1999998092651367] [2.8499999046325684:6.1999998092651367] [2.8499999046325684:6.1999998092651367] [-16.510000228881836:-0.029999999329447746] [-16.510000228881836:-0.029999999329447746] [-16.510000228881836:-0.029999999329447746] [-16.510000228881836:-0.029999999329447746] [-16.510000228881836:-0.029999999329447746] [-16.510000228881836:-0.029999999329447746] [-16.510000228881836:-0.029999999329447746] [-16.510000228881836:-0.029999999329447746] [-16.510000228881836:-0.029999999329447746] [-16.510000228881836:-0.029999999329447746] [-16.510000228881836:-0.029999999329447746] [-16.510000228881836:-0.029999999329447746] [-16.510000228881836:-0.029999999329447746] [-16.510000228881836:-0.029999999329447746] [-16.510000228881836:-0.029999999329447746] [-16.510000228881836:-0.029999999329447746] [-16.510000228881836:-0.029999999329447746] [-16.510000228881836:-0.029999999329447746] [-16.510000228881836:-0.029999999329447746] [-16.510000228881836:-0.029999999329447746] [-16.510000228881836:-0.029999999329447746] [-16.510000228881836:-0.029999999329447746] [-16.510000228881836:-0.029999999329447746] [-16.510000228881836:-0.029999999329447746] [-16.510000228881836:-0.029999999329447746] [-16.510000228881836:-0.029999999329447746] [-16.510000228881836:-0.029999999329447746] [-16.510000228881836:-0.029999999329447746] [-16.510000228881836:-0.029999999329447746] [-16.510000228881836:-0.029999999329447746] [-16.510000228881836:-0.029999999329447746] [-16.510000228881836:-0.029999999329447746] [-16.510000228881836:-0.029999999329447746] [-16.510000228881836:-0.029999999329447746] [-16.510000228881836:-0.029999999329447746] [-16.510000228881836:-0.029999999329447746] [-16.510000228881836:-0.029999999329447746] [-16.510000228881836:-0.029999999329447746] [-16.510000228881836:-0.029999999329447746] [-16.510000228881836:-0.029999999329447746] [-16.510000228881836:-0.029999999329447746] [-16.510000228881836:-0.029999999329447746] [-16.510000228881836:-0.029999999329447746] [-16.510000228881836:-0.029999999329447746] [-16.510000228881836:-0.029999999329447746] [-16.510000228881836:-0.029999999329447746] [-16.510000228881836:-0.029999999329447746] [-16.510000228881836:-0.029999999329447746] [-16.510000228881836:-0.029999999329447746] [-16.510000228881836:-0.029999999329447746] [-16.510000228881836:-0.029999999329447746] [-16.510000228881836:-0.029999999329447746] [-16.510000228881836:-0.029999999329447746] [-16.510000228881836:-0.029999999329447746] [-16.510000228881836:-0.029999999329447746] [-16.510000228881836:-0.029999999329447746] [-16.510000228881836:-0.029999999329447746] [-16.510000228881836:-0.029999999329447746] [-16.510000228881836:-0.029999999329447746] [-16.510000228881836:-0.029999999329447746] [-16.510000228881836:-0.029999999329447746] [-16.510000228881836:-0.029999999329447746] [-16.510000228881836:-0.029999999329447746] [-16.510000228881836:-0.029999999329447746] [-16.510000228881836:-0.029999999329447746] [-16.510000228881836:-0.029999999329447746] [-16.510000228881836:-0.029999999329447746] [-16.510000228881836:-0.029999999329447746] [-16.510000228881836:-0.029999999329447746] [-16.510000228881836:-0.029999999329447746] [-16.510000228881836:-0.029999999329447746] [-16.510000228881836:-0.029999999329447746] [-16.510000228881836:-0.029999999329447746] [-16.510000228881836:-0.029999999329447746] [-16.510000228881836:-0.029999999329447746] [-16.510000228881836:-0.029999999329447746] [-16.510000228881836:-0.029999999329447746] [-16.510000228881836:-0.029999999329447746] [-16.510000228881836:-0.029999999329447746] [-16.510000228881836:-0.029999999329447746] [-16.510000228881836:-0.029999999329447746] [-16.510000228881836:-0.029999999329447746] [-16.510000228881836:-0.029999999329447746] [-16.510000228881836:-0.029999999329447746] [-16.510000228881836:-0.029999999329447746] [-16.510000228881836:-0.029999999329447746] [-16.510000228881836:-0.029999999329447746] [-16.510000228881836:-0.029999999329447746] [-16.510000228881836:-0.029999999329447746] [-16.510000228881836:-0.029999999329447746] [-16.510000228881836:-0.029999999329447746] [-16.510000228881836:-0.029999999329447746] [-16.510000228881836:-0.029999999329447746] [-16.510000228881836:-0.029999999329447746] [-16.510000228881836:-0.029999999329447746] [-16.510000228881836:-0.029999999329447746] [-16.510000228881836:-0.029999999329447746] [-13.159999847412109:-0.029999999329447746] [-12.029999732971191:-0.89999997615814209] [-10.390000343322754:-0.029999999329447746] [-12.029999732971191:-0.029999999329447746] [-14.680000305175781:-0.029999999329447746] [-16.510000228881836:-0.029999999329447746] [-16.510000228881836:-0.029999999329447746] [-16.510000228881836:-0.029999999329447746] [-16.510000228881836:-0.029999999329447746] [-16.510000228881836:-0.029999999329447746] [-16.510000228881836:-0.029999999329447746] [-16.510000228881836:-0.029999999329447746] [-16.510000228881836:-0.029999999329447746] [-16.510000228881836:-0.029999999329447746] [-16.510000228881836:-0.029999999329447746] [-16.510000228881836:-0.029999999329447746] [-16.510000228881836:-0.029999999329447746] [-16.510000228881836:-0.029999999329447746] [-16.510000228881836:-0.029999999329447746] [-16.510000228881836:-0.029999999329447746] [-16.510000228881836:-0.029999999329447746] [-16.510000228881836:-0.029999999329447746] [-16.510000228881836:-0.029999999329447746] [-16.510000228881836:-0.029999999329447746] [-16.510000228881836:-0.029999999329447746] [-16.510000228881836:-0.029999999329447746] [-16.510000228881836:-0.029999999329447746] [-16.510000228881836:-0.029999999329447746] [-16.510000228881836:-0.029999999329447746] [-16.510000228881836:-0.029999999329447746] [-16.510000228881836:-0.029999999329447746] [-16.510000228881836:-0.029999999329447746] [-16.510000228881836:-0.029999999329447746] [-16.510000228881836:-0.029999999329447746] [-16.510000228881836:-0.029999999329447746] [-16.510000228881836:-0.029999999329447746] [-16.510000228881836:-0.029999999329447746] [-16.510000228881836:-0.029999999329447746] [-16.510000228881836:-0.029999999329447746] [-16.510000228881836:-0.029999999329447746] [-16.510000228881836:-0.029999999329447746] [-16.510000228881836:-0.029999999329447746] [-16.510000228881836:-0.029999999329447746] [-16.510000228881836:-0.029999999329447746] [-16.510000228881836:-0.029999999329447746] [-16.510000228881836:-0.029999999329447746] [-16.510000228881836:-0.029999999329447746] [-16.510000228881836:-0.029999999329447746] [-16.510000228881836:-0.029999999329447746] [-16.510000228881836:-0.029999999329447746] [-16.510000228881836:-0.029999999329447746] [-16.510000228881836:-0.029999999329447746] [-16.510000228881836:-0.029999999329447746] [-16.510000228881836:-0.029999999329447746] [-16.510000228881836:-0.029999999329447746] [-16.510000228881836:-0.029999999329447746] [-16.510000228881836:-0.029999999329447746] [-16.510000228881836:-0.029999999329447746] [-16.510000228881836:-0.029999999329447746] [-16.510000228881836:-0.029999999329447746] [-16.510000228881836:-0.029999999329447746] [-16.510000228881836:-0.029999999329447746] [-16.510000228881836:-0.029999999329447746] [-16.510000228881836:-0.029999999329447746] [-16.510000228881836:-0.029999999329447746] [-16.510000228881836:-0.029999999329447746] [-16.510000228881836:-0.029999999329447746] [-16.510000228881836:-0.029999999329447746] [-16.510000228881836:-0.029999999329447746] [-16.510000228881836:-0.029999999329447746] [-16.510000228881836:-0.029999999329447746] [-16.510000228881836:-0.029999999329447746] [-16.510000228881836:-0.029999999329447746] [-16.510000228881836:-0.029999999329447746] [-16.510000228881836:-0.029999999329447746] [-16.510000228881836:-0.029999999329447746] [-16.510000228881836:-0.029999999329447746] [-16.510000228881836:-0.029999999329447746] [-16.510000228881836:-0.029999999329447746] [-16.510000228881836:-0.029999999329447746] [-16.510000228881836:-0.029999999329447746] [-16.510000228881836:-0.029999999329447746] [-16.510000228881836:-0.029999999329447746] [-16.510000228881836:-0.029999999329447746] [-16.510000228881836:-0.029999999329447746] [-16.510000228881836:-0.029999999329447746] [-16.510000228881836:-0.029999999329447746] [-16.510000228881836:-0.029999999329447746] [-16.510000228881836:-0.029999999329447746] [-16.510000228881836:-0.029999999329447746] [-16.510000228881836:-0.029999999329447746] [-16.510000228881836:-0.029999999329447746] [-16.510000228881836:-0.029999999329447746] [-16.510000228881836:-0.029999999329447746] [-16.510000228881836:-0.029999999329447746] [-16.510000228881836:-0.029999999329447746] [-16.510000228881836:-0.029999999329447746] [-16.510000228881836:-0.029999999329447746] [-16.510000228881836:-0.029999999329447746] [-16.510000228881836:-0.029999999329447746] [-16.510000228881836:-0.029999999329447746] [-16.510000228881836:-0.029999999329447746] [-16.510000228881836:-0.029999999329447746] [-8.5699996948242188:8.6400003433227539] [-8.5699996948242188:8.6400003433227539] [-8.5699996948242188:8.6400003433227539] [-8.5699996948242188:8.6400003433227539] [-8.5699996948242188:8.6400003433227539] [-8.5699996948242188:8.6400003433227539] [-8.5699996948242188:8.6400003433227539] [-8.5699996948242188:8.6400003433227539] [-8.5699996948242188:8.6400003433227539] [-8.5699996948242188:8.6400003433227539] [-8.5699996948242188:8.6400003433227539] [-8.5699996948242188:8.6400003433227539] [-8.5699996948242188:8.6400003433227539] [-8.5699996948242188:8.6400003433227539] [-8.5699996948242188:8.6400003433227539] [-8.5699996948242188:8.6400003433227539] [-8.5699996948242188:8.6400003433227539] [-8.5699996948242188:8.6400003433227539] [-8.5699996948242188:8.6400003433227539] [-8.5699996948242188:8.6400003433227539] [-8.5699996948242188:8.6400003433227539] [-8.5699996948242188:8.6400003433227539] [-8.5699996948242188:8.6400003433227539] [-8.5699996948242188:8.6400003433227539] [-8.5699996948242188:8.6400003433227539] [-8.5699996948242188:8.6400003433227539] [-8.5699996948242188:8.6400003433227539] [-8.5699996948242188:8.6400003433227539] [-8.5699996948242188:8.6400003433227539] [-8.5699996948242188:8.6400003433227539] [-8.5699996948242188:8.6400003433227539] [-8.5699996948242188:8.6400003433227539] [-8.5699996948242188:8.6400003433227539] [-8.5699996948242188:8.6400003433227539] [-8.5699996948242188:8.6400003433227539] [-8.5699996948242188:8.6400003433227539] [-8.5699996948242188:8.6400003433227539] [-8.5699996948242188:8.6400003433227539] [-8.5699996948242188:8.6400003433227539] [-8.5699996948242188:8.6400003433227539] [-8.5699996948242188:8.6400003433227539] [-8.5699996948242188:8.6400003433227539] [-8.5699996948242188:8.6400003433227539] [-8.5699996948242188:8.6400003433227539] [-8.5699996948242188:8.6400003433227539] [-8.5699996948242188:8.6400003433227539] [-8.5699996948242188:8.6400003433227539] [-8.5699996948242188:8.6400003433227539] [-8.5699996948242188:8.6400003433227539] [-8.5699996948242188:8.6400003433227539] [-8.5699996948242188:8.6400003433227539] [-8.5699996948242188:8.6400003433227539] [-8.5699996948242188:8.6400003433227539] [-8.5699996948242188:8.6400003433227539] [-8.5699996948242188:8.6400003433227539] [-8.5699996948242188:8.6400003433227539] [-8.5699996948242188:8.6400003433227539] [-8.5699996948242188:8.6400003433227539] [-8.5699996948242188:8.6400003433227539] [-8.5699996948242188:8.6400003433227539] [-8.5699996948242188:8.6400003433227539] [-8.5699996948242188:8.6400003433227539] [-8.5699996948242188:8.6400003433227539] [-8.5699996948242188:8.6400003433227539] [-8.5699996948242188:8.6400003433227539] [-8.5699996948242188:8.6400003433227539] [-8.5699996948242188:8.6400003433227539] [-8.5699996948242188:8.6400003433227539] [-8.5699996948242188:8.6400003433227539] [-8.5699996948242188:8.6400003433227539] [-8.5699996948242188:8.6400003433227539] [-8.5699996948242188:8.6400003433227539] [-8.5699996948242188:8.6400003433227539] [-8.5699996948242188:8.6400003433227539] [-8.5699996948242188:8.6400003433227539] [-8.5699996948242188:8.6400003433227539] [-8.5699996948242188:8.6400003433227539] [-8.5699996948242188:8.6400003433227539] [-8.5699996948242188:8.6400003433227539] [-8.5699996948242188:8.6400003433227539] [-8.5699996948242188:8.6400003433227539] [-8.5699996948242188:8.6400003433227539] [-8.5699996948242188:8.6400003433227539] [-8.5699996948242188:8.6400003433227539] [-8.5699996948242188:8.6400003433227539] [-8.5699996948242188:8.6400003433227539] [-8.5699996948242188:8.6400003433227539] [-8.5699996948242188:8.6400003433227539] [-8.5699996948242188:8.6400003433227539] [-8.5699996948242188:8.6400003433227539] [-8.5699996948242188:8.6400003433227539] [-8.5699996948242188:8.6400003433227539] [-8.5699996948242188:8.6400003433227539] [-8.5699996948242188:8.6400003433227539] [-7.5300002098083496:7.7300000190734863] [-6.1999998092651367:0.5899999737739563] [-5.6599998474121094:8.0299997329711914] [-5.0500001907348633:5.9000000953674316] [-4.8299999237060547:6.1500000953674316] [-4.929999828338623:6.8299999237060547] [-6.5399999618530273:7.7899999618530273] [-6.9499998092651367:7.440000057220459] [-7.5300002098083496:8.3199996948242188] [-7.5300002098083496:8.1700000762939453] [-8.5699996948242188:8.6400003433227539] [-8.5699996948242188:8.3199996948242188] [-8.5699996948242188:8.6400003433227539] [-8.5699996948242188:8.6400003433227539] [-8.5699996948242188:8.6400003433227539] [-8.5699996948242188:8.6400003433227539] [-8.5699996948242188:8.6400003433227539] [-8.5699996948242188:8.6400003433227539] [-8.5699996948242188:8.6400003433227539] [-8.5699996948242188:8.6400003433227539] [-8.5699996948242188:8.6400003433227539] [-8.5699996948242188:8.6400003433227539] [-8.5699996948242188:8.6400003433227539] [-8.5699996948242188:8.6400003433227539] [-8.5699996948242188:8.6400003433227539] [-8.5699996948242188:8.6400003433227539] [-8.5699996948242188:8.6400003433227539] [-8.5699996948242188:8.6400003433227539] [-8.5699996948242188:8.6400003433227539] [-8.5699996948242188:8.6400003433227539] [-8.5699996948242188:8.6400003433227539] [-8.5699996948242188:8.6400003433227539] [-8.5699996948242188:8.6400003433227539] [-8.5699996948242188:8.6400003433227539] [-8.5699996948242188:8.6400003433227539] [-8.5699996948242188:8.6400003433227539] [-8.5699996948242188:8.6400003433227539] [-8.5699996948242188:8.6400003433227539] [-8.5699996948242188:8.6400003433227539] [-8.5699996948242188:8.6400003433227539] [-8.5699996948242188:8.6400003433227539] [-8.5699996948242188:8.6400003433227539] [-8.5699996948242188:8.6400003433227539] [-8.5699996948242188:8.6400003433227539] [-8.5699996948242188:8.6400003433227539] [-8.5699996948242188:8.6400003433227539] [-8.5699996948242188:8.6400003433227539] [-8.5699996948242188:8.6400003433227539] [-8.5699996948242188:8.6400003433227539] [-8.5699996948242188:8.6400003433227539] [-8.5699996948242188:8.6400003433227539] [-8.5699996948242188:8.6400003433227539] [-8.5699996948242188:8.6400003433227539] [-8.5699996948242188:8.6400003433227539] [-8.5699996948242188:8.6400003433227539] [-8.5699996948242188:8.6400003433227539] [-8.5699996948242188:8.6400003433227539] [-8.5699996948242188:8.6400003433227539] [-8.5699996948242188:8.6400003433227539] [-8.5699996948242188:8.6400003433227539] [-8.5699996948242188:8.6400003433227539] [-8.5699996948242188:8.6400003433227539] [-8.5699996948242188:8.6400003433227539] [-8.5699996948242188:8.6400003433227539] [-8.5699996948242188:8.6400003433227539] [-8.5699996948242188:8.6400003433227539] [-8.5699996948242188:8.6400003433227539] [-8.5699996948242188:8.6400003433227539] [-8.5699996948242188:8.6400003433227539] [-8.5699996948242188:8.6400003433227539] [-8.5699996948242188:8.6400003433227539] [-8.5699996948242188:8.6400003433227539] [-8.5699996948242188:8.6400003433227539] [-8.5699996948242188:8.6400003433227539] [-8.5699996948242188:8.6400003433227539] [-8.5699996948242188:8.6400003433227539] [-8.5699996948242188:8.6400003433227539] [-8.5699996948242188:8.6400003433227539] [-8.5699996948242188:8.6400003433227539] [-8.5699996948242188:8.6400003433227539] [-8.5699996948242188:8.6400003433227539] [-8.5699996948242188:8.6400003433227539] [-8.5699996948242188:8.6400003433227539] [-8.5699996948242188:8.6400003433227539] [-8.5699996948242188:8.6400003433227539] [-8.5699996948242188:8.6400003433227539] [-8.5699996948242188:8.6400003433227539] [-8.5699996948242188:8.6400003433227539] [-8.5699996948242188:8.6400003433227539] [-8.5699996948242188:8.6400003433227539] [-8.5699996948242188:8.6400003433227539] [-8.5699996948242188:8.6400003433227539] [-8.5699996948242188:8.6400003433227539] [-8.5699996948242188:8.6400003433227539] [-8.5699996948242188:8.6400003433227539] [-8.5699996948242188:8.6400003433227539] [-8.5699996948242188:8.6400003433227539] [-8.5699996948242188:8.6400003433227539] [-8.5699996948242188:8.6400003433227539] [-8.5699996948242188:8.6400003433227539] [-8.5699996948242188:8.6400003433227539] [-8.5699996948242188:8.6400003433227539] [-8.5699996948242188:8.6400003433227539] [-8.5699996948242188:8.6400003433227539] [-8.5699996948242188:8.6400003433227539] [-8.5699996948242188:8.6400003433227539] [9.3880388489162026e-16:0.0097198504954576492]
tree_sizes=357 356 354 354 357 356 357 356 357 357 358 357 356 357 358 358 357 359 355 359 359 356 359 358 358 359 357 358 359 353 357 371 359 353 358 354 355 352 358 359 355 358 352 353 353 358 371 358 355 354 355 357 354 370 358 352 351 359 354 355 373 358 355 352 373 357 354 358 352 356 354 372 352 359 371 358 353 353 353 370 355 353 359 371 354 356 356 359 355 352 352 358 371 352 372 355 354 359 371 352

Tree=0
num_leaves=2
num_cat=0
split_feature=1000
split_gain=14151.4
threshold=2.7942337510467047e-07
decision_type=2
left_child=-1
right_child=-2
leaf_value=0.61029117728441296 0.8135558540627803
leaf_weight=7995.8374900817871 5991.774202644825
leaf_count=36032 27001
internal_value=0.697362
internal_weight=0
internal_count=63033
is_linear=0
shrinkage=1


Tree=1
num_leaves=2
num_cat=0
split_feature=1000
split_gain=11637.1
threshold=2.6787373030856548e-07
decision_type=2
left_child=-1
right_child=-2
leaf_value=-0.076797415761587759 0.10844048388877242
leaf_weight=8162.1107769012451 5802.4455560594797
leaf_count=35784 27249
internal_value=0
internal_weight=0
internal_count=63033
is_linear=0
shrinkage=0.1


Tree=2
num_leaves=2
num_cat=0
split_feature=1000
split_gain=9684.9
threshold=3.7889707016347534e-07
decision_type=2
left_child=-1
right_child=-2
leaf_value=-0.064230117039434306 0.10835022520496246
leaf_weight=8696.2471700161695 5193.780277132988
leaf_count=37521 25512
internal_value=0
internal_weight=0
internal_count=63033
is_linear=0
shrinkage=0.1


Tree=3
num_leaves=2
num_cat=0
split_feature=1000
split_gain=8085.47
threshold=3.2396383176092064e-07
decision_type=2
left_child=-1
right_child=-2
leaf_value=-0.058300068803800467 0.10033035612346151
leaf_weight=8682.63066200912 5100.8044799566269
leaf_count=36777 26256
internal_value=0
internal_weight=0
internal_count=63033
is_linear=0
shrinkage=0.1


Tree=4
num_leaves=2
num_cat=0
split_feature=1000
split_gain=6794.99
threshold=3.9764304915479448e-07
decision_type=2
left_child=-1
right_child=-2
leaf_value=-0.050320358243947205 0.098467287900408498
leaf_weight=8989.6943356394768 4660.7666318416595
leaf_count=37769 25264
internal_value=0
internal_weight=0
internal_count=63033
is_linear=0
shrinkage=0.1


Tree=5
num_leaves=2
num_cat=0
split_feature=1000
split_gain=5771.52
threshold=2.2169102464886239e-07
decision_type=2
left_child=-1
right_child=-2
leaf_value=-0.050252292105759745 0.084681717477148866
leaf_weight=8420.954422518611 5083.5084907561541
leaf_count=34791 28242
internal_value=0
internal_weight=0
internal_count=63033
is_linear=0
shrinkage=0.1


Tree=6
num_leaves=2
num_cat=0
split_feature=1000
split_gain=4878.03
threshold=3.9764304915479448e-07
decision_type=2
left_child=-1
right_child=-2
leaf_value=-0.040501535482672504 0.089517773858174957
leaf_weight=9133.1607091724873 4218.2807550430298
leaf_count=37769 25264
internal_value=0
internal_weight=0
internal_count=63033
is_linear=0
shrinkage=0.1


Tree=7
num_leaves=2
num_cat=0
split_feature=1000
split_gain=4152.65
threshold=8.4701696323463704e-07
decision_type=2
left_child=-1
right_child=-2
leaf_value=-0.032269406877886077 0.096347950816822264
leaf_weight=9820.2228227555752 3372.367047816515
leaf_count=41738 21295
internal_value=0
internal_weight=0
internal_count=63033
is_linear=0
shrinkage=0.1


Tree=8
num_leaves=2
num_cat=0
split_feature=1000
split_gain=3584.08
threshold=2.1123427984548473e-07
decision_type=2
left_child=-1
right_child=-2
leaf_value=-0.037615153135929669 0.072433867469617289
leaf_weight=8514.9874602109194 4535.8673785477877
leaf_count=34543 28490
internal_value=0
internal_weight=0
internal_count=63033
is_linear=0
shrinkage=0.1


Tree=9
num_leaves=2
num_cat=0
split_feature=1000
split_gain=3120.84
threshold=8.8914873686007933e-07
decision_type=2
left_child=-1
right_child=-2
leaf_value=-0.026426521888431254 0.090055152774559694
leaf_weight=9900.7498838454485 2996.2365311980247
leaf_count=41986 21047
internal_value=0
internal_weight=0
internal_count=63033
is_linear=0
shrinkage=0.1


Tree=10
num_leaves=2
num_cat=0
split_feature=1000
split_gain=2662.11
threshold=8.4701696323463704e-07
decision_type=2
left_child=-1
right_child=-2
leaf_value=-0.023891280957022039 0.085680714076752124
leaf_weight=9902.5724571347237 2857.0372592955828
leaf_count=41738 21295
internal_value=0
internal_weight=0
internal_count=63033
is_linear=0
shrinkage=0.1


Tree=11
num_leaves=2
num_cat=0
split_feature=1000
split_gain=2311.8
threshold=1.8320158545748202e-07
decision_type=2
left_child=-1
right_child=-2
leaf_value=-0.029692747573194674 0.060998923237068195
leaf_weight=8402.5942834168673 4223.4908254593611
leaf_count=33799 29234
internal_value=0
internal_weight=0
internal_count=63033
is_linear=0
shrinkage=0.1


Tree=12
num_leaves=2
num_cat=0
split_feature=1000
split_gain=2075.92
threshold=1.909926936605189e-06
decision_type=2
left_child=-1
right_child=-2
leaf_value=-0.017678376368914901 0.09142556206591701
leaf_weight=10395.201923176646 2095.4774318933487
leaf_count=45709 17324
internal_value=0
internal_weight=0
internal_count=63033
is_linear=0
shrinkage=0.1


Tree=13
num_leaves=2
num_cat=0
split_feature=1000
split_gain=1799.6
threshold=2.9321848842300828e-06
decision_type=2
left_child=-1
right_child=-2
leaf_value=-0.014770122981470894 0.095065564770313693
leaf_weight=10646.246767885983 1734.7996356710792
leaf_count=47702 15331
internal_value=0
internal_weight=0
internal_count=63033
is_linear=0
shrinkage=0.1


Tree=14
num_leaves=2
num_cat=0
split_feature=1000
split_gain=1561.58
threshold=2.9321848842300828e-06
decision_type=2
left_child=-1
right_child=-2
leaf_value=-0.013263163834163491 0.092239141312896109
leaf_weight=10669.008504062891 1615.3617907837033
leaf_count=47702 15331
internal_value=0
internal_weight=0
internal_count=63033
is_linear=0
shrinkage=0.1


Tree=15
num_leaves=2
num_cat=0
split_feature=1000
split_gain=1406.23
threshold=1.7446391353814763e-07
decision_type=2
left_child=-1
right_child=-2
leaf_value=-0.022328503804931704 0.050903329093905297
leaf_weight=8376.1896825283766 3817.0586794242263
leaf_count=33551 29482
internal_value=0
internal_weight=0
internal_count=63033
is_linear=0
shrinkage=0.1


Tree=16
num_leaves=2
num_cat=0
split_feature=1000
split_gain=1253.08
threshold=2.9321848842300828e-06
decision_type=2
left_child=-1
right_child=-2
leaf_value=-0.011306051257481926 0.08791951147888738
leaf_weight=10636.293860338628 1445.7099017649889
leaf_count=47702 15331
internal_value=0
internal_weight=0
internal_count=63033
is_linear=0
shrinkage=0.1


Tree=17
num_leaves=2
num_cat=0
split_feature=1000
split_gain=1094.27
threshold=3.8856464925629561e-06
decision_type=2
left_child=-1
right_child=-2
leaf_value=-0.0096948625818337308 0.089558674502463742
leaf_weight=10760.642210952938 1238.6493874043226
leaf_count=48944 14089
internal_value=0
internal_weight=0
internal_count=63033
is_linear=0
shrinkage=0.1


Tree=18
num_leaves=2
num_cat=0
split_feature=1000
split_gain=967.34
threshold=1.7446391353814763e-07
decision_type=2
left_child=-1
right_child=-2
leaf_value=-0.017972262764813222 0.04436676510728732
leaf_weight=8385.741205483675 3539.9963074550033
leaf_count=33551 29482
internal_value=0
internal_weight=0
internal_count=63033
is_linear=0
shrinkage=0.1


Tree=19
num_leaves=2
num_cat=0
split_feature=1000
split_gain=890.545
threshold=3.8856464925629561e-06
decision_type=2
left_child=-1
right_child=-2
leaf_value=-0.0083281798739392576 0.085752344073272799
leaf_weight=10720.950910523534 1110.3380143195391
leaf_count=48944 14089
internal_value=0
internal_weight=0
internal_count=63033
is_linear=0
shrinkage=0.1


Tree=20
num_leaves=2
num_cat=0
split_feature=1000
split_gain=778.851
threshold=6.5176645875908443e-06
decision_type=2
left_child=-1
right_child=-2
leaf_value=-0.0068693501614781856 0.090532170114948365
leaf_weight=10877.252571552992 887.98270884901285
leaf_count=50930 12103
internal_value=0
internal_weight=0
internal_count=63033
is_linear=0
shrinkage=0.1


Tree=21
num_leaves=2
num_cat=0
split_feature=1000
split_gain=690.418
threshold=1.1379154329915766e-06
decision_type=2
left_child=-1
right_child=-2
leaf_value=-0.0091784239439476403 0.0616269232028437
leaf_weight=10114.848291546106 1594.198367767036
leaf_count=43227 19806
internal_value=0
internal_weight=0
internal_count=63033
is_linear=0
shrinkage=0.1


Tree=22
num_leaves=2
num_cat=0
split_feature=1000
split_gain=623.648
threshold=6.5176645875908443e-06
decision_type=2
left_child=-1
right_child=-2
leaf_value=-0.0057657889757595192 0.086802080175848811
leaf_weight=10857.646507024765 780.10367505997419
leaf_count=50930 12103
internal_value=0
internal_weight=0
internal_count=63033
is_linear=0
shrinkage=0.1


Tree=23
num_leaves=2
num_cat=0
split_feature=1000
split_gain=559.586
threshold=1.7446391353814763e-07
decision_type=2
left_child=-1
right_child=-2
leaf_value=-0.013157807097077638 0.035986063081352229
leaf_weight=8387.1325631588697 3201.4329426437616
leaf_count=33551 29482
internal_value=0
internal_weight=0
internal_count=63033
is_linear=0
shrinkage=0.1


Tree=24
num_leaves=2
num_cat=0
split_feature=1000
split_gain=517.157
threshold=6.5176645875908443e-06
decision_type=2
left_child=-1
right_child=-2
leaf_value=-0.0050053580166024205 0.08361802015026587
leaf_weight=10815.610243730247 701.13946102932096
leaf_count=50930 12103
internal_value=0
internal_weight=0
internal_count=63033
is_linear=0
shrinkage=0.1


Tree=25
num_leaves=2
num_cat=0
split_feature=1000
split_gain=452.903
threshold=7.4091299211431769e-06
decision_type=2
left_child=-1
right_child=-2
leaf_value=-0.0043971852275457995 0.083163483227685742
leaf_weight=10848.190335333347 624.74685184285045
leaf_count=51424 11609
internal_value=0
internal_weight=0
internal_count=63033
is_linear=0
shrinkage=0.1


Tree=26
num_leaves=2
num_cat=0
split_feature=1000
split_gain=398.699
threshold=1.8320158545748202e-07
decision_type=2
left_child=-1
right_child=-2
leaf_value=-0.010754603959705584 0.031749502864272951
leaf_weight=8446.1176195144653 2987.522727355361
leaf_count=33799 29234
internal_value=0
internal_weight=0
internal_count=63033
is_linear=0
shrinkage=0.1


Tree=27
num_leaves=2
num_cat=0
split_feature=1000
split_gain=376.972
threshold=7.4091299211431769e-06
decision_type=2
left_child=-1
right_child=-2
leaf_value=-0.0038324112772181425 0.080036245556158014
leaf_weight=10808.536335855722 563.8923294134438
leaf_count=51424 11609
internal_value=0
internal_weight=0
internal_count=63033
is_linear=0
shrinkage=0.1


Tree=28
num_leaves=2
num_cat=0
split_feature=1000
split_gain=329.747
threshold=6.5176645875908443e-06
decision_type=2
left_child=-1
right_child=-2
leaf_value=-0.0035447942906606279 0.075788081956771849
leaf_weight=10786.851530700922 550.67907703667879
leaf_count=50930 12103
internal_value=0
internal_weight=0
internal_count=63033
is_linear=0
shrinkage=0.1


Tree=29
num_leaves=2
num_cat=0
split_feature=300
split_gain=310.065
threshold=31.365000724792484
decision_type=2
left_child=-1
right_child=-2
leaf_value=0.045540515028769164 -0.0057704945817886166
leaf_weight=1335.4474227204919 9969.3642882183194
leaf_count=6170 56863
internal_value=0
internal_weight=0
internal_count=63033
is_linear=0
shrinkage=0.1


Tree=30
num_leaves=2
num_cat=0
split_feature=1000
split_gain=294.769
threshold=1.1148571502417328e-05
decision_type=2
left_child=-1
right_child=-2
leaf_value=-0.0029432372186325574 0.081564165540649283
leaf_weight=10879.549414407462 429.031459890306
leaf_count=52907 10126
internal_value=0
internal_weight=0
internal_count=63033
is_linear=0
shrinkage=0.1


Tree=31
num_leaves=2
num_cat=1
split_feature=105
split_gain=282.931
threshold=0
decision_type=1
left_child=-1
right_child=-2
leaf_value=0.013992810141117902 -0.017966579105941582
leaf_weight=6430.8758269846439 4850.2994637079537
leaf_count=39694 23339
internal_value=0
internal_weight=0
internal_count=63033
cat_boundaries=0 1
cat_threshold=8
is_linear=0
shrinkage=0.1


Tree=32
num_leaves=2
num_cat=0
split_feature=1000
split_gain=265.378
threshold=1.7446391353814763e-07
decision_type=2
left_child=-1
right_child=-2
leaf_value=-0.0087906199862564233 0.026340562536076723
leaf_weight=8378.7112884521484 2892.4964325986803
leaf_count=33551 29482
internal_value=0
internal_weight=0
internal_count=63033
is_linear=0
shrinkage=0.1


Tree=33
num_leaves=2
num_cat=0
split_feature=300
split_gain=256.766
threshold=31.365000724792484
decision_type=2
left_child=-1
right_child=-2
leaf_value=0.041527916489586966 -0.0053286520383550142
leaf_weight=1326.2207607105374 9896.0288760140538
leaf_count=6170 56863
internal_value=0
internal_weight=0
internal_count=63033
is_linear=0
shrinkage=0.1


Tree=34
num_leaves=2
num_cat=0
split_feature=1000
split_gain=250.015
threshold=1.6126343325595375e-05
decision_type=2
left_child=-1
right_child=-2
leaf_value=-0.0024466865735960157 0.084701619205326081
leaf_weight=10885.033791664988 339.45783073455095
leaf_count=54147 8886
internal_value=0
internal_weight=0
internal_count=63033
is_linear=0
shrinkage=0.1


Tree=35
num_leaves=2
num_cat=0
split_feature=706
split_gain=242.961
threshold=-3.7350000143051143
decision_type=8
left_child=-1
right_child=-2
leaf_value=-0.011958984373834461 0.018047582423963537
leaf_weight=6670.1062546782196 4531.6752019524574
leaf_count=35827 27206
internal_value=0
internal_weight=0
internal_count=63033
is_linear=0
shrinkage=0.1


Tree=36
num_leaves=2
num_cat=0
split_feature=704
split_gain=230.094
threshold=-2.3900001049041744
decision_type=2
left_child=-1
right_child=-2
leaf_value=-0.0074789531308608109 0.027052863254685762
leaf_weight=8718.4442171603441 2478.0473497286439
leaf_count=50173 12860
internal_value=0
internal_weight=0
internal_count=63033
is_linear=0
shrinkage=0.1


Tree=37
num_leaves=2
num_cat=0
split_feature=701
split_gain=223.672
threshold=-0.49999999999999994
decision_type=2
left_child=-1
right_child=-2
leaf_value=-0.0016180702807254981 0.11322039322515375
leaf_weight=11024.502552019432 172.2542392089963
leaf_count=62276 757
internal_value=0
internal_weight=0
internal_count=63033
is_linear=0
shrinkage=0.1


Tree=38
num_leaves=2
num_cat=0
split_feature=1000
split_gain=221.969
threshold=2.7688877707987561e-05
decision_type=2
left_child=-1
right_child=-2
leaf_value=-0.0020058448607802671 0.092743852979933969
leaf_weight=10943.997542187572 252.96549381874502
leaf_count=55878 7155
internal_value=0
internal_weight=0
internal_count=63033
is_linear=0
shrinkage=0.1


Tree=39
num_leaves=2
num_cat=0
split_feature=1000
split_gain=202.808
threshold=5.4719157560612086e-07
decision_type=2
left_child=-1
right_child=-2
leaf_value=-0.0054302552850884998 0.032757772458261267
leaf_weight=9550.7873038798571 1627.6979057379067
leaf_count=39505 23528
internal_value=0
internal_weight=0
internal_count=63033
is_linear=0
shrinkage=0.1


Tree=40
num_leaves=2
num_cat=0
split_feature=701
split_gain=205.483
threshold=-3.1800000667572017
decision_type=2
left_child=-1
right_child=-2
leaf_value=-0.0065551919437368787 0.027746967823786356
leaf_weight=8968.8989145141095 2168.6107221525162
leaf_count=52413 10620
internal_value=0
internal_weight=0
internal_count=63033
is_linear=0
shrinkage=0.1


Tree=41
num_leaves=2
num_cat=0
split_feature=1000
split_gain=190.626
threshold=2.7688877707987561e-05
decision_type=2
left_child=-1
right_child=-2
leaf_value=-0.0017705926573557676 0.090996206049839296
leaf_weight=10912.528799166903 226.10169708356261
leaf_count=55878 7155
internal_value=0
internal_weight=0
internal_count=63033
is_linear=0
shrinkage=0.1


Tree=42
num_leaves=2
num_cat=0
split_feature=705
split_gain=184.214
threshold=-3.195000052452087
decision_type=8
left_child=-1
right_child=-2
leaf_value=-0.010762517545041414 0.015343976417741673
leaf_weight=6490.565022720024 4631.6343919392675
leaf_count=34614 28419
internal_value=0
internal_weight=0
internal_count=63033
is_linear=0
shrinkage=0.1


Tree=43
num_leaves=2
num_cat=0
split_feature=703
split_gain=179.254
threshold=-1.3550000190734861
decision_type=2
left_child=-1
right_child=-2
leaf_value=-0.0035431330014044915 0.04437022325709445
leaf_weight=10271.111729213968 845.07133332081139
leaf_count=58971 4062
internal_value=0
internal_weight=0
internal_count=63033
is_linear=0
shrinkage=0.1


Tree=44
num_leaves=2
num_cat=0
split_feature=300
split_gain=172.465
threshold=31.365000724792484
decision_type=2
left_child=-1
right_child=-2
leaf_value=0.034152260392193511 -0.0044643559166060885
leaf_weight=1311.1612488739192 9805.8256814051419
leaf_count=6170 56863
internal_value=0
internal_weight=0
internal_count=63033
is_linear=0
shrinkage=0.1


Tree=45
num_leaves=2
num_cat=0
split_feature=1000
split_gain=172.393
threshold=1.3921245312076283e-07
decision_type=2
left_child=-1
right_child=-2
leaf_value=-0.0076025476141729836 0.020261461444800996
leaf_weight=8051.0781445652246 3065.965178610757
leaf_count=32310 30723
internal_value=0
internal_weight=0
internal_count=63033
is_linear=0
shrinkage=0.1


Tree=46
num_leaves=2
num_cat=1
split_feature=102
split_gain=166.987
threshold=0
decision_type=1
left_child=-1
right_child=-2
leaf_value=0.013881243142440346 -0.010820435952946489
leaf_weight=4887.1513349227607 6193.4596836976707
leaf_count=29474 33559
internal_value=0
internal_weight=0
internal_count=63033
cat_boundaries=0 1
cat_threshold=8
is_linear=0
shrinkage=0.1


Tree=47
num_leaves=2
num_cat=0
split_feature=1000
split_gain=164.984
threshold=2.7688877707987561e-05
decision_type=2
left_child=-1
right_child=-2
leaf_value=-0.0015991245602602088 0.089269204122501056
leaf_weight=10873.616872603074 203.54963544011116
leaf_count=55878 7155
internal_value=0
internal_weight=0
internal_count=63033
is_linear=0
shrinkage=0.1


Tree=48
num_leaves=2
num_cat=0
split_feature=704
split_gain=161.444
threshold=-2.3900001049041744
decision_type=2
left_child=-1
right_child=-2
leaf_value=-0.0063611786770395549 0.022761321649818384
leaf_weight=8619.4091303311288 2443.1058674007654
leaf_count=50173 12860
internal_value=0
internal_weight=0
internal_count=63033
is_linear=0
shrinkage=0.1


Tree=49
num_leaves=2
num_cat=0
split_feature=701
split_gain=152.551
threshold=-0.49999999999999994
decision_type=2
left_child=-1
right_child=-2
leaf_value=-0.0013874934475221485 0.095060373277660093
leaf_weight=10894.870343446732 166.50113195925951
leaf_count=62276 757
internal_value=0
internal_weight=0
internal_count=63033
is_linear=0
shrinkage=0.1


Tree=50
num_leaves=2
num_cat=0
split_feature=704
split_gain=152.306
threshold=-0.084999999962747083
decision_type=2
left_child=-1
right_child=-2
leaf_value=-0.0013877872215691761 0.095231556330443876
leaf_weight=10894.434347823262 165.63146983645856
leaf_count=62240 793
internal_value=0
internal_weight=0
internal_count=63033
is_linear=0
shrinkage=0.1


Tree=51
num_leaves=2
num_cat=0
split_feature=1000
split_gain=147.824
threshold=2.7688877707987561e-05
decision_type=2
left_child=-1
right_child=-2
leaf_value=-0.0014673202909444216 0.087911707962852567
leaf_weight=10871.877926832065 188.2472072634846
leaf_count=55878 7155
internal_value=0
internal_weight=0
internal_count=63033
is_linear=0
shrinkage=0.1


Tree=52
num_leaves=2
num_cat=0
split_feature=706
split_gain=144.276
threshold=-3.7350000143051143
decision_type=8
left_child=-1
right_child=-2
leaf_value=-0.0092977043779581096 0.014019581736252971
leaf_weight=6615.959160335362 4430.7553826011717
leaf_count=35827 27206
internal_value=0
internal_weight=0
internal_count=63033
is_linear=0
shrinkage=0.1


Tree=53
num_leaves=2
num_cat=1
split_feature=105
split_gain=133.44
threshold=0
decision_type=1
left_child=-1
right_child=-2
leaf_value=0.0097076940197316532 -0.012440874081615151
leaf_weight=6228.3120089042932 4813.326841276139
leaf_count=39694 23339
internal_value=0
internal_weight=0
internal_count=63033
cat_boundaries=0 1
cat_threshold=8
is_linear=0
shrinkage=0.1


Tree=54
num_leaves=2
num_cat=0
split_feature=1000
split_gain=129.447
threshold=1.6126343325595375e-05
decision_type=2
left_child=-1
right_child=-2
leaf_value=-0.0015367502213678975 0.074193742783388902
leaf_weight=10803.209855943918 230.52673168852925
leaf_count=54147 8886
internal_value=0
internal_weight=0
internal_count=63033
is_linear=0
shrinkage=0.1


Tree=55
num_leaves=2
num_cat=0
split_feature=300
split_gain=130.239
threshold=31.365000724792484
decision_type=2
left_child=-1
right_child=-2
leaf_value=0.02980302781412178 -0.0039254826292760584
leaf_weight=1297.6589365191758 9722.0516676027328
leaf_count=6170 56863
internal_value=0
internal_weight=0
internal_count=63033
is_linear=0
shrinkage=0.1


Tree=56
num_leaves=2
num_cat=0
split_feature=301
split_gain=127.213
threshold=31.48499965667725
decision_type=2
left_child=-1
right_child=-2
leaf_value=0.037920108733075941 -0.003005536210585043
leaf_weight=820.63797748088837 10198.139896128327
leaf_count=4312 58721
internal_value=0
internal_weight=0
internal_count=63033
is_linear=0
shrinkage=0.1


Tree=57
num_leaves=2
num_cat=0
split_feature=1000
split_gain=122.445
threshold=1.3921245312076283e-07
decision_type=2
left_child=-1
right_child=-2
leaf_value=-0.0063894271108200264 0.017325244467315447
leaf_weight=8032.1237747222185 2986.8744907416403
leaf_count=32310 30723
internal_value=0
internal_weight=0
internal_count=63033
is_linear=0
shrinkage=0.1


Tree=58
num_leaves=2
num_cat=0
split_feature=703
split_gain=120.989
threshold=-1.3550000190734861
decision_type=2
left_child=-1
right_child=-2
leaf_value=-0.0029609866302701742 0.036761587823161967
leaf_weight=10159.064623286948 829.38033076561987
leaf_count=58971 4062
internal_value=0
internal_weight=0
internal_count=63033
is_linear=0
shrinkage=0.1


Tree=59
num_leaves=2
num_cat=0
split_feature=704
split_gain=119.082
threshold=-0.084999999962747083
decision_type=2
left_child=-1
right_child=-2
leaf_value=-0.0012438546555623064 0.084835647941973388
leaf_weight=10824.848260665312 163.13322882354259
leaf_count=62240 793
internal_value=0
internal_weight=0
internal_count=63033
is_linear=0
shrinkage=0.1


Tree=60
num_leaves=2
num_cat=1
split_feature=107
split_gain=117.783
threshold=0
decision_type=9
left_child=-1
right_child=-2
leaf_value=-0.017787687073228378 0.0060364430909282457
leaf_weight=2764.4540264718235 8222.8963929265738
leaf_count=15415 47618
internal_value=0
internal_weight=0
internal_count=63033
cat_boundaries=0 1
cat_threshold=16
is_linear=0
shrinkage=0.1


Tree=61
num_leaves=2
num_cat=0
split_feature=1000
split_gain=115.067
threshold=2.7688877707987561e-05
decision_type=2
left_child=-1
right_child=-2
leaf_value=-0.0012099610000137163 0.084647935602734342
leaf_weight=10827.466217039153 158.37921426258981
leaf_count=55878 7155
internal_value=0
internal_weight=0
internal_count=63033
is_linear=0
shrinkage=0.1


Tree=62
num_leaves=2
num_cat=0
split_feature=701
split_gain=115.291
threshold=-3.1800000667572017
decision_type=2
left_child=-1
right_child=-2
leaf_value=-0.0049981909349416367 0.020922630443073111
leaf_weight=8845.9532414963469 2128.8775151371956
leaf_count=52413 10620
internal_value=0
internal_weight=0
internal_count=63033
is_linear=0
shrinkage=0.1


Tree=63
num_leaves=2
num_cat=0
split_feature=701
split_gain=109.08
threshold=-0.49999999999999994
decision_type=2
left_child=-1
right_child=-2
leaf_value=-0.001185924002434287 0.081941167596844555
leaf_weight=10813.714123515412 160.19341863319278
leaf_count=62276 757
internal_value=0
internal_weight=0
internal_count=63033
is_linear=0
shrinkage=0.1


Tree=64
num_leaves=2
num_cat=1
split_feature=102
split_gain=105.601
threshold=0
decision_type=1
left_child=-1
right_child=-2
leaf_value=0.0093314855340082895 -0.010298177907674864
leaf_weight=5771.1653168797493 5200.7443924676627
leaf_count=33719 29314
internal_value=0
internal_weight=0
internal_count=63033
cat_boundaries=0 1
cat_threshold=10
is_linear=0
shrinkage=0.1


Tree=65
num_leaves=2
num_cat=0
split_feature=1000
split_gain=102.923
threshold=1.909926936605189e-06
decision_type=2
left_child=-1
right_child=-2
leaf_value=-0.0025774980553240632 0.036089802164007222
leaf_weight=10232.16212855652 738.02848083153367
leaf_count=45709 17324
internal_value=0
internal_weight=0
internal_count=63033
is_linear=0
shrinkage=0.1


Tree=66
num_leaves=2
num_cat=0
split_feature=706
split_gain=101.332
threshold=-3.7350000143051143
decision_type=8
left_child=-1
right_child=-2
leaf_value=-0.0078203150033053018 0.011821816728928399
leaf_weight=6575.476010476239 4373.2506985366344
leaf_count=35827 27206
internal_value=0
internal_weight=0
internal_count=63033
is_linear=0
shrinkage=0.1


Tree=67
num_leaves=2
num_cat=0
split_feature=1000
split_gain=96.7782
threshold=2.7688877707987561e-05
decision_type=2
left_child=-1
right_child=-2
leaf_value=-0.0010520340367932825 0.082250958847874034
leaf_weight=10802.664939159527 141.28619528561831
leaf_count=55878 7155
internal_value=0
internal_weight=0
internal_count=63033
is_linear=0
shrinkage=0.1


Tree=68
num_leaves=2
num_cat=0
split_feature=301
split_gain=96.0965
threshold=31.48499965667725
decision_type=2
left_child=-1
right_child=-2
leaf_value=0.033131740845713971 -0.0026294367334167581
leaf_weight=811.67363004945219 10122.642317196354
leaf_count=4312 58721
internal_value=0
internal_weight=0
internal_count=63033
is_linear=0
shrinkage=0.1


Tree=69
num_leaves=2
num_cat=0
split_feature=708
split_gain=93.3343
threshold=-4.6449999809265128
decision_type=10
left_child=-1
right_child=-2
leaf_value=-0.0070096003821600167 0.012160946821131183
leaf_weight=6922.7724294662476 4011.1424219701439
leaf_count=39695 23338
internal_value=0
internal_weight=0
internal_count=63033
is_linear=0
shrinkage=0.1


Tree=70
num_leaves=2
num_cat=0
split_feature=704
split_gain=91.3609
threshold=-0.084999999962747083
decision_type=2
left_child=-1
right_child=-2
leaf_value=-0.0010925942120664238 0.075043513889393995
leaf_weight=10772.12801506184 159.94855069089681
leaf_count=62240 793
internal_value=0
internal_weight=0
internal_count=63033
is_linear=0
shrinkage=0.1


Tree=71
num_leaves=2
num_cat=1
split_feature=107
split_gain=90.5775
threshold=0
decision_type=9
left_child=-1
right_child=-2
leaf_value=-0.01561918946486571 0.0053087593022829414
leaf_weight=2757.4479575213045 8173.5014162966982
leaf_count=15415 47618
internal_value=0
internal_weight=0
internal_count=63033
cat_boundaries=0 1
cat_threshold=16
is_linear=0
shrinkage=0.1


Tree=72
num_leaves=2
num_cat=0
split_feature=300
split_gain=89.8718
threshold=31.530000686645511
decision_type=2
left_child=-1
right_child=-2
leaf_value=0.023301993984205658 -0.0035141080677158379
leaf_weight=1439.329281094484 9489.8914312748238
leaf_count=6886 56147
internal_value=0
internal_weight=0
internal_count=63033
is_linear=0
shrinkage=0.1


Tree=73
num_leaves=2
num_cat=0
split_feature=1000
split_gain=88.9269
threshold=1.3921245312076283e-07
decision_type=2
left_child=-1
right_child=-2
leaf_value=-0.0054338795033140692 0.014947068539729944
leaf_weight=8005.7504701465368 2922.3024237211794
leaf_count=32310 30723
internal_value=0
internal_weight=0
internal_count=63033
is_linear=0
shrinkage=0.1


Tree=74
num_leaves=2
num_cat=1
split_feature=103
split_gain=88.1423
threshold=0
decision_type=1
left_child=-1
right_child=-2
leaf_value=0.022196117121429028 -0.0036222515741590128
leaf_weight=1529.2006981130689 9372.9547666544095
leaf_count=7375 55658
internal_value=0
internal_weight=0
internal_count=63033
cat_boundaries=0 1
cat_threshold=8
is_linear=0
shrinkage=0.1


Tree=75
num_leaves=2
num_cat=0
split_feature=1000
split_gain=84.6884
threshold=2.7688877707987561e-05
decision_type=2
left_child=-1
right_child=-2
leaf_value=-0.0009506262907186926 0.080318918603619491
leaf_weight=10772.777223084122 129.76821696851403
leaf_count=55878 7155
internal_value=0
internal_weight=0
internal_count=63033
is_linear=0
shrinkage=0.1


Tree=76
num_leaves=2
num_cat=0
split_feature=221
split_gain=83.4264
threshold=37.534999847412116
decision_type=8
left_child=-1
right_child=-2
leaf_value=0.0031425188011215883 -0.024496185585315002
leaf_weight=9662.5692426087335 1231.2804054981098
leaf_count=57431 5602
internal_value=0
internal_weight=0
internal_count=63033
is_linear=0
shrinkage=0.1


Tree=77
num_leaves=2
num_cat=0
split_feature=302
split_gain=80.9854
threshold=31.304999351501468
decision_type=2
left_child=-1
right_child=-2
leaf_value=-0.023284014469718162 0.0032083020674145953
leaf_weight=1311.9405679497868 9578.5673194238916
leaf_count=9347 53686
internal_value=0
internal_weight=0
internal_count=63033
is_linear=0
shrinkage=0.1


Tree=78
num_leaves=2
num_cat=0
split_feature=701
split_gain=80.4961
threshold=-0.88999998569488514
decision_type=2
left_child=-1
right_child=-2
leaf_value=-0.001070846482849347 0.068023029453834011
leaf_weight=10721.478782032616 171.30894728936255
leaf_count=62206 827
internal_value=0
internal_weight=0
internal_count=63033
is_linear=0
shrinkage=0.1


Tree=79
num_leaves=2
num_cat=1
split_feature=98
split_gain=77.7767
threshold=0
decision_type=1
left_child=-1
right_child=-2
leaf_value=0.028858021349948516 -0.002456304631916355
leaf_weight=851.12925555557013 10039.589258315042
leaf_count=3555 59478
internal_value=0
internal_weight=0
internal_count=63033
cat_boundaries=0 1
cat_threshold=10
is_linear=0
shrinkage=0.1


Tree=80
num_leaves=2
num_cat=0
split_feature=898
split_gain=78.6758
threshold=-0.79500001668930043
decision_type=2
left_child=-1
right_child=-2
leaf_value=-0.0031672249945991146 0.022704072120328628
leaf_weight=9552.8305550292134 1340.3813458299264
leaf_count=55868 7165
internal_value=0
internal_weight=0
internal_count=63033
is_linear=0
shrinkage=0.1


Tree=81
num_leaves=2
num_cat=0
split_feature=298
split_gain=77.676
threshold=34.645000457763679
decision_type=2
left_child=-1
right_child=-2
leaf_value=0.009266866748259793 -0.0076921779213910448
leaf_weight=4950.5307092675939 5942.8519085673615
leaf_count=28162 34871
internal_value=0
internal_weight=0
internal_count=63033
is_linear=0
shrinkage=0.1


Tree=82
num_leaves=2
num_cat=0
split_feature=1000
split_gain=76.9056
threshold=4.5408340156427591e-05
decision_type=2
left_child=-1
right_child=-2
leaf_value=-0.00077761188015703676 0.089230861077420204
leaf_weight=10796.127637754194 95.769363193772733
leaf_count=57361 5672
internal_value=0
internal_weight=0
internal_count=63033
is_linear=0
shrinkage=0.1


Tree=83
num_leaves=2
num_cat=1
split_feature=108
split_gain=74.822
threshold=0
decision_type=9
left_child=-1
right_child=-2
leaf_value=-0.015326132675331623 0.0044880360412012299
leaf_weight=2451.3670482039452 8433.430984239094
leaf_count=13138 49895
internal_value=0
internal_weight=0
internal_count=63033
cat_boundaries=0 1
cat_threshold=16
is_linear=0
shrinkage=0.1


Tree=84
num_leaves=2
num_cat=0
split_feature=304
split_gain=73.3368
threshold=33.944999694824226
decision_type=2
left_child=-1
right_child=-2
leaf_value=0.010199735461823184 -0.0066021379781542912
leaf_weight=4284.9648072263226 6597.7817232580855
leaf_count=28059 34974
internal_value=0
internal_weight=0
internal_count=63033
is_linear=0
shrinkage=0.1


Tree=85
num_leaves=2
num_cat=0
split_feature=703
split_gain=71.5924
threshold=-0.084999999962747083
decision_type=2
left_child=-1
right_child=-2
leaf_value=-0.00071274936367771429 0.090756038863300775
leaf_weight=10792.021088173613 86.253805842250586
leaf_count=62664 369
internal_value=0
internal_weight=0
internal_count=63033
is_linear=0
shrinkage=0.1


Tree=86
num_leaves=2
num_cat=0
split_feature=704
split_gain=71.5866
threshold=-0.084999999962747083
decision_type=2
left_child=-1
right_child=-2
leaf_value=-0.00096943124355480066 0.067085080384162901
leaf_weight=10721.086165826768 156.82839447818696
leaf_count=62240 793
internal_value=0
internal_weight=0
internal_count=63033
is_linear=0
shrinkage=0.1


Tree=87
num_leaves=2
num_cat=0
split_feature=1000
split_gain=72.0328
threshold=1.3313809432702331e-07
decision_type=2
left_child=-1
right_child=-2
leaf_value=-0.0049532844079686741 0.013351365817115253
leaf_weight=7926.5801027268171 2949.9258618336171
leaf_count=32062 30971
internal_value=0
internal_weight=0
internal_count=63033
is_linear=0
shrinkage=0.1


Tree=88
num_leaves=2
num_cat=0
split_feature=406
split_gain=68.9577
threshold=4.2950000762939462
decision_type=10
left_child=-1
right_child=-2
leaf_value=-0.015574896573849332 0.0040877381701231027
leaf_weight=2250.0766856586561 8603.4641703525558
leaf_count=11213 51820
internal_value=0
internal_weight=0
internal_count=63033
is_linear=0
shrinkage=0.1


Tree=89
num_leaves=2
num_cat=0
split_feature=301
split_gain=68.1653
threshold=31.48499965667725
decision_type=2
left_child=-1
right_child=-2
leaf_value=0.028075107917200078 -0.0022280742959380367
leaf_weight=801.52210271637887 10048.815736805089
leaf_count=4312 58721
internal_value=0
internal_weight=0
internal_count=63033
is_linear=0
shrinkage=0.1


Tree=90
num_leaves=2
num_cat=0
split_feature=899
split_gain=69.5089
threshold=2.5849999189376835
decision_type=2
left_child=-1
right_child=-2
leaf_value=-0.0036062245728815177 0.01772713734327613
leaf_weight=9010.4789351783693 1839.0055426210165
leaf_count=54481 8552
internal_value=0
internal_weight=0
internal_count=63033
is_linear=0
shrinkage=0.1


Tree=91
num_leaves=2
num_cat=0
split_feature=1000
split_gain=67.1541
threshold=4.5408340156427591e-05
decision_type=2
left_child=-1
right_child=-2
leaf_value=-0.0006964624538629351 0.087727998269102131
leaf_weight=10763.662611487322 86.577944675460458
leaf_count=57361 5672
internal_value=0
internal_weight=0
internal_count=63033
is_linear=0
shrinkage=0.1


Tree=92
num_leaves=2
num_cat=1
split_feature=107
split_gain=66.6956
threshold=0
decision_type=9
left_child=-1
right_child=-2
leaf_value=-0.0134389370722581 0.0045755322091728815
leaf_weight=2742.6602133177221 8101.2314918441698
leaf_count=15415 47618
internal_value=0
internal_weight=0
internal_count=63033
cat_boundaries=0 1
cat_threshold=16
is_linear=0
shrinkage=0.1


Tree=93
num_leaves=2
num_cat=0
split_feature=302
split_gain=65.5766
threshold=31.304999351501468
decision_type=2
left_child=-1
right_child=-2
leaf_value=-0.020965147670052271 0.002893076524602212
leaf_weight=1310.4428859306499 9531.6145062325522
leaf_count=9347 53686
internal_value=0
internal_weight=0
internal_count=63033
is_linear=0
shrinkage=0.1


Tree=94
num_leaves=2
num_cat=1
split_feature=108
split_gain=64.6702
threshold=0
decision_type=9
left_child=-1
right_child=-2
leaf_value=0.012816566728173688 -0.0046389172781467194
leaf_weight=2882.6976455138065 7961.1695556906052
leaf_count=17522 45511
internal_value=0
internal_weight=0
internal_count=63033
cat_boundaries=0 1
cat_threshold=8
is_linear=0
shrinkage=0.1


Tree=95
num_leaves=2
num_cat=0
split_feature=706
split_gain=63.7076
threshold=-3.7350000143051143
decision_type=8
left_child=-1
right_child=-2
leaf_value=-0.0062164501849659602 0.0094473764792237513
leaf_weight=6532.982959699817 4309.2640968346968
leaf_count=35827 27206
internal_value=0
internal_weight=0
internal_count=63033
is_linear=0
shrinkage=0.1


Tree=96
num_leaves=2
num_cat=0
split_feature=703
split_gain=62.7103
threshold=-1.3550000190734861
decision_type=2
left_child=-1
right_child=-2
leaf_value=-0.0021457935944772747 0.026865855810126633
leaf_weight=10033.215923195239 804.83084969688207
leaf_count=58971 4062
internal_value=0
internal_weight=0
internal_count=63033
is_linear=0
shrinkage=0.1


Tree=97
num_leaves=2
num_cat=0
split_feature=1000
split_gain=62.2701
threshold=5.4719157560612086e-07
decision_type=2
left_child=-1
right_child=-2
leaf_value=-0.0029120012469814136 0.019685742171737755
leaf_weight=9436.3400013297796 1400.3710902035236
leaf_count=39505 23528
internal_value=0
internal_weight=0
internal_count=63033
is_linear=0
shrinkage=0.1


Tree=98
num_leaves=2
num_cat=1
split_feature=98
split_gain=62.9839
threshold=0
decision_type=1
left_child=-1
right_child=-2
leaf_value=0.026022228714614827 -0.0022253238257657045
leaf_weight=847.15674787200987 9967.8312944639474
leaf_count=3555 59478
internal_value=0
internal_weight=0
internal_count=63033
cat_boundaries=0 1
cat_threshold=10
is_linear=0
shrinkage=0.1


Tree=99
num_leaves=2
num_cat=0
split_feature=300
split_gain=61.1338
threshold=33.514999389648445
decision_type=2
left_child=-1
right_child=-2
leaf_value=0.01419684384833738 -0.003973278217770021
leaf_weight=2371.6962655391544 8445.1211100849323
leaf_count=11678 51355
internal_value=0
internal_weight=0
internal_count=63033
is_linear=0
shrinkage=0.1


end of trees

feature_importances:
1000=49
300=6
701=6
704=6
703=4
706=4
107=3
301=3
98=2
102=2
105=2
108=2
302=2
103=1
221=1
298=1
304=1
406=1
705=1
708=1
898=1
899=1

parameters:
[boosting: gbdt]
[objective: binary]
[metric: auc,binary_logloss]
[tree_learner: serial]
[device_type: cpu]
[data: ]
[valid: ]
[num_iterations: 500]
[learning_rate: 0.1]
[num_leaves: 2]
[num_threads: 0]
[deterministic: 0]
[force_col_wise: 1]
[force_row_wise: 0]
[histogram_pool_size: -1]
[max_depth: -1]
[min_data_in_leaf: 20]
[min_sum_hessian_in_leaf: 0.001]
[bagging_fraction: 1]
[pos_bagging_fraction: 0.45]
[neg_bagging_fraction: 0.9]
[bagging_freq: 0]
[bagging_seed: 3]
[feature_fraction: 1]
[feature_fraction_bynode: 1]
[feature_fraction_seed: 2]
[extra_trees: 0]
[extra_seed: 6]
[early_stopping_round: 0]
[first_metric_only: 0]
[max_delta_step: 0]
[lambda_l1: 0]
[lambda_l2: 0]
[linear_lambda: 0]
[min_gain_to_split: 0]
[drop_rate: 0.1]
[max_drop: 50]
[skip_drop: 0.5]
[xgboost_dart_mode: 0]
[uniform_drop: 0]
[drop_seed: 4]
[top_rate: 0.2]
[other_rate: 0.1]
[min_data_per_group: 100]
[max_cat_threshold: 32]
[cat_l2: 10]
[cat_smooth: 10]
[max_cat_to_onehot: 4]
[top_k: 20]
[monotone_constraints: ]
[monotone_constraints_method: basic]
[monotone_penalty: 0]
[feature_contri: ]
[forcedsplits_filename: ]
[refit_decay_rate: 0.9]
[cegb_tradeoff: 1]
[cegb_penalty_split: 0]
[cegb_penalty_feature_lazy: ]
[cegb_penalty_feature_coupled: ]
[path_smooth: 0]
[interaction_constraints: ]
[verbosity: 1]
[saved_feature_importance_type: 0]
[linear_tree: 0]
[max_bin: 255]
[max_bin_by_feature: ]
[min_data_in_bin: 3]
[bin_construct_sample_cnt: 200000]
[data_random_seed: 1]
[is_enable_sparse: 1]
[enable_bundle: 1]
[use_missing: 1]
[zero_as_missing: 0]
[feature_pre_filter: 1]
[pre_partition: 0]
[two_round: 0]
[header: 0]
[label_column: ]
[weight_column: ]
[group_column: ]
[ignore_column: ]
[categorical_feature: 0,1,2,3,4,5,6,7,8,9,10,11,12,13,14,15,16,17,18,19,20,21,22,23,24,25,26,27,28,29,30,31,32,33,34,35,36,37,38,39,40,41,42,43,44,45,46,47,48,49,50,51,52,53,54,55,56,57,58,59,60,61,62,63,64,65,66,67,68,69,70,71,72,73,74,75,76,77,78,79,80,81,82,83,84,85,86,87,88,89,90,91,92,93,94,95,96,97,98,99,100,101,102,103,104,105,106,107,108,109,110,111,112,113,114,115,116,117,118,119,120,121,122,123,124,125,126,127,128,129,130,131,132,133,134,135,136,137,138,139,140,141,142,143,144,145,146,147,148,149,150,151,152,153,154,155,156,157,158,159,160,161,162,163,164,165,166,167,168,169,170,171,172,173,174,175,176,177,178,179,180,181,182,183,184,185,186,187,188,189,190,191,192,193,194,195,196,197,198,199]
[forcedbins_filename: ]
[precise_float_parser: 0]
[parser_config_file: ]
[objective_seed: 5]
[num_class: 1]
[is_unbalance: 0]
[scale_pos_weight: 1]
[sigmoid: 1]
[boost_from_average: 1]
[reg_sqrt: 0]
[alpha: 0.9]
[fair_c: 1]
[poisson_max_delta_step: 0.7]
[tweedie_variance_power: 1.5]
[lambdarank_truncation_level: 30]
[lambdarank_norm: 1]
[label_gain: ]
[lambdarank_position_bias_regularization: 0]
[eval_at: ]
[multi_error_top_k: 1]
[auc_mu_weights: ]
[num_machines: 1]
[local_listen_port: 12400]
[time_out: 120]
[machine_list_filename: ]
[machines: ]
[gpu_platform_id: -1]
[gpu_device_id: -1]
[gpu_use_dp: 0]
[num_gpu: 1]

end of parameters

pandas_categorical:[]
