tree
version=v4
num_class=1
num_tree_per_iteration=1
label_index=0
max_feature_idx=100
objective=binary sigmoid:1
feature_names=90 91 92 93 94 95 96 97 98 99 100 101 102 103 104 105 106 107 108 109 290 291 292 293 294 295 296 297 298 299 300 301 302 303 304 305 306 307 308 309 490 491 492 493 494 495 496 497 498 499 500 501 502 503 504 505 506 507 508 509 690 691 692 693 694 695 696 697 698 699 700 701 702 703 704 705 706 707 708 709 890 891 892 893 894 895 896 897 898 899 900 901 902 903 904 905 906 907 908 909 1000
feature_infos=-1:2:4:3:1 -1:1:3:4:2 -1:3:2:4:1 -1:2:4:1:3 -1:3:4:1:2 -1:2:4:3:1 -1:2:4 -1:2:1:4:3 -1:2:4:1:3 -1:2:3 -1:4:1:2:3 -1:3:1:4:2 -1:3:2:1:4 -1:4:1:2:3 -1:3:4:1:2 -1:3:2:4:1 -1:2:4:1:3 -1:2:4:1:3 -1:3:1:2:4 -1:2:3:4:1 [30.979999542236328:38.049999237060547] [30.979999542236328:38.049999237060547] [30.940000534057617:38.049999237060547] [30.979999542236328:37.880001068115234] [30.979999542236328:38.049999237060547] [31.020000457763672:38.049999237060547] [31.139999389648438:37.369998931884766] [30.979999542236328:36.509998321533203] [31.049999237060547:37.770000457763672] [30.979999542236328:37.229999542236328] [30.979999542236328:37.049999237060547] [30.979999542236328:37.849998474121094] [30.979999542236328:38.049999237060547] [30.979999542236328:37.880001068115234] [30.940000534057617:38.049999237060547] [30.979999542236328:38.049999237060547] [30.979999542236328:37.880001068115234] [30.979999542236328:38.049999237060547] [30.979999542236328:38.049999237060547] [30.979999542236328:38.049999237060547] [2.8499999046325684:6.1999998092651367] [2.8499999046325684:6.1999998092651367] [2.8499999046325684:6.1999998092651367] [2.8499999046325684:6.1999998092651367] [2.8499999046325684:6.1999998092651367] [3.3399999141693115:6.1999998092651367] [3.3399999141693115:6.1999998092651367] [4.2699999809265137:6.1100001335144043] [4.3299999237060547:5.8400001525878906] [3.3399999141693115:6.0100002288818359] [3.3499999046325684:6.1999998092651367] [3.6800000667572021:6.1999998092651367] [2.8499999046325684:6.1100001335144043] [2.8499999046325684:6.1999998092651367] [2.8499999046325684:6.1999998092651367] [2.8499999046325684:6.1999998092651367] [2.8499999046325684:6.1999998092651367] [2.8499999046325684:6.1999998092651367] [2.8499999046325684:6.1999998092651367] [2.8499999046325684:6.1999998092651367] [-16.510000228881836:-0.029999999329447746] [-16.510000228881836:-0.029999999329447746] [-16.510000228881836:-0.029999999329447746] [-16.510000228881836:-0.029999999329447746] [-16.510000228881836:-0.029999999329447746] [-16.510000228881836:-0.029999999329447746] [-16.510000228881836:-0.029999999329447746] [-13.159999847412109:-0.029999999329447746] [-12.029999732971191:-0.89999997615814209] [-10.390000343322754:-0.029999999329447746] [-12.029999732971191:-0.029999999329447746] [-14.680000305175781:-0.029999999329447746] [-16.510000228881836:-0.029999999329447746] [-16.510000228881836:-0.029999999329447746] [-16.510000228881836:-0.029999999329447746] [-16.510000228881836:-0.029999999329447746] [-16.510000228881836:-0.029999999329447746] [-16.510000228881836:-0.029999999329447746] [-16.510000228881836:-0.029999999329447746] [-16.510000228881836:-0.029999999329447746] [-8.5699996948242188:8.6400003433227539] [-8.5699996948242188:8.6400003433227539] [-8.5699996948242188:8.6400003433227539] [-8.5699996948242188:8.6400003433227539] [-7.5300002098083496:7.7300000190734863] [-6.1999998092651367:0.5899999737739563] [-5.6599998474121094:8.0299997329711914] [-5.0500001907348633:5.9000000953674316] [-4.8299999237060547:6.1500000953674316] [-4.929999828338623:6.8299999237060547] [-6.5399999618530273:7.7899999618530273] [-6.9499998092651367:7.440000057220459] [-7.5300002098083496:8.3199996948242188] [-7.5300002098083496:8.1700000762939453] [-8.5699996948242188:8.6400003433227539] [-8.5699996948242188:8.3199996948242188] [-8.5699996948242188:8.6400003433227539] [-8.5699996948242188:8.6400003433227539] [-8.5699996948242188:8.6400003433227539] [-8.5699996948242188:8.6400003433227539] [9.3880388489162026e-16:0.0097198504954576492]
tree_sizes=5355 5516 5531 5504 5500 5506 5460 5520 5482 5511 5526 5499 5498 5517 5510 5492 5518 5483 5500 5496 5488 5504 5524 5483 5510 5513 5486 5443 5514 5467 5506 5440 5513 5463 5430 5479 5473 5453 5517 5466 5502 5467 5484 5433 5479 5484 5455 5411 5506 5449 5424

Tree=0
num_leaves=50
num_cat=3
split_feature=100 71 100 47 74 30 100 29 31 87 100 56 100 16 13 80 71 74 31 32 67 28 76 87 92 73 73 75 100 99 98 80 33 27 72 82 32 97 76 91 22 55 95 17 90 42 79 90 25
split_gain=14151.4 472.631 433.047 297.871 252.985 215.281 214.802 196.785 113.826 143.115 108.566 87.6905 86.2356 67.2882 65.9764 64.7707 64.0316 62.864 62.4443 61.8742 56.3888 44.4639 40.4175 39.7269 39.6892 38.901 38.7049 37.9589 35.5978 35.3004 34.9556 34.8444 32.9811 32.1374 32.1586 31.7812 31.6903 30.9811 30.7062 29.494 28.9675 28.4523 26.0087 26.8913 25.7688 25.6417 25.2749 25.0824 24.2218
threshold=2.7942337510467047e-07 -3.1800000667572017 2.9321848842300828e-06 5.2799999713897714 -0.084999999962747083 33.264999389648445 1.8320158545748202e-07 34.145000457763679 31.48499965667725 2.4000000953674321 3.9764304915479448e-07 4.0400002002716073 1.2147965122721874e-07 0 1 3.0049999952316289 -5.8250000476837149 -5.7249999046325675 37.295000076293952 33.954999923706062 -5.0350000858306876 33.870000839233406 -6.1600000858306876 -4.0899999141693106 -1.2450000047683714 -7.4900000095367423 -4.2799999713897696 -7.2850000858306876 9.7147129451968808e-08 3.9850000143051152 2.7749999761581425 -1.1050000190734861 34.375000000000007 35.674999237060554 -1.3250000476837156 -2.7250000238418575 32.264999389648445 3.4700000286102299 -6.9900000095367423 -2.1550000905990596 31.654999732971195 5.3250000476837167 -1.5750000476837156 2 3.370000004768372 4.3199999332427987 -8.9649996757507306 4.3999998569488534 35.215000152587898
decision_type=2 2 2 2 2 2 2 2 2 2 2 8 2 1 1 10 2 2 2 2 2 2 8 2 2 2 2 10 2 10 10 10 2 2 2 10 2 8 10 2 10 10 8 9 2 8 10 2 2
left_child=1 4 10 12 6 7 8 17 9 13 23 29 33 19 21 22 31 32 25 -1 -6 -8 -10 -2 -22 -9 -14 -11 -7 -12 -29 -13 -5 -3 39 -16 -25 -24 -23 -35 46 -19 43 -27 -39 -18 -17 -40 -4
right_child=2 3 48 5 20 28 14 18 15 27 11 16 26 -15 35 40 45 41 -20 -21 24 38 37 36 -26 42 -28 30 -30 -31 -32 -33 -34 34 -36 -37 -38 44 47 -41 -42 -43 -44 -45 -46 -47 -48 -49 -50
leaf_value=0.82250784020868317 0.62183468318529411 0.60132575835672353 0.8396817607230751 0.57794171650895476 0.5929478589624041 0.61746182583102205 0.72933898195989266 0.55121286515978096 0.58152709352470977 0.51784211598289009 0.78088213890661795 0.7952483135201408 0.6510424721217718 0.59616730571812682 0.64177426096746593 0.44872510485446293 0.71104191260177818 0.82390154140785166 0.57044654325194233 0.63404399115733334 0.57677123739758573 0.54377202119083856 0.60587796132044236 0.68942985186685679 0.81447751034422888 0.77035109422653314 0.76434301601821819 0.80852610144865755 0.71196157476071098 0.59466877615015079 0.57095659923142972 0.83248503590047829 0.76237909331527587 0.48664434582216881 0.80830411403098412 0.73431808985601266 0.75960007459343126 0.59014944786581158 0.65095731821816694 0.66018655194079068 0.57012522908720564 0.59479661571266906 0.59679943552545611 0.65858274166002551 0.52930301376041722 0.78140390578990293 0.54746889826469158 0.49371312163200542 0.81035225009089384
leaf_weight=28.404396057128906 29.292033433914185 711.88517618179321 3092.3067113757133 17.087019503116608 17.308928847312927 217.24924796819687 33.952129662036896 14.86792606115341 2048.0013375878334 5.7696429491043082 15.08983540534973 539.4616157412529 71.898627519607544 332.64210695028305 50.151511788368225 36.393132448196411 54.367789328098297 236.55536091327667 50.595330476760864 45.047596871852875 7.7668270468711844 56.364973425865173 1923.9540141820908 84.32555079460144 73.451992928981781 66.794712603092194 51.926786541938782 62.134616374969482 48.820055723190308 31.289217531681061 6.8791896700859061 470.44780969619751 22.412843763828278 11.095467209815977 12.870741963386534 142.68770831823349 271.83894664049149 255.63956451416016 97.862020790576935 83.437913417816162 911.82549530267715 5.5477336049079886 13.980288684368132 25.519574582576752 95.642927348613739 1093.5692481994629 90.09519374370575 11.317376554012297 309.78544449806213
leaf_count=128 132 3208 13935 77 78 979 153 67 9229 26 68 2431 324 1499 226 164 245 1066 228 203 35 254 8670 380 331 301 234 280 220 141 31 2120 101 50 58 643 1225 1152 441 376 4109 25 63 115 431 4928 406 51 1396
internal_value=0.697362 0.610291 0.813556 0.657743 0.597835 0.706207 0.595322 0.748114 0.590512 0.637119 0.782742 0.791305 0.620774 0.613708 0.666949 0.586332 0.794229 0.799567 0.663754 0.705778 0.756822 0.628543 0.591718 0.73378 0.791746 0.702718 0.698556 0.764246 0.634801 0.655255 0.784846 0.812594 0.682594 0.609019 0.660008 0.709615 0.742987 0.600892 0.603713 0.639818 0.563904 0.818652 0.72391 0.743159 0.573583 0.778071 0.519058 0.634658 0.837011
internal_weight=0 7995.84 5991.77 1662.54 6333.29 719.43 6234.76 453.361 5842.43 480.878 2589.68 2204.23 943.115 406.094 392.336 5361.55 2157.85 281.603 171.758 73.452 98.5277 199.497 4323.24 385.457 81.2188 121.163 123.825 74.7834 266.069 46.3791 69.0138 1009.91 39.4999 819.289 107.404 192.839 356.164 2275.24 165.544 94.5334 1038.31 242.103 106.295 92.3143 351.282 1147.94 126.488 109.179 3402.09
internal_count=63033 36032 27001 7492 28540 3242 28096 2043 26328 2167 11670 9933 4250 1830 1768 24161 9724 1269 774 331 444 899 19482 1737 366 546 558 337 1199 209 311 4551 178 3692 484 869 1605 10253 746 426 4679 1091 479 416 1583 5173 570 492 15331
cat_boundaries=0 1 2 3
cat_threshold=8 16 10
is_linear=0
shrinkage=1


Tree=1
num_leaves=50
num_cat=1
split_feature=100 100 71 90 74 100 12 30 100 100 74 73 42 50 91 76 80 47 52 71 31 87 63 77 28 90 100 71 67 95 74 76 80 95 76 100 33 89 93 96 81 100 77 78 21 47 20 57 73
split_gain=11627.2 400.841 356.441 238.6 196.217 167.737 128.265 150.112 95.4256 85.1399 83.944 161.713 77.6941 60.8381 60.7155 61.7494 60.666 54.9172 53.3615 50.126 48.6857 39.5915 37.1758 37.0094 35.1001 32.736 31.7189 46.8468 31.5223 31.227 31.1405 30.5185 30.2828 30.2676 29.9508 36.2496 31.3174 28.2578 26.394 24.9117 24.1257 23.1972 23.0034 22.2869 24.5192 22.1518 22.0598 21.875 21.7852
threshold=2.7942337510467047e-07 2.9321848842300828e-06 -3.1800000667572017 -3.0549999475479122 -0.084999999962747083 2.1123427984548473e-07 0 31.195000648498539 3.9764304915479448e-07 1.6612299447160697e-07 -1.2250000238418577 -1.3250000476837156 4.3399999141693124 4.9349999427795419 -2.2150000333786006 -3.5899999141693111 3.0049999952316289 4.9249999523162851 4.6549999713897714 -5.8250000476837149 33.539999008178718 2.685000061988831 -5.2149999141693106 -0.084999999962747083 34.864999771118171 3.745000004768372 1.1258981524875369e-09 -6.0850000381469718 -5.0350000858306876 -2.4750000238418575 -2.445000052452087 -3.814999938011169 -1.1050000190734861 -1.314999997615814 -3.7350000143051143 1.3921245312076283e-07 34.065000534057624 -1.7849999666213987 -2.504999995231628 -0.7250000238418578 -2.7150000333786006 7.4091299211431769e-06 -2.3900001049041744 -5.9349999427795401 36.625000000000007 5.0650000572204599 36.754999160766609 5.6649999618530282 -5.2999999523162833
decision_type=2 2 2 2 2 2 1 2 2 2 2 2 8 2 2 8 10 2 2 2 2 2 8 10 2 2 2 2 2 8 2 8 10 10 8 2 2 2 2 10 8 2 10 8 10 2 10 10 2
left_child=2 8 4 17 5 10 7 45 24 14 16 21 13 -10 30 46 23 -4 39 32 28 42 25 34 -2 -7 -18 29 -6 -28 -8 48 -14 -19 43 47 -37 -25 -11 -17 -24 -3 -12 44 -1 -5 -16 -36 -26
right_child=1 41 3 6 20 22 9 -9 12 38 11 -13 19 -15 15 18 26 33 -20 -21 -22 -23 40 37 31 -27 27 -29 -30 -31 -32 -33 -34 -35 35 36 -38 -39 -40 -41 -42 -43 -44 -45 -46 -47 -48 -49 -50
leaf_value=-0.1079910160795241 0.062617812979067308 0.11767843890261441 -0.038612017341201531 0.0087414316578061629 -0.072744586099607433 -0.017074116651827106 -0.11463238169046558 -0.1080327827339658 -0.064731783164473686 -0.057072537226361721 -0.088086190076395246 0.12617389835841847 0.092480428727393177 0.068862254725417585 -0.076638212185662608 -0.0040116764163608837 -0.089150844664835791 0.12720668015656944 -0.043852914902037674 0.077845445710083547 -0.081930324193746684 0.050878044059804728 -0.070309990228274361 -0.094959947825996052 -0.06048806655854938 -0.12678941692453194 -0.18111559164996441 -0.097895320906183692 0.11709901591346655 -0.12788703048062186 0.047141075619036965 0.04727245233082697 0.1286050685388557 -0.073961955235826563 -0.080272682222510772 0.019018481316534649 -0.081289039053288534 0.099249083961437695 0.057050123257750468 0.093871799906747988 0.044028388726350433 0.13742994515857199 -0.025106959536549112 -0.086065572498947363 -0.069789319088259569 0.13556120321327406 0.01870687951075321 -0.11916097970239758 0.048172575074625537
leaf_weight=1632.875868678093 196.67869086563587 785.46353989839554 29.188647568225861 16.571358144283295 10.087093710899351 93.040916189551353 246.45937184989452 44.061824411153793 56.127060830593109 26.968972355127335 364.18685063719749 45.763061836361885 487.80009387433529 86.812258705496788 587.05869370698929 59.645210012793541 307.78459705412388 114.31699484586716 302.92556929588318 1058.0467695146799 20.465051546692848 25.201121896505356 22.030259177088737 12.80954831838608 77.719255238771439 38.427068561315536 170.70434808731079 331.26201838254929 65.802897438406944 311.03231194615364 12.502624616026877 81.960205182433128 442.60937018692493 8.0028399378061277 1296.7639605551958 65.744433119893074 59.110635578632355 18.047808080911636 81.53399059176445 46.094202160835266 113.68883150815964 2447.2181585431099 68.980944871902466 1106.787255614996 187.28218550980091 81.569330111145973 25.312680244445801 162.80722476541996 24.194838881492615
leaf_count=7112 901 3722 129 73 44 415 1076 195 252 121 1590 213 2276 399 2589 266 1335 536 1338 4911 91 114 98 56 352 169 739 1436 309 1348 56 373 2095 36 5675 291 260 79 370 211 511 11609 302 4827 816 384 112 710 111
internal_value=0 0.109346 -0.0761197 -0.0350724 -0.0866929 -0.0888141 -0.0469211 0.0423276 0.0793795 -0.0559632 -0.0921748 -0.0530723 0.0876153 0.0164047 -0.0635758 -0.0526074 -0.0956558 0.0846352 -0.0225038 0.0927342 0.0549526 -0.0709681 -0.0112436 -0.0905144 0.0332529 -0.049143 -0.116492 -0.126843 0.0918655 -0.146749 -0.106822 0.00184311 0.109665 0.114045 -0.091261 -0.0801866 -0.0284705 0.0186288 0.0286843 0.0386579 0.0254687 0.132631 -0.0780569 -0.0972558 -0.10406 0.114147 -0.0726971 -0.0846105 -0.0346916
internal_weight=0 5744.63 8212.9 1682.21 6530.69 6434.33 1530.7 142.203 2511.95 1388.5 6167.14 504.132 2131.4 142.939 1280 1021.04 5663.01 151.508 408.665 1988.46 96.355 458.369 267.187 4542.23 380.553 131.468 1120.78 812.999 75.89 481.737 258.962 183.874 930.409 122.32 4511.37 1584.43 124.855 30.8574 108.503 105.739 135.719 3232.68 433.168 2926.95 1820.16 98.1407 612.371 1459.57 101.914
internal_count=63033 27001 36032 7492 28540 28096 6791 652 11670 6139 26903 2219 9933 651 5648 4516 24684 701 1815 9282 444 2006 1193 19826 1737 584 4858 3523 353 2087 1132 836 4371 572 19691 6936 551 135 491 477 609 15331 1892 12755 7928 457 2701 6385 463
cat_boundaries=0 1
cat_threshold=2
is_linear=0
shrinkage=0.1


Tree=2
num_leaves=50
num_cat=1
split_feature=100 100 71 47 87 74 100 12 92 31 87 100 100 56 75 100 71 31 71 77 100 75 36 48 76 73 51 89 75 20 42 67 98 76 56 80 70 73 80 100 100 92 82 73 36 20 28 63 99
split_gain=9619.61 377.306 273.276 198.546 166.592 153.964 128.841 85.8177 79.4228 71.2899 103.273 68.6134 55.9185 55.7485 52.8299 47.805 42.9324 40.6988 37.9469 46.1697 38.4228 49.1182 36.638 36.3712 35.1766 33.8049 31.1291 37.2825 30.8875 30.8571 33.4963 27.0567 26.9896 26.8212 26.4935 26.4584 26.3812 25.4396 25.0049 24.4312 24.3165 36.187 23.6965 24.0362 23.5517 23.5383 23.2686 22.7444 22.7397
threshold=2.7942337510467047e-07 1.909926936605189e-06 -3.1800000667572017 5.2799999713897714 -2.695000052452087 -0.084999999962747083 2.1123427984548473e-07 0 -2.254999995231628 31.534999847412113 2.4000000953674321 3.9764304915479448e-07 1.6612299447160697e-07 4.1549999713897714 -3.1350001096725459 6.5176645875908443e-06 -5.8250000476837149 33.539999008178718 -6.6249999999999991 -0.084999999962747083 4.0192800199179154e-09 -5.439999818801879 36.145000457763679 5.7950000762939462 -7.1050000190734854 -1.1150000095367429 5.2249999046325692 -1.1449999809265134 -7.2850000858306876 33.854999542236335 4.2950000762939462 -5.0350000858306876 2.7749999761581425 -4.4149999618530265 5.0250000953674325 -0.65500000119209278 -6.0950000286102286 -1.1150000095367429 -0.84499999880790699 2.1310497366755502e-08 1.3313809432702331e-07 -1.9149999618530271 -2.7250000238418575 -4.2799999713897696 35.614999771118171 33.905000686645515 33.870000839233406 -5.8250000476837149 2.8750000000000004
decision_type=2 2 2 2 2 2 2 1 2 2 2 2 2 10 8 2 2 2 2 10 2 8 10 2 8 2 2 2 10 8 10 2 10 10 8 8 2 2 10 2 2 2 10 2 10 8 2 8 8
left_child=2 11 5 12 25 6 9 8 23 10 14 26 36 -13 35 29 45 31 19 20 -11 38 -16 44 42 48 27 33 -12 30 -3 -7 -30 -2 -27 -1 -4 -38 -22 -9 -20 -42 -8 -44 -6 -15 -39 -26 -5
right_child=1 15 3 4 7 17 24 39 -10 18 28 13 -14 16 22 -17 -18 -19 40 -21 21 -23 -24 -25 47 34 -28 -29 32 -31 -32 -33 -34 -35 -36 -37 37 46 -40 -41 41 -43 43 -45 -46 -47 -48 -49 -50
leaf_value=-0.070392821795914814 -0.061810878919153482 -0.084205796616452222 -0.10828983924562895 -0.076631405285127727 0.12263117179062905 -0.064118423548575679 -0.1312450306996468 -0.093783143844884814 -0.0004075758177259594 -0.080916167669018976 -0.14545269293501922 -0.024594762355511241 0.02492794602184813 0.071533242304904585 -0.038209989743175875 0.13106383517781378 0.066058217934317071 -0.0718864906420566 -0.078561410044899499 0.053180790456987627 -0.11011549132812587 -0.088067392504770858 0.096866692967875923 -0.051097749820087447 -0.023504414306302453 -0.061448688405907226 0.062696136445631781 0.073583198155956528 0.10590074047721187 0.1172037648796618 0.086593908544449427 0.11084592845602755 -0.095821847503172825 0.022114282387984505 0.11930033683635331 -0.1378184778852907 -0.065265503491105534 0.084926812235572358 -0.15044010773525548 0.019328507806800264 -0.079065370507510224 -0.0011014445612844632 -0.063858175910934012 0.090171835741718401 -0.053449525949401014 0.11084025915184748 -0.04477183024220345 0.046865638137951471 -0.011654386100340718
leaf_weight=195.3566986322403 78.475441575050354 11.903546214103697 132.73512722551823 196.79582862555981 208.64040629565716 10.288139939308165 32.183187142014503 46.281679943203926 100.36845591664314 1400.8178963512182 6.4415627717971793 51.582738235592842 71.211716324090958 217.88923946022987 148.4870314002037 2407.7564495503902 869.86519634723663 20.963082119822502 2559.6136553287506 21.778728231787682 455.28105910122395 880.65436002612114 23.220494002103806 13.821166932582853 85.57519955933094 13.492360115051268 166.15120324492455 57.20939402282238 60.268193528056145 724.37823651731014 324.33041380345821 62.72419236600399 7.4528476148843756 73.97633059322834 20.326064839959145 82.893537282943726 717.47474257647991 21.826267585158348 232.20317855477333 32.507982060313225 138.04905520379543 104.67573775351048 36.942083656787872 13.95931217074394 7.8832528293132773 506.46539360284805 37.768288016319275 99.141873061656952 74.154860213398933
leaf_count=834 355 54 567 859 1015 44 139 199 440 5948 27 235 325 1059 641 12103 4153 91 10882 96 1934 3747 111 62 377 60 773 267 281 3575 1592 309 32 342 97 352 3094 100 973 143 592 453 162 64 36 2493 164 451 331
internal_value=0 0.103257 -0.0670637 -0.0312079 0.00889866 -0.0761649 -0.0779786 0.0505618 0.0716653 -0.0808586 -0.0455411 0.0689192 -0.0604092 0.0777227 -0.0635623 0.123272 0.0810333 0.0509293 -0.084054 -0.0918883 -0.0929525 -0.103705 -0.0199432 0.106181 -0.0100419 -0.047082 0.0303662 0.0047455 0.0637971 0.105583 0.0805472 0.0861918 0.0837007 -0.0210867 0.0471878 -0.0904796 -0.0670886 -0.0600508 -0.123735 -0.0418079 -0.0756929 -0.0454432 -0.0640817 -0.0216166 0.11622 0.0990165 0.00272978 0.0142648 -0.0588482
internal_weight=0 5489.98 8374.26 1695.29 714.272 6678.97 6585 409.503 330.713 6317.19 524.12 2021.61 981.016 1645.8 449.958 3468.37 1594.22 93.9754 5793.07 2990.74 2968.96 1568.14 171.708 230.345 267.802 304.769 375.812 209.661 74.1626 1060.61 336.234 73.0123 67.721 152.452 33.8184 278.25 909.804 777.069 687.484 78.7897 2802.34 242.725 83.0846 50.9014 216.524 724.355 59.5946 184.717 270.951
internal_count=63033 27001 36032 7492 3242 28540 28096 1895 1553 26903 2278 9677 4250 7940 1938 17324 7705 444 24625 12698 12602 6654 752 1113 1193 1347 1737 964 340 5221 1646 353 313 697 157 1186 3925 3358 2907 342 11927 1045 365 226 1051 3552 264 828 1190
cat_boundaries=0 1
cat_threshold=10
is_linear=0
shrinkage=0.1


Tree=3
num_leaves=50
num_cat=2
split_feature=100 100 71 90 74 34 100 73 32 8 52 69 100 13 31 80 100 67 47 80 90 74 87 55 28 35 23 80 87 42 21 78 77 25 29 95 90 73 37 50 100 59 51 94 87 25 48 55 94
split_gain=8001.01 359.828 212.47 162.749 123.054 156.721 93.5086 89.3544 82.2914 65.3732 76.2985 61.4859 53.3305 50.6645 50.1439 49.8125 48.0842 43.1012 43.0026 41.0406 40.3946 36.7492 33.8983 33.2743 31.8004 31.0319 30.2661 29.4376 29.095 28.1412 27.9539 26.4605 26.8236 25.6594 25.2115 25.1487 23.2959 22.986 21.6417 21.4857 20.4896 20.2297 20.1975 21.2036 34.5704 20.1483 19.827 19.756 19.3138
threshold=2.7942337510467047e-07 2.9321848842300828e-06 -3.1800000667572017 -3.0549999475479122 -1.2250000238418577 33.944999694824226 1.7446391353814763e-07 -0.084999999962747083 32.204999923706062 0 4.7950000762939462 -3.0099999904632564 3.9764304915479448e-07 1 33.375000000000007 -1.8949999809265134 1.0132602668022629e-07 -5.0350000858306876 4.9249999523162851 2.7749999761581425 3.7749999761581425 -0.62999999523162831 -4.0899999141693106 4.2950000762939462 33.870000839233406 35.664999008178718 34.23500061035157 3.4400000572204594 2.8549998998641972 4.4399998188018808 34.174999237060554 -3.4300000667572017 -0.084999999962747083 35.215000152587898 32.289999008178718 -1.314999997615814 4.6349999904632577 -6.7900002002716056 34.414999008178718 5.7750000953674325 8.4701696323463704e-07 5.9949998855590829 5.5850000381469735 -1.0850000381469724 -1.6699999570846555 34.694999694824226 5.7249999046325692 5.7950000762939462 -2.7899999618530269
decision_type=2 2 2 2 2 2 2 2 2 1 2 2 2 1 2 10 2 2 2 10 2 2 2 8 2 10 2 10 2 10 8 10 10 2 2 10 2 2 10 2 2 8 2 2 2 2 2 10 2
left_child=2 8 4 18 6 14 19 9 15 30 11 25 22 24 17 29 21 -6 -4 31 27 37 -10 -18 -8 -11 45 34 38 -2 -5 42 -33 -3 41 -20 -15 -12 -7 -26 47 -14 -1 -44 -45 -21 -27 -31 -16
right_child=1 33 3 7 5 28 13 -9 12 10 16 -13 20 36 48 -17 23 -19 35 26 -22 -23 -24 -25 39 46 -28 -29 -30 40 -32 32 -34 -35 -36 -37 -38 -39 -40 -41 -42 -43 43 44 -46 -47 -48 -49 -50
leaf_value=-0.077907563250338846 -0.055568890187475461 0.12448252797681686 -0.032234524320800588 -0.043057006120758051 -0.047737447034167019 -0.041839895704065468 0.029556446086354882 0.11405764879744605 -0.076402380587447707 0.0068351544447766647 -0.11689454676943134 -0.032175879944409333 0.058883544746002853 0.028950682130851835 -0.18018228394564573 0.064311039069570572 -0.25582898983566066 0.11309408274409563 0.11655646828406252 -0.11586302573465229 0.11763746801622202 0.031959087971285105 0.050123052140617068 0.025798959109602816 -0.063532014215216467 0.10460271857224793 -0.072638617117589191 0.11155560880575129 0.064276439604721888 -0.00012250403471212063 -0.086682404456246503 -0.058939186709320406 0.052681144986002848 0.091921898183901132 0.088798836298899841 -0.065811122624374857 -0.09413521360176122 -0.056527709048973807 -0.087219768246386803 -0.19024136154994464 0.051272758388859807 -0.065631772987139347 -0.066713173562130551 -0.04138386672513162 0.11488878911478868 -0.080981204702532658 -0.051856227465839823 -0.21557537076259822 -0.0012532313927210599
leaf_weight=2923.0820805430412 58.223274141550064 2611.9784087836742 29.636855602264404 259.92979553341866 19.823040023446083 216.13540379703045 35.836591467261314 38.121879905462265 23.063789129257202 77.230610579252243 76.049764022231102 150.19022230803967 496.81262236833572 156.9050217717886 6.6644989997148505 311.27805837988853 4.3682679384946814 104.51817797124386 103.6414455473423 485.10728304088116 337.42780803143978 41.13364465534687 258.55907659232616 105.92096194624901 179.5832337886095 92.714662492275238 531.12533304095268 215.31431843340397 18.486143097281456 104.44211968779564 337.71576726436615 1033.9674572348595 21.987148940563202 266.74198174476624 415.24970427155495 8.1568316221237165 17.047301292419434 369.75168941915035 204.54734800755978 14.459910988807676 117.81512887775898 13.399925723671911 399.5252940505743 87.459641993045807 16.88964506983757 251.41229900717735 8.874737620353697 4.4367187172174445 63.627344205975533
leaf_count=12201 265 13935 129 1106 86 917 160 195 102 353 321 644 2454 703 28 1545 19 526 536 2004 1736 177 1229 473 769 456 2201 1094 88 503 1432 4334 98 1396 2074 36 74 1575 862 60 586 61 1673 366 77 1043 40 21 270
internal_value=0 0.0977468 -0.0594367 -0.02786 -0.0673606 -0.0254053 -0.0716813 -0.0371611 0.068766 -0.040944 -0.0234214 0.0149946 0.079644 -0.0251669 0.0492903 0.0366569 -0.0449769 0.0874536 0.0748608 -0.0749478 0.0872423 -0.0584809 0.0397611 0.0146444 -0.0546147 0.0546129 -0.0908345 0.0782518 -0.0585092 0.00644419 -0.0665944 -0.0704555 -0.056615 0.121465 0.0705035 0.103251 0.0159702 -0.0668258 -0.0639048 -0.0729743 0.0223714 0.0556133 -0.0747202 -0.0562294 -0.0160901 -0.103956 0.0909346 -0.00890202 -0.0182178
internal_weight=0 5234.74 8491.63 1703.44 6788.19 633.802 6154.39 1562 2356.02 1523.88 926.235 329.01 1759.83 403.832 194.633 596.195 597.224 124.341 141.435 5750.56 1478.2 486.935 281.623 110.289 229.88 178.82 1267.64 1140.78 439.169 284.917 597.646 4482.91 1055.95 2878.72 925.462 111.798 173.952 445.801 420.683 194.043 226.694 510.213 3426.96 503.875 104.349 736.52 101.589 108.879 70.2918
internal_count=63033 27001 36032 7492 28540 2777 25763 6791 11670 6596 4058 1493 8750 1766 910 2920 2565 612 701 23997 7419 2073 1331 492 989 849 5248 5683 1867 1375 2538 18749 4432 15331 4589 572 777 1896 1779 829 1110 2515 14317 2116 443 3047 496 524 298
cat_boundaries=0 1 2
cat_threshold=16 16
is_linear=0
shrinkage=0.1


Tree=4
num_leaves=50
num_cat=3
split_feature=100 100 100 74 34 49 13 32 71 91 50 76 80 68 47 18 96 76 71 80 100 91 75 25 25 48 100 71 33 96 71 58 52 16 86 47 22 42 77 89 40 55 100 58 90 39 40 93 61
split_gain=6696.17 289.945 195.315 147.782 166.557 94.0446 92.4726 71.5128 68.507 80.315 74.326 68.3133 48.9116 47.2416 45.8147 33.7788 32.9038 32.8756 29.9493 28.4794 28.0817 26.4523 26.3773 25.5167 25.3199 25.316 24.86 27.1008 24.5565 23.5544 23.3181 23.0743 22.4863 21.8682 20.8954 20.7197 19.7848 19.5074 19.9305 26.9587 20.3857 20.8327 19.4897 19.9046 19.3592 19.2315 19.2286 19.0531 20.6671
threshold=3.2396383176092064e-07 2.9321848842300828e-06 1.7446391353814763e-07 -2.3900001049041744 33.944999694824226 5.0150001049041757 0 31.48499965667725 -2.9300000667572017 -1.7549999952316282 5.5150001049041757 -3.4999999999999996 2.7749999761581425 -6.3400001525878897 5.0650000572204599 1 -2.4750000238418575 -3.4999999999999996 -1.9850000143051145 2.7749999761581425 8.4701696323463704e-07 -2.7150000333786006 -2.3900001049041744 35.710000991821296 35.215000152587898 4.7449998855590829 8.2533602174805781e-09 -5.879999876022338 33.844999313354499 -2.8649998903274532 -6.9900000095367423 4.6250000000000009 4.7550001144409189 2 3.0000000000000004 5.0650000572204599 37.500000000000007 5.7349998950958261 -0.084999999962747083 -2.1249999999999996 4.7449998855590829 4.6349999904632577 5.972444583335347e-08 4.805000066757203 3.7749999761581425 33.805000305175788 5.4149999618530282 3.9650000333786015 -4.3599998950958243
decision_type=2 2 2 2 2 2 1 2 2 2 2 8 10 2 2 9 8 10 2 10 2 2 10 2 2 2 2 2 2 8 2 10 2 1 2 2 10 10 10 2 8 8 2 8 2 8 8 2 10
left_child=2 7 3 8 5 33 36 15 19 47 17 13 20 30 28 -2 45 -11 22 37 29 -16 -18 26 -3 -15 -21 -28 31 46 -8 -7 -19 34 -5 -12 -4 38 40 -40 -1 -42 -35 -44 -13 -6 -9 48 -10
right_child=1 24 6 4 16 14 11 12 9 10 35 44 -14 25 21 -17 18 32 -20 23 -22 -23 -24 -25 -26 -27 27 -29 -30 -31 -32 -33 -34 42 -36 -37 -38 -39 39 -41 41 -43 43 -45 -46 -47 -48 -49 -50
leaf_value=-0.073146785472741435 0.058067269628269018 0.11998744899052208 0.058839536855014786 0.028956962388722942 -0.045946184523966115 -0.091329298621619703 -0.14393440639856425 0.033049688925163391 -0.067493611522922478 -0.051401039473009058 -0.036415771444934221 0.030862496232475868 0.10346518764853735 -0.057686512156941941 -0.08062328024346542 0.00060179273601265195 -0.029398485481905736 0.056364484424018604 0.019735807110464982 -0.07283714096908521 0.080255273478443356 0.09289915809037326 -0.072563740623470804 -0.056021534763504577 0.086857873957905937 0.03168294896669923 -0.12578637415507929 -0.074799539591444072 -0.074677424934554523 0.059315135411492984 -0.064550611395239862 0.042223288381934385 -0.045331092557715127 -0.068411994613855359 -0.071042014856546584 0.11427619416369893 -0.078619591778549644 -0.093377924401717424 -0.11421472260053918 0.10027555944258126 -0.078516312865782756 -0.054009881067524079 -0.10900269863960753 0.041123120814925772 -0.048978251307165238 -0.089833805295368108 -0.063916726550678801 -0.10415890893219069 -0.024981603015648949
leaf_weight=1278.7378399223089 199.53340870141983 2447.3567693084478 215.2894974052906 93.200379878282547 150.8322399109602 14.568384036421774 60.599827364087105 75.262364149093628 331.32234433293343 160.26162721216679 10.735330790281294 172.6462492197752 482.19992662966251 63.724649533629417 9.2929474711418134 210.68016988039017 338.21669916808605 64.791922956705093 74.850200831890106 427.85039685666561 646.91074797511101 160.79229620099068 243.4803322404623 295.06628753244877 254.6992200165987 63.066378146409988 277.17849171161652 167.09077459573746 28.875162422657013 481.7482867538929 95.024898827075958 115.50393915176392 32.724249452352524 149.15867622196674 26.934603154659271 60.805103868246078 11.006213635206221 211.31548084318638 9.0009417086839694 16.791316285729408 410.04263128340244 2252.0813716202974 11.653204053640364 36.475337132811546 36.851943731307983 295.3701030164957 28.080781027674675 84.341632708907127 174.62809745967388
leaf_count=5276 1004 13935 1005 409 631 63 257 380 1397 681 46 781 2578 278 39 1034 1410 298 340 1751 3350 825 1012 1209 1396 282 1122 685 121 2446 414 532 139 623 113 332 48 872 38 77 1690 9299 49 154 161 1232 133 348 738
internal_value=0 0.0951318 -0.0516409 -0.0561181 -0.0304189 0.0098834 -0.00168288 0.0674897 -0.0632936 -0.0380824 0.00148356 -0.0259225 0.076465 -0.0585457 0.0473459 0.029984 -0.054045 -0.0235438 -0.0398047 -0.0676311 0.0658972 0.0834184 -0.0474661 -0.0814412 0.116865 -0.0132338 -0.0900415 -0.10661 0.00874574 0.0500221 -0.0954624 0.0272651 0.0222377 -0.0289494 0.00603459 0.0916634 0.0499469 -0.063773 -0.0621959 0.0254231 -0.0627693 -0.0577846 -0.0481192 0.00477365 0.016818 -0.0749982 0.00670162 -0.0601559 -0.0528207
internal_weight=0 4826.47 8732.18 8013.97 1749.2 646.455 718.21 2124.42 6264.77 919.61 329.318 491.914 1714.2 282.416 329.033 410.214 1102.75 257.778 656.547 5345.16 1232 170.085 581.697 1167.19 2702.06 126.791 872.12 444.269 158.947 585.091 155.625 130.072 97.5162 317.422 120.135 71.5404 226.296 4177.97 3966.65 25.7923 3940.86 2662.12 197.287 48.1285 209.498 446.202 103.343 590.292 505.95
internal_count=63033 26256 36777 33551 7553 2928 3226 10925 25998 3979 1496 2173 8887 1231 1580 2038 4625 1118 2762 22019 6309 864 2422 4767 15331 560 3558 1807 716 2959 671 595 437 1348 522 378 1053 17252 16380 115 16265 10989 826 203 942 1863 513 2483 2135
cat_boundaries=0 1 2 3
cat_threshold=12 10 24
is_linear=0
shrinkage=0.1


Tree=5
num_leaves=50
num_cat=2
split_feature=100 100 100 74 34 49 76 71 52 53 76 42 86 31 47 90 86 80 13 28 87 71 96 99 54 86 37 32 23 100 37 77 89 58 49 100 33 69 61 64 94 72 71 42 16 89 25 69 77
split_gain=5622.61 238.984 220.195 118.842 134.054 76.7303 74.594 72.0683 58.859 111.641 63.1987 50.6845 46.4847 44.5237 39.5785 37.4914 36.6383 34.4015 32.4023 28.7581 28.1167 29.6709 28.1919 27.9316 26.1383 25.5153 24.8322 24.2173 23.7103 23.5218 22.6584 22.5099 22.1693 20.8116 20.6989 20.2559 20.0962 18.9709 18.6575 27.3428 21.1636 18.6455 18.6418 18.2185 18.0341 18.0305 17.7193 17.5195 17.4966
threshold=3.7889707016347534e-07 3.8856464925629561e-06 1.8320158545748202e-07 -2.3900001049041744 33.944999694824226 5.0150001049041757 -3.7350000143051143 -5.4949998855590811 4.7750000953674325 5.5250000953674325 -3.6550000905990596 4.305000066757203 4.0950000286102304 31.48499965667725 5.2650001049041757 3.7749999761581425 2.6049998998641972 -1.1050000190734861 0 33.93499946594239 2.6149998903274541 -6.5350000858306876 -2.445000052452087 -3.7250000238418575 4.8849999904632577 1.0000000180025095e-35 35.104999542236335 33.944999694824226 34.125000000000007 1.0121241178495667e-08 36.395000457763679 -0.084999999962747083 2.5049999952316289 4.5750000476837167 5.0850000381469735 8.8914873686007933e-07 33.844999313354499 -3.0849999189376827 -6.1099998950958243 -3.4350000619888301 -0.62499999999999989 -8.1249999999999982 -7.4200000762939444 3.5050001144409184 1 3.839999914169312 35.045000076293952 -1.3849999904632566 -4.5750000476837149
decision_type=2 2 2 2 2 2 8 2 2 2 8 8 2 2 2 2 2 10 1 2 2 2 8 8 2 2 10 2 2 2 8 10 2 8 2 2 2 2 8 2 2 2 2 10 1 2 2 2 8
left_child=2 7 3 8 5 44 12 17 9 13 30 37 18 16 33 23 -1 27 -4 -20 21 -6 -23 -10 34 -12 -22 -2 -8 43 -11 38 -24 -7 -16 -13 -35 -9 -25 -40 41 -41 -21 -17 -5 -34 -3 -33 -43
right_child=1 46 6 4 20 14 28 11 15 10 25 35 -14 -15 24 29 -18 -19 19 42 26 22 32 31 -26 -27 -28 -29 -30 -31 -32 47 45 36 -36 -37 -38 -39 39 40 -42 48 -44 -45 -46 -47 -48 -49 -50
leaf_value=0.076930482776479667 0.047945252764360929 0.11768415002814091 0.028044879290496028 0.006279566404604477 -0.074585986997087503 -0.09327920388065758 0.055712003227010136 0.10767517506288884 -0.082082347397278377 -0.056148250536195002 0.013750557502211156 0.040631981685525266 -0.16887623276026378 -0.053712062512794881 -0.087022394097491046 0.063598088038526554 -0.14380616141598368 0.10968563825231786 0.027407303653358195 -0.086302786253341049 0.058038721421203712 -0.06393754990764576 -0.034667550818464898 -0.061895445997332148 -0.085641437370981593 0.11229704114926585 -0.11416955728004417 0.090916588136033302 0.0044163818358879513 -0.095784002282050321 0.066131038696624025 0.077457871768306374 0.056201683641733828 0.038672946520437824 0.097822475747237389 0.068666994531207337 -0.057922053608198847 -0.042127806396661617 -0.056473347498851481 -0.081875846933444241 -0.08070188268086001 -0.032393563554289288 -0.028138842672788884 -0.067744492278343074 -0.042489970750473734 -0.039478545987876312 0.087162106362539002 -0.12458537400438706 0.0087006332046929199
leaf_weight=44.328016862273216 237.98786392807961 2110.7308288514614 111.98113396763802 121.14658656716347 363.86608903110027 17.514876618981361 241.77562834322453 9.5817243456840497 401.93889074027538 76.65552394092083 40.345301896333694 431.78113357722759 21.090606421232224 1288.1878989934921 6.3296209424734107 10.762602359056471 9.0555669963359815 430.22129343450069 59.475613787770271 89.533881604671478 41.922351807355881 281.81366518139839 337.58485761284828 1791.6671104729176 9.0007924139499647 75.329037845134735 10.463438779115675 292.14549075067043 143.6496637314558 451.70888148248196 18.887787893414497 21.457325965166095 55.437264889478683 124.09932662546635 141.19418354332447 639.31277279555798 26.060992449522018 71.807402148842812 1029.9540457874537 45.416627779603004 68.037304192781448 237.09030301868916 143.29432505369186 563.52856948971748 201.01727882027626 30.548206731677055 209.04079182446003 5.3647411763668051 184.02648013830185
leaf_count=192 1273 12884 533 528 1487 74 1146 48 1639 332 175 2232 89 5298 27 44 37 2492 275 382 188 1162 1396 7312 40 407 45 1606 667 1835 88 98 255 577 766 3439 108 333 4214 185 278 972 630 2296 835 130 1205 22 757
internal_value=0 0.092774 -0.0449654 -0.0499203 -0.0269848 0.00928848 0.00472911 0.0684439 -0.0562923 -0.0393642 0.0282126 0.0515847 -0.024143 -0.0500035 0.0436345 -0.0617561 0.0394865 0.0886759 -0.0165926 -0.0335063 -0.047888 -0.0513924 -0.0394282 -0.05716 0.0797977 0.0779257 0.0236422 0.0716259 0.0365939 -0.0787115 -0.0319751 -0.0541989 -0.0231215 0.00987628 0.0898916 0.0573655 0.0219085 -0.0244919 -0.0549281 -0.0469493 -0.0285992 -0.0210008 -0.0505057 -0.065283 -0.0252746 0.0222092 0.114934 0.0370468 -0.0144356
internal_weight=0 4432.61 8942.54 8131.74 1768 646.364 810.801 2112.84 6363.74 1552.79 211.218 1152.48 425.376 1341.57 324.2 4810.95 53.3836 960.355 404.285 292.304 1121.64 1069.25 705.384 3784.95 156.525 115.674 52.3858 530.133 385.425 1026 95.5433 3383.01 423.57 167.675 147.524 1071.09 150.16 81.3891 3356.19 1564.52 534.571 466.533 232.828 574.291 322.164 85.9855 2319.77 26.8221 421.117
internal_count=63033 25512 37521 33799 7618 2955 3722 11423 26181 6529 1002 6052 1909 5527 1592 19652 229 5371 1820 1287 4663 4430 2943 15477 833 582 233 2879 1813 4175 420 13838 1781 759 793 5671 685 381 13718 6406 2192 1914 1012 2340 1363 385 14089 120 1729
cat_boundaries=0 1 2
cat_threshold=12 24
is_linear=0
shrinkage=0.1


Tree=6
num_leaves=50
num_cat=4
split_feature=100 100 100 71 47 87 71 31 87 76 31 92 42 16 87 80 36 27 93 18 36 36 42 48 22 32 30 30 25 97 17 73 13 23 76 90 38 100 83 20 100 93 20 100 56 73 25 81 37
split_gain=4737.63 234.091 176.53 95.498 95.6042 84.939 66.3949 65.5693 90.0434 60.8066 52.1882 55.79 42.978 41.5346 38.2674 33.0787 31.8964 31.4712 31.729 27.9081 31.158 25.127 24.1941 24.0346 23.0694 22.7419 22.6391 22.2309 21.8008 21.1346 20.9944 22.9091 20.2352 20.0001 19.3629 19.1848 22.2144 18.9869 18.6375 18.3031 17.9185 17.7444 17.7307 19.7362 17.0092 16.9474 16.9065 16.6618 15.8754
threshold=3.7889707016347534e-07 3.8856464925629561e-06 1.8320158545748202e-07 -3.1800000667572017 5.2799999713897714 -2.695000052452087 -5.879999876022338 31.48499965667725 2.4000000953674321 -3.7350000143051143 37.260000228881843 -2.254999995231628 4.3399999141693124 0 -3.1150000095367427 -1.1050000190734861 35.664999008178718 33.604999542236335 -2.3049999475479122 1 34.764999389648445 34.524999618530281 4.9749999046325692 5.555000066757203 31.775000572204593 33.944999694824226 34.23500061035157 33.875000000000007 35.100000381469734 -2.8649998903274532 2 -2.1650000810623165 3 34.125000000000007 -3.4050000905990596 4.1099998950958261 31.105000495910648 2.7688877707987561e-05 -2.8349999189376827 31.464999198913578 1.7441040611743123e-08 2.7649999856948857 33.905000686645515 2.5821167426443029e-08 4.3849999904632577 -6.0600001811981192 35.534999847412116 4.2850000858306894 35.405000686645515
decision_type=2 2 2 2 2 2 2 2 2 8 2 2 8 1 2 10 10 2 2 9 10 10 10 2 10 2 2 2 2 10 9 2 1 2 10 2 8 2 2 8 2 2 10 2 8 2 2 8 8
left_child=2 6 3 7 40 21 15 8 13 14 11 16 26 17 -4 25 23 18 29 -10 -21 30 35 -7 42 39 -8 -16 -14 -1 -6 34 -29 -11 47 36 -9 38 -3 -2 -5 -26 -24 -44 -13 -42 -15 -32 -43
right_child=1 37 9 4 5 10 12 22 19 33 -12 44 28 46 27 -17 -18 -19 -20 20 -22 -23 24 -25 41 -27 -28 32 -30 -31 31 -33 -34 -35 -36 -37 -38 -39 -40 -41 45 48 43 -45 -46 -47 -48 -49 -50
leaf_value=-0.067470943480702705 -0.030786113037582236 0.05067112023631451 -0.092659552389347533 -0.054759594280488079 -0.047559973920367406 0.10607406262359005 0.031278581085372646 0.037179245703123337 0.096772959118454682 0.05130949138609741 -0.08813007247173138 -0.1638219857483284 0.062749861999509771 -0.066704485434222666 0.039797374942159777 0.10603978416463807 -0.081163917049892828 -0.078889370935742803 -0.056077052491417728 -0.16473070490063912 0.061741262097651239 -0.074550297707924804 -0.052028119450648551 -0.016180577795954623 -0.047839487272099468 0.086819855352251799 -0.064177837358818546 0.020871163841870401 0.030003273659724296 0.11374550262592885 -0.056494125202865834 0.10290205303733041 -0.036837483531280933 0.0039813180653139003 0.061388946104833864 -0.065204592076951215 -0.045086100659813083 0.12056928249278145 0.10523068373456684 0.054709937218003372 -0.053295529860703017 -0.073382066058568063 -0.074626617508474241 -0.12493562212236833 0.0084722061673877073 -0.011519415451383411 -0.021259519793995194 0.11623003579178955 -0.043499069333574308
leaf_weight=7.3651734590530387 28.690848305821419 66.763697564601898 64.289846196770668 550.17442624270916 82.782541647553444 167.61316786706448 51.594748303294182 33.221125319600105 69.195564463734627 236.55057707428932 29.52358403801918 5.9999279081821433 768.41684141755104 244.69806914031506 74.371584936976433 396.2083752155304 10.96736693382263 23.150712177157402 19.635134026408195 10.741940990090372 13.982494086027144 98.104378804564476 160.12458170950413 17.787216156721115 1241.2344786822796 270.92274115979671 47.922955721616745 79.181110247969627 276.43980965018272 50.999741032719612 53.888843789696693 24.476029574871063 208.87883450090885 143.42492927610874 28.576762467622757 509.81349174678326 2751.1652849465609 1091.2114000916481 1006.4417000561953 196.77386005222797 155.56536853313446 717.4811674952507 221.29036016762257 120.40646278858185 127.28509315848351 258.41045494377613 123.01593074202538 6.2306304574012747 236.33663532137871
leaf_count=36 155 428 272 2269 346 954 262 135 364 1146 120 25 4212 996 352 2446 49 97 80 48 71 410 649 83 5040 1564 209 378 1494 267 230 123 907 667 133 2061 11175 7155 6506 1081 644 2900 894 486 547 1082 503 27 955
internal_value=0 0.0883818 -0.0402779 -0.0446838 -0.022922 0.00661517 0.06405 -0.0500543 -0.0174193 0.00435034 0.0392426 0.05065 0.0481052 -0.0353217 -0.0215572 0.0844924 0.0845426 0.021382 0.0538843 0.0719523 -0.0260978 -0.0332373 -0.0531199 0.094345 -0.0601433 0.0672936 -0.0146887 -0.00894469 0.054086 0.0908775 -0.012554 0.0158535 -0.021529 0.0334451 -0.00638042 -0.04737 -0.0441046 0.111281 0.101837 0.0438304 -0.0429342 -0.0557211 -0.0794868 -0.0923544 0.00071625 -0.0272182 -0.0501377 -0.0385934 -0.0659777
internal_weight=0 4201.39 8977.94 8171.24 1617.39 653.236 2036.97 6553.86 562.785 806.697 359.176 329.653 1144.37 468.865 426.721 892.596 196.368 101.151 78 93.92 24.7244 294.059 5991.07 185.4 2696.87 496.387 99.5177 362.432 1044.86 58.3649 195.955 113.172 288.06 379.976 88.6962 3294.2 2784.39 2164.42 1073.21 225.465 964.15 2195.05 501.821 341.697 133.285 413.976 367.714 60.1195 953.818
internal_count=63033 25512 37521 33799 7042 3047 11423 26757 2462 3722 1778 1658 6177 1979 1909 5246 1086 480 383 483 119 1269 24295 1037 10924 2800 471 1637 5706 303 859 513 1285 1813 390 13371 11310 14089 6934 1236 3995 8895 2029 1380 572 1726 1499 257 3855
cat_boundaries=0 1 2 3 4
cat_threshold=8 10 20 12
is_linear=0
shrinkage=0.1


Tree=7
num_leaves=50
num_cat=0
split_feature=100 100 100 74 34 80 49 59 30 28 23 32 36 96 30 74 90 85 90 73 80 20 100 77 87 31 92 29 62 76 25 100 71 71 67 93 89 75 21 96 41 100 85 91 100 51 42 96 29
split_gain=4002.94 217.422 159.972 88.5157 99.3554 64.008 57.0957 50.0878 43.2141 42.5115 39.1332 37.8272 34.1262 48.8628 32.7844 36.9918 32.0316 31.6057 25.7706 24.0556 23.5655 25.2618 24.1885 22.9906 22.9723 22.8069 22.1097 19.7082 21.6026 19.6175 19.5017 19.0829 18.8194 18.7049 17.9573 17.6363 20.9369 23.4569 19.5547 20.3924 18.0129 17.4628 17.4595 17.4111 23.6773 17.0324 16.9599 16.6676 16.6158
threshold=3.9764304915479448e-07 3.8856464925629561e-06 2.1123427984548473e-07 -2.3900001049041744 33.944999694824226 3.3449999094009404 5.0150001049041757 5.9749999046325692 33.514999389648445 36.805000305175788 34.155000686645515 32.204999923706062 34.164999008178718 -0.31000000238418574 31.185000419616703 -1.2549999952316282 3.7749999761581425 -0.95499998331069935 5.120000123977662 -7.9549999237060538 3.0049999952316289 33.905000686645515 1.2013243733122183e-09 -8.4749999046325666 2.6149998903274541 32.960000991821296 -2.6850000619888301 32.429998397827156 -0.28999999910593027 -4.1349999904632559 35.045000076293952 1.166378460482065e-07 -10.179999828338621 -6.0850000381469718 -5.0350000858306876 2.7649999856948857 -2.4550000429153438 -2.4999999999999996 33.350000381469734 4.1749999523162851 4.6649999618530282 7.3159242219844611e-07 -2.254999995231628 3.304999947547913 1.289653051017581e-09 5.1949999332427987 4.3399999141693124 -2.4250000715255733 33.239999771118171
decision_type=2 2 2 2 2 10 2 8 2 2 2 2 10 8 2 2 2 2 2 2 10 10 2 8 2 2 2 2 10 8 2 2 2 2 2 2 2 8 8 10 10 2 2 2 2 2 8 10 2
left_child=2 5 3 8 6 7 47 11 9 12 17 41 13 48 -8 -16 27 32 23 -15 35 -22 -23 -6 31 34 -21 28 -13 -12 -3 -25 -4 -24 -17 38 -37 -38 39 -10 -39 -2 45 -14 -45 -34 -43 -5 -1
right_child=1 30 10 4 18 -7 14 -9 20 -11 29 16 43 19 15 25 -18 -19 -20 26 21 22 33 24 -26 -27 -28 -29 -30 -31 -32 -33 42 -35 -36 36 37 40 -40 -41 -42 46 -44 44 -46 -47 -48 -49 -50
leaf_value=0.039241737756298758 -0.0050320869315168826 0.11107249643890614 -0.026992503354647132 -0.054502897451270162 -0.060448156132401981 0.095598576805698429 0.091207834132546628 -0.055991171604091131 -0.012152419669236565 0.074675772499990065 -0.049183154878999102 0.047047486234803711 -0.04083358442010912 -0.07097495342357972 -0.021467153045629288 -0.086138897546568574 0.099955579319993465 -0.043412045603046866 -0.1127334525670592 0.10592444897942324 -0.011593342404011478 -0.04282865313919243 -0.093861513368885138 -0.035932065696621815 0.045293054987660168 -0.00099378857279677486 0.01822224516266047 0.074116756018528324 -0.071177219941841938 0.0074200203261220003 0.07714491203586013 0.01238025227538295 -0.047504759999845589 -0.059685047137307934 0.10512680513522246 -0.040255231656649883 -0.068215927085736677 -0.077175967853474525 -0.044368869073000528 -0.084746975078820438 -0.0069387276866378807 -0.039943392400150109 0.057385343433785957 -0.027262309441124278 -0.11829288322784232 0.051212075812931593 0.049236468412262958 -0.0041136306760729694 -0.034486940973350505
leaf_weight=32.505134835839272 115.78471465408802 1829.5058349221945 39.275874778628349 90.06415094435215 263.80390186607838 416.01208706200123 93.628561556339264 42.309521019458771 356.98828603327274 38.022518068552017 124.39921215176582 508.36870892345905 583.44214534759521 18.155155539512634 107.80740755796432 5.2728371620178214 201.35105550289154 53.529600411653519 43.945483431220055 47.17413891851902 87.085403680801392 270.28531430661678 355.13313077390194 715.465561196208 42.176057130098343 40.395992085337639 73.580277130007744 349.20765171945095 15.940356522798536 120.5792585760355 186.7107776850462 92.305564358830452 35.258355528116226 291.65690699219704 71.083370998501778 744.0318244099617 933.83900040388107 52.309591099619865 1872.8159980922937 43.399776384234428 120.91119888424873 23.364805802702904 275.47921353578568 46.947231411933899 73.00621186196804 34.65889747440815 244.27547378838062 242.1056521832943 512.55664832890034
leaf_count=134 612 12884 178 371 1072 2623 548 200 1454 222 555 2867 2417 74 460 23 1255 247 178 246 351 1089 1426 2941 194 176 306 2035 91 571 1205 390 161 1177 421 3001 3766 211 7594 176 488 111 1345 189 294 169 1381 1028 2126
internal_value=0 0.0850063 -0.03584 -0.0396413 -0.0200528 0.0608906 0.0112232 0.0512685 -0.0450453 -0.0296428 0.0106866 0.0543804 -0.0325018 -0.0165969 0.0414967 0.02077 0.0639997 0.0285816 -0.0376227 0.0363483 -0.0493262 -0.0630641 -0.0679517 -0.0346591 -0.0266547 0.0597713 0.0524841 0.0557116 0.0434531 -0.0213229 0.107931 -0.0304113 0.0385999 -0.0784503 0.0919188 -0.0459814 -0.053228 -0.0619467 -0.0400804 -0.0200213 -0.0281491 0.0274144 0.0460586 -0.0479674 -0.0826654 0.00143047 0.0414511 -0.0177761 -0.0300901
internal_weight=0 3932.83 9045.08 8361.9 1808.05 1916.61 650.358 1500.6 6553.85 1425.39 683.18 1458.29 1387.37 683.971 318.188 224.56 1074.87 438.202 1157.7 138.91 5128.46 1004.16 917.075 1113.75 849.947 116.752 120.754 873.517 524.309 244.978 2016.22 807.771 384.672 646.79 76.3562 4124.3 1851.09 1107.06 2273.2 400.388 173.221 383.425 345.396 703.396 119.953 69.9173 267.64 332.17 545.062
internal_count=63033 25264 37769 34543 7802 11175 3027 8552 26741 6008 3226 8352 5786 2886 1628 1080 6248 2100 4775 626 20733 4043 3692 4597 3525 620 552 4993 2958 1126 14089 3331 1853 2603 444 16690 7466 4465 9224 1630 699 2104 1675 2900 483 330 1492 1399 2260
is_linear=0
shrinkage=0.1


Tree=8
num_leaves=50
num_cat=4
split_feature=100 100 100 74 34 13 18 10 49 32 52 53 46 80 31 47 86 16 90 22 80 79 89 77 64 100 80 71 77 62 22 25 61 56 96 75 83 83 91 100 38 59 89 34 84 95 71 59 82
split_gain=3385.66 213.42 129.836 62.8232 75.276 60.625 60.3765 46.8755 46.406 44.5788 36.5119 66.7525 44.3806 30.9868 29.963 29.1855 28.578 26.7283 23.5156 22.598 22.4236 22.3593 22.2856 21.3875 24.0872 21.0086 21.1944 20.9116 20.5455 20.4858 20.3467 19.6064 19.5324 18.6953 18.5642 19.9971 18.4736 17.8727 17.8185 17.7751 17.7666 17.4508 17.0718 16.9758 16.3679 16.2489 16.1458 16.1442 16.0952
threshold=3.9764304915479448e-07 3.8856464925629561e-06 1.7446391353814763e-07 -2.3900001049041744 33.944999694824226 0 1 2 5.0150001049041757 31.375000000000004 4.7850000858306894 5.5250000953674325 5.0350000858306894 2.7500000000000004 31.48499965667725 5.0650000572204599 2.6049998998641972 3 3.7749999761581425 31.154999732971195 -2.3349999189376827 -7.0350000858306876 -3.0249999761581416 -5.9849998950958243 -4.5750000476837149 2.7688877707987561e-05 2.2999999523162846 -6.5050001144409171 -2.5299999713897701 -11.735000133514403 31.48499965667725 34.764999389648445 -0.62999999523162831 4.6649999618530282 -2.4750000238418575 -2.5499999523162837 -3.4250000715255733 -2.8349999189376827 -2.7150000333786006 1.1741065897297178e-08 36.204999923706062 5.805000066757203 -1.2450000047683714 36.254999160766609 -0.76999998092651356 -2.2749999761581416 -6.5350000858306876 5.3949999809265146 3.8249999284744267
decision_type=2 2 2 2 2 1 9 1 2 2 2 2 2 10 2 2 2 1 2 8 8 8 2 8 2 2 8 2 8 8 8 2 8 10 8 10 2 2 2 2 8 10 2 2 2 10 2 10 8
left_child=2 6 3 10 8 42 13 17 -5 -8 11 14 28 36 16 -10 -1 41 21 -11 22 -12 -21 -23 29 26 27 -3 48 -25 -9 -22 -26 -14 44 40 -2 -29 -17 -20 -36 -7 -4 -38 -6 -46 -37 -42 -13
right_child=1 25 5 4 34 7 9 30 15 19 18 12 33 -15 -16 38 -18 -19 39 20 31 23 -24 24 32 -27 -28 37 -30 -31 -32 -33 -34 -35 35 46 43 -39 -40 -41 47 -43 -44 -45 45 -47 -48 -49 -50
leaf_value=0.072635040641383222 -0.0071670578087157004 0.10428915223735807 0.03085930725747521 -0.017904329120203309 -0.057080233707970732 -0.0029503094603987937 -0.0066407649674687253 -0.049290829570805418 0.0063255965603396776 -0.057997418749568624 -0.050400746396658494 -0.058361038086535644 -0.072130106500037747 0.10043012421662095 -0.038419557719618955 -0.064229759432178443 -0.11921318535343045 -0.060235292666483656 -0.047473411213576309 -0.03491870008931075 0.076996947887230383 -0.044757868717037665 0.042585359813245696 0.047407509368133767 -0.01237209555015932 0.11540597618472892 0.11215589446786894 -0.01317286030837648 0.074248095106515241 -0.042385814329238443 0.039989533642327428 0.026803172117686139 0.096066363647365247 0.085002555070147673 -0.016941020404694983 -0.074359277970299772 0.071515642355656425 0.072098695569460677 0.077756433473978037 -0.074124713911132345 0.017549140280803645 -0.11846662124750491 0.092563466535439953 0.014991865392190272 -0.060426991006534342 0.052050510778701022 -0.026602103481467767 0.15427906386400758 0.089454798886529976
leaf_weight=43.440726608037949 36.001318827271461 233.9775705486536 218.97964492440224 321.91572508215904 406.63757018744946 230.48570337891579 188.43678912520409 29.968626692891121 154.16204835474491 19.340708181262016 1610.3130761086941 72.296774432063103 8.2337169498205167 315.63379269838333 1313.7016010582447 9.4462237954139692 9.4544274508953077 184.3800586014986 606.02161538600922 47.739742010831833 324.55304148793221 1094.2910286486149 166.46631540358067 26.583431959152222 475.01385574042797 937.99718447029591 387.45330953598022 26.86129979789257 18.237931028008461 574.48331195116043 172.18618801236153 102.36697460711002 17.212636426091194 94.186108499765396 294.0233801305294 104.71361269056797 590.25605337321758 289.41318419575691 137.38664056360722 426.27643817663193 40.328334823250771 13.864262998104094 56.383479356765747 58.389493599534035 22.974916249513626 29.126470476388931 218.52801594138145 10.988511011004446 8.2021197080612165
leaf_count=193 202 1733 1074 1348 1650 1050 1004 139 716 114 6477 301 36 2108 5323 39 38 786 2433 254 2029 4403 979 107 1923 7155 2881 189 77 2320 815 614 75 545 1224 423 3526 2131 825 1711 166 61 293 345 93 120 903 46 36
internal_value=0 0.0810577 -0.0322055 -0.036199 -0.0194109 0.00370106 0.0569502 -0.0134541 0.00848829 0.0358391 -0.0407916 -0.0275317 0.0262517 0.0737706 -0.0354484 0.0367153 0.0383443 -0.0319809 -0.0450954 0.0485015 0.0517143 -0.0414577 0.0253122 -0.0348746 -0.0249824 0.104824 0.0942396 0.081624 -0.0215873 -0.0384145 0.025493 0.0649615 -0.00858012 0.0723704 -0.0348268 -0.0241971 0.0625576 0.0648566 0.068622 -0.0584788 -0.00746519 -0.00913095 0.0419697 0.0664275 -0.0503189 0.00245181 -0.042073 0.0468272 -0.0432999
internal_weight=0 3724.89 9054.43 8148.18 1750.23 906.248 1849.18 630.885 622.911 848.904 6397.95 1567.75 201.157 1000.28 1366.6 300.995 52.8952 428.73 4830.2 660.467 641.126 3797.9 214.206 2187.58 1093.29 1875.7 937.705 550.252 98.7368 601.067 202.155 426.92 492.226 102.42 1127.32 668.582 684.647 316.274 146.833 1032.3 345.34 244.35 275.363 648.646 458.739 52.1014 323.242 51.3168 80.4989
internal_count=63033 25264 37769 33551 7553 4218 11175 2851 2928 4994 25998 6549 995 6181 5554 1580 231 1897 19449 3990 3876 15305 1233 8828 4425 14089 6934 4053 414 2427 954 2643 1998 581 4625 2762 4073 2320 864 4144 1436 1111 1367 3871 1863 213 1326 212 337
cat_boundaries=0 1 2 3 4
cat_threshold=12 10 16 12
is_linear=0
shrinkage=0.1


Tree=9
num_leaves=50
num_cat=1
split_feature=100 100 100 80 76 30 96 18 75 92 33 87 32 72 78 72 89 71 76 64 51 31 59 77 22 50 89 89 95 25 89 75 77 31 52 74 21 35 33 58 20 89 83 25 34 56 31 96 82
split_gain=2866.32 210.76 108.66 69.887 66.063 61.0041 65.8487 48.1421 45.4996 39.0529 37.2839 33.9616 31.2495 30.6537 27.4704 27.1439 27.3216 25.3945 24.8094 23.9983 37.4109 23.3556 22.706 22.2119 22.144 27.9529 20.8045 27.9244 27.111 20.1294 19.8909 22.6288 19.2799 18.8317 20.7975 18.3358 18.3343 18.2471 18.2388 18.5504 17.986 17.9346 17.9288 17.625 17.5258 16.902 16.6314 16.1312 15.6814
threshold=3.9764304915479448e-07 6.5176645875908443e-06 2.2169102464886239e-07 3.3449999094009404 -3.7350000143051143 31.355000495910648 2.8449999094009404 0 -2.1650000810623165 -2.0349999666213985 33.43499946594239 -3.9800000190734859 31.814999580383304 -3.5899999141693111 -5.9349999427795401 -8.2399997711181623 -1.6850000023841856 -5.4949998855590811 -2.5499999523162837 -5.0050001144409171 5.3750000000000009 36.555000305175788 4.6250000000000009 -6.1349999904632559 31.775000572204593 5.5950000286102304 3.6150000095367436 2.5849999189376835 -1.1950000524520872 33.375000000000007 -3.1249999999999996 -5.3450000286102286 -0.084999999962747083 31.469999313354496 4.9849998950958261 -7.5799999237060538 33.98500061035157 33.43499946594239 34.905000686645515 5.3250000476837167 33.854999542236335 2.029999971389771 -3.4250000715255733 35.710000991821296 33.315000534057624 5.6050000190734872 37.094999313354499 -2.0149999856948848 -2.6850000619888301
decision_type=2 2 2 10 8 2 8 9 8 2 2 2 2 2 8 2 2 2 8 2 2 2 10 10 10 2 2 2 10 2 2 10 10 2 2 2 8 8 2 8 8 2 2 2 2 10 2 10 8
left_child=2 3 4 7 14 6 38 17 18 21 13 -4 36 37 24 -16 45 40 23 20 -13 43 -20 -7 25 -1 27 32 35 -15 31 -14 -18 34 -25 -29 -9 -10 39 46 -2 48 -19 -8 47 -17 -6 -24 -21
right_child=1 -3 11 -5 5 8 9 12 10 -11 -12 19 30 29 15 16 26 42 22 41 -22 -23 44 33 -26 -27 -28 28 -30 -31 -32 -33 -34 -35 -36 -37 -38 -39 -40 -41 -42 -43 -44 -45 -46 -47 -48 -49 -50
leaf_value=-0.051120444576132212 0.054575723135474569 0.10592637425759191 -0.065685352762947041 0.091417540125891331 0.033603676339017875 -0.036154773504839414 0.11869888274453835 0.032752358989588885 0.097342699028646312 -0.054403465115688471 -0.019414634044257351 -0.02716044216716694 0.067819695102792801 -0.099326140991309431 -0.058518428782348322 -0.029471902818234381 -0.016121001302391479 -0.028277554903072318 -0.079164847611918818 -0.020027746865240292 0.056378163353888393 -0.048342861983046465 -0.094792164201513596 0.12557911698270321 -0.041123545767830401 -0.10836430082019254 -0.036965032492460026 -0.10100054329838229 -0.054599341349171819 0.088691361336757896 0.049836468542039575 -0.033322196651650107 0.1039543193234433 -0.011532526505363808 -0.019709061538616235 0.07993565630795782 -0.025810160699851772 -0.021210574372955239 -0.094499049376146976 -0.03851147233290432 0.10025913900135755 0.088447718266888631 0.053531683554251322 0.00321382119150797 -0.032225120341188351 -0.062252122889065745 -0.04462899596711345 -0.019725468074504801 0.039772470347742971
leaf_weight=365.44034773111343 135.61744099855423 1485.0221091061831 52.353744253516197 446.35717397928238 120.83622249960899 468.90707835555077 99.56632487475872 86.519909501075745 15.296978175640104 22.013845771551132 366.77493296563625 189.71183383464813 33.176250144839287 6.0948417335748664 284.32679150998592 884.79871091246605 377.45818488299847 28.576499834656715 145.87775903940201 56.931712999939919 74.72158570587635 11.130925536155699 90.704527854919434 21.905904993414879 2728.933493822813 111.27983066439629 204.26510982215405 5.9896099269390097 22.334040001034737 86.631533220410347 444.16199912130833 66.381617650389671 13.863140881061552 448.2188186198473 17.906305983662605 86.277061685919762 139.9053645953536 85.815687194466591 25.461214765906334 104.05735874176025 236.42735838145018 56.542914658784866 428.11142335087061 15.237849771976469 927.58374415338039 191.30323547124863 35.057765409350395 41.827769264578819 190.85250562429428
leaf_count=1485 886 12103 228 3211 569 1915 636 494 64 91 1485 882 200 28 1143 3606 1544 158 589 263 370 45 367 100 11033 448 832 25 94 472 2799 386 66 1833 74 421 760 355 104 443 1632 292 2635 76 3767 769 143 169 943
internal_value=0 0.0772519 -0.028979 0.0564317 -0.031952 -0.0205097 0.0143394 0.0466647 -0.0260547 0.0684807 -0.000666877 0.0113871 0.027426 0.0348069 -0.0387983 -0.0298203 -0.0252524 0.0634468 -0.032635 0.0184815 -0.00355474 0.0899613 -0.0421752 -0.0206119 -0.0445973 -0.0644828 -0.0100288 0.000846702 0.0442601 0.0763331 0.0407811 0.000381907 -0.0118672 -0.0056781 0.060233 0.0681899 -0.00343269 -0.00327507 -0.0137258 -0.00581437 0.0836067 0.0376291 0.0484126 0.103371 -0.0370852 -0.0352994 0.0160105 -0.0711008 0.0260326
internal_weight=0 3530.26 9054.29 2045.24 8433.18 3156.91 433.362 1598.88 2723.55 147.949 560.614 621.114 770.145 193.839 5276.27 2070.62 1786.29 828.733 2162.93 568.761 264.433 125.935 1205.99 956.938 3205.65 476.72 710.187 505.922 114.601 92.7264 543.72 99.5579 391.321 488.031 39.8122 92.2667 226.425 101.113 285.413 259.951 372.045 304.327 456.688 114.804 1060.12 1076.1 155.894 132.532 247.784
internal_count=63033 25264 37769 13161 34791 13325 2107 9950 11218 848 2404 2978 4639 919 21466 8500 7357 5311 8814 2750 1252 757 4892 3922 12966 1933 2982 2150 540 500 3385 586 1610 2007 174 446 1254 419 1259 1155 2518 1498 2793 712 4303 4375 712 536 1206
cat_boundaries=0 1
cat_threshold=10
is_linear=0
shrinkage=0.1


Tree=10
num_leaves=50
num_cat=1
split_feature=100 100 100 80 71 90 75 42 35 54 34 70 25 74 57 87 89 91 100 93 52 23 54 70 67 80 100 22 42 49 22 56 20 18 33 25 36 66 98 22 83 86 97 56 43 70 51 70 65
split_gain=2427.03 207.306 87.9528 65.2764 53.2197 46.3575 43.8193 40.9495 37.9834 33.3229 38.7944 37.2653 33.2235 32.4481 29.0788 27.7345 26.4291 30.7515 27.6852 24.6033 23.2896 21.8653 21.7848 21.3894 21.2511 20.5197 20.8721 24.4068 20.5068 20.4499 18.6535 18.3813 18.3536 17.399 19.7235 17.2544 16.5726 16.5694 16.4162 22.4619 16.1585 20.0171 16.1163 15.9929 15.6723 15.6095 15.5457 15.3211 18.4991
threshold=3.9764304915479448e-07 6.5176645875908443e-06 2.1123427984548473e-07 3.3449999094009404 -0.49999999999999994 4.0099999904632577 -3.3749999999999996 4.3399999141693124 32.174999237060554 4.805000066757203 34.034999847412116 -6.0950000286102286 34.335000991821296 -2.4999999999999996 5.0450000762939462 -3.945000052452087 2.5849999189376835 -1.6599999666213987 1.2147965122721874e-07 -4.254999876022338 5.9749999046325692 34.155000686645515 5.6849999427795419 -5.9549999237060538 -7.879999876022338 3.0049999952316289 5.9978264577154058e-09 32.760000228881843 4.7550001144409189 5.3650000095367441 34.954999923706062 5.555000066757203 34.454999923706062 0 34.125000000000007 35.905000686645515 34.725000381469734 -6.0750000476837149 -0.54500001668930043 31.164999961853031 3.3900001049041752 4.1600000858306894 2.9150000810623173 4.7950000762939462 4.3550000190734872 -2.5499999523162837 5.3949999809265146 -6.1099998950958243 -1.7400000095367429
decision_type=2 2 2 10 2 2 8 8 8 2 2 2 2 2 10 2 2 2 2 2 2 2 2 2 2 10 2 10 8 2 8 10 10 9 2 2 10 2 8 10 2 2 8 10 10 2 2 2 2
left_child=2 3 4 5 6 7 25 43 -8 10 14 19 30 -6 -10 40 18 -18 22 -11 -21 28 31 -20 -16 45 -27 -28 36 -19 38 -13 -29 34 -14 -34 -17 -12 -9 -40 41 -4 -15 -2 -5 47 -38 -1 -49
right_child=1 -3 15 44 13 -7 8 12 9 11 37 16 33 42 24 21 17 29 23 20 -22 -23 -24 -25 -26 26 27 32 -30 -31 -32 -33 35 -35 -36 -37 46 -39 39 -41 -42 -43 -44 -45 -46 -47 -48 48 -50
leaf_value=-0.036308661084006363 -0.056117047142207811 0.10337622345372682 0.031763742407681997 -0.0016865755426783457 -0.029963687855347761 0.083948570753489785 -0.053093872312198545 0.052387243973383957 -0.0055396756991712487 0.09701683454583758 -0.095983926499338942 -0.02242518359537353 0.023766420541046586 0.094368975333257665 -0.088658581966779365 0.017887199048702271 -0.023105259239054314 0.09318236863014287 -0.11412053641276763 -0.03645214330845923 0.10093909129157286 -0.010046668568364643 0.048060634509603822 0.035012147442640446 0.07052436597542705 -0.033900000791422531 -0.10328983551921044 -0.022676841583707572 0.042270665667625239 -0.0048037515419673471 0.076742996882319586 -0.10102182853825628 -0.080153364546272754 0.038758881472350376 -0.037253315833537748 -0.0085219827803684044 -0.10991604656216483 -0.014392657080935215 -0.16787193668678246 0.020361380740861596 -0.11310248438693388 -0.11925421080141717 -0.080919534080078348 0.017639867227036542 0.091961128830094607 -0.055824173965668578 0.072372633108418613 -0.019864224614752596 -0.057514431450277695
leaf_weight=2168.0227487683296 60.529421217739582 1375.1584672406316 29.507067203521729 18.704060152173042 42.641576051712036 238.04767233133316 328.49851477146149 412.15935961157084 115.71239478886127 14.252834022045134 29.754225090146065 826.18936449289322 128.73313561081886 65.51394185423851 8.9138055592775327 59.795374438166618 70.938547477126122 69.129310622811317 10.331862553954123 1257.0670150071383 12.460296437144278 214.5047564804554 42.539127692580223 139.05393199622631 141.81431674957275 484.21935164928436 115.74910156428814 143.87530590593815 299.34309367835522 30.78388886898756 245.66961590200663 30.867266640067101 197.09066215157509 213.23368277400732 90.008901491761208 40.545102894306183 23.597595274448398 152.23855789005756 6.7644774168729773 100.90306059271097 26.308772429823875 12.493005588650702 5.7016383558511725 57.160447187721729 401.0191758275032 268.63722252845764 5.835172787308692 1420.4448390752077 143.70445056259632
leaf_count=8736 281 12103 131 133 182 1719 1323 2674 544 68 120 3341 768 408 41 295 297 429 43 5113 50 994 172 590 764 1954 474 583 1508 138 1614 126 800 1354 537 164 104 619 41 641 112 53 29 321 3078 1079 29 5776 580
internal_value=0 0.0735714 -0.0260849 0.052797 -0.0288761 0.0433414 -0.0298117 0.0359914 -0.0208373 -0.0172478 0.0078563 -0.0217443 0.0415233 0.0390262 0.032165 0.00874062 -0.00922836 0.0272441 -0.0151688 -0.0336368 -0.0351037 0.015581 -0.021789 0.0246978 0.0611106 -0.0357209 -0.0486779 -0.0630683 0.0297283 0.0629922 0.0540359 -0.0252559 -0.0508652 0.0193499 -0.00128356 -0.0679317 -0.012349 -0.0277321 0.0433045 0.00853516 -0.0516504 -0.0131568 0.0803351 -0.0202943 0.0877879 -0.0325423 -0.0737765 -0.0308665 -0.0233233
internal_weight=0 3348.09 9048.08 1972.93 8376.69 1553.21 8262.83 1315.16 3280.55 2952.05 448.433 2503.61 1197.47 113.857 266.441 671.385 1219.83 170.852 1048.98 1283.78 1269.53 603.076 899.596 149.386 150.728 4982.29 981.48 497.26 388.571 99.9132 765.497 857.057 381.511 431.976 218.742 237.636 89.2281 181.993 519.827 107.668 68.3088 42.0001 71.2156 117.69 419.723 4000.81 29.4328 3732.17 1564.15
internal_count=63033 25264 37769 13161 34543 9950 33924 8231 13778 12455 2088 10367 7629 619 1349 3226 5136 864 4272 5231 5163 2930 3639 633 805 20146 3975 2021 1936 567 4970 3467 1547 2659 1305 964 428 739 3356 682 296 184 437 602 3211 16171 133 15092 6356
cat_boundaries=0 1
cat_threshold=20
is_linear=0
shrinkage=0.1


Tree=11
num_leaves=50
num_cat=3
split_feature=100 100 100 90 75 71 83 24 31 87 17 30 13 56 80 7 71 100 37 22 29 91 37 34 85 54 33 49 74 79 81 50 100 28 77 39 26 61 98 25 35 97 77 23 43 65 24 62 48
split_gain=2060.83 160.074 127.4 55.298 46.5862 47.6314 44.5584 43.5862 34.3811 50.6157 38.4959 37.6588 28.7461 28.5131 27.8221 25.2846 23.414 41.9508 22.8303 22.4575 25.9796 21.4489 20.992 20.3793 25.6284 19.1876 18.4415 18.4232 19.2556 18.3495 18.2173 17.9818 19.3517 25.8279 17.4843 17.2474 16.7094 16.5579 17.5405 16.5397 16.5349 16.4457 16.3561 16.2522 16.4823 16.0228 16.0023 15.92 15.4063
threshold=5.4719157560612086e-07 6.5176645875908443e-06 2.2169102464886239e-07 4.0099999904632577 -6.7449998855590811 -0.49999999999999994 -2.8349999189376827 34.094999313354499 31.534999847412113 2.4600000381469731 0 33.835000991821296 1 5.4649999141693124 2.7500000000000004 2 -6.0750000476837149 7.8627309108014759e-09 34.835000991821296 31.195000648498539 32.760000228881843 -0.99500000476837147 35.194999694824226 36.295000076293952 -2.0749999284744258 4.9449999332427987 34.335000991821296 4.7550001144409189 -6.1099998950958243 -5.2550001144409171 -2.8049999475479122 5.5950000286102304 1.3313809432702331e-07 34.604999542236335 -8.3099999427795392 34.385000228881843 33.504999160766609 -1.9850000143051145 -3.5949999094009395 35.555000305175788 34.504999160766609 -0.46999999880790705 -7.6849999427795401 33.604999542236335 4.6250000000000009 -2.7100000381469722 34.335000991821296 -8.1249999999999982 5.2299997806549081
decision_type=2 2 2 2 8 2 2 2 2 2 9 2 1 8 10 1 2 2 10 8 2 2 10 2 2 2 2 2 2 8 10 2 2 2 10 10 2 8 8 2 10 10 10 2 10 2 2 10 2
left_child=2 3 4 6 16 8 34 26 9 13 11 15 -4 18 23 -10 17 -1 29 -14 30 -13 -11 -9 -25 39 -8 -17 -29 -6 -21 32 48 43 -2 40 -32 -19 -39 -7 -28 -23 -24 -34 -45 -18 -46 -26 -12
right_child=1 -3 12 -5 5 25 7 14 10 22 31 21 19 -15 -16 27 45 37 -20 20 -22 41 42 24 47 -27 35 28 -30 -31 36 -33 33 -35 -36 -37 -38 38 -40 -41 -42 -43 -44 44 46 -47 -48 -49 -50
leaf_value=-0.031939066169881833 -0.054584586229115044 0.1009527901294836 0.040938716694296114 0.092462176897388851 -0.012373890105566464 0.09964362793700654 0.028442574216598616 0.05762954463115099 -0.010439938060038416 0.098184006595689585 -0.030645089570260742 -0.03348664760207213 -0.084408686669795382 -0.086134779216758245 0.09131557755957298 -0.025597942453177203 -0.020111324748087838 -0.072923679676529643 -0.039602039542109849 -0.043957358253848826 0.038470940942939902 0.005450383531918436 0.089290674380397714 -0.15861442347798774 -0.17624990336784105 -0.039077736218951387 -0.25014244663993224 -0.068733057155555083 0.070344737013902259 0.043253736951004297 0.040667902056342742 -0.043148235629842858 0.055692917972189386 -0.034677094705082415 0.016909376081783525 0.017608706912648587 -0.010140796239945866 0.1419543795730841 -0.035535396007116915 -0.012468024648310592 -0.049490791688292998 -0.10420877978717465 -0.17649792774497416 0.13495707144794455 0.020848330642859424 -0.045282709588918925 -0.074955283811889664 0.040753675205136827 -0.0079785671913378976
leaf_weight=889.62955459952354 46.360976099967957 1272.6431585475802 263.33340203016996 299.57476630061865 114.66155669093132 56.454380497336388 248.53513947874308 559.83546544611454 149.74973700940609 67.009934462606907 2681.1715465933084 457.22552704811096 28.75400584936142 44.179770916700363 251.07435085624456 29.582049161195755 945.28777565062046 495.27497093379498 105.00416465848684 102.97474812716246 174.74268770217896 299.9069014787674 4.0892756730318069 9.1357786208391172 3.6606337279081336 19.054710745811462 6.0870848670601871 10.70406351983547 142.26013794541359 122.81172625720501 90.87015276402235 722.82789126038551 84.697818912565708 127.98930203914642 130.47558367997408 20.767136082053185 224.97962237149477 6.2411476075649261 51.619448751211166 17.15864984691143 12.624856151640413 14.329595863819121 5.3371339291334134 7.3408978506922713 38.526544451713562 345.24734918773174 31.846807613968849 44.210569389164448 337.62810569256544
leaf_count=3567 242 12103 1500 2408 494 377 1600 3746 617 391 10926 1849 148 178 1988 120 3832 2005 432 497 959 1224 22 57 24 78 38 44 693 561 475 2923 366 535 812 140 1135 25 207 84 83 58 25 31 166 1393 136 287 1432
internal_value=0 0.0743675 -0.0221081 0.0536406 -0.0259008 -0.0207476 0.0449144 0.0520661 -0.0219245 0.00417174 -0.0242776 -0.00747299 0.0139703 -0.0105275 0.0632521 0.0206037 -0.0366313 -0.0453848 -0.000774131 0.00187081 0.00608195 -0.0196635 0.0785287 0.0518294 -0.00513112 0.0503602 0.0183575 0.0442195 0.0606124 0.0163945 -0.00743145 -0.0287879 -0.0257382 -0.00108262 -0.00183409 -0.045132 0.00447689 -0.06701 -0.0163904 0.0735112 -0.114764 0.000449782 -0.061196 0.0253916 -0.00763266 -0.0268452 -0.0225067 0.0241598 -0.02811
internal_weight=0 2904.99 9310.5 1632.34 8424.85 5691.55 1332.77 1155.93 5598.88 463.094 5135.79 1103.76 885.655 386.657 867.917 332.296 2733.3 1442.77 342.477 622.321 593.567 771.462 76.4363 616.842 57.007 92.6677 288.014 182.546 152.964 237.473 418.825 4032.03 3309.2 290.401 176.837 39.4791 315.85 553.136 57.8606 73.613 18.7119 314.236 9.42641 162.412 77.7142 1290.54 70.3734 47.8712 3018.8
internal_count=63033 23528 39505 11425 34791 23762 9017 7963 23223 2103 21120 4605 4714 1665 6102 1474 11029 5804 1487 3214 3066 3131 438 4114 368 539 1861 857 737 1055 2107 16515 13592 1234 1054 261 1610 2237 232 461 121 1282 47 699 333 5225 302 311 12358
cat_boundaries=0 1 2 3
cat_threshold=8 12 4
is_linear=0
shrinkage=0.1


Tree=12
num_leaves=50
num_cat=2
split_feature=100 100 100 71 76 32 30 96 92 75 33 100 20 28 13 72 83 25 78 72 51 2 25 89 42 46 100 65 21 57 55 79 53 49 49 22 50 83 99 74 86 59 87 42 77 63 76 36 21
split_gain=1767.38 168.299 104.559 47.9853 44.8969 37.371 36.685 55.5392 35.2006 31.3079 28.3704 26.0203 23.6184 23.597 23.3779 22.1889 21.9332 22.041 21.7163 22.7772 21.3331 26.9158 21.211 21.124 20.0087 19.5361 18.3157 19.043 18.176 17.9301 17.5016 17.2606 21.3165 17.6883 21.9636 17.0117 23.8765 16.6048 16.5309 16.491 16.3649 16.1736 16.1219 15.8759 15.644 16.4006 15.3707 15.278 15.1656
threshold=8.4701696323463704e-07 2.6787373030856548e-07 7.4091299211431769e-06 -6.5050001144409171 -3.7350000143051143 32.534999847412116 31.464999198913578 2.8449999094009404 -2.004999995231628 -2.1650000810623165 33.534999847412116 1.3313809432702331e-07 33.854999542236335 34.864999771118171 0 -4.2550001144409171 2.7749999761581425 34.335000991821296 -5.9349999427795401 -8.4849996566772443 5.4149999618530282 1 35.664999008178718 -1.6850000023841856 4.1849999427795419 4.6250000000000009 2.9350991326282388e-07 -4.4349999427795401 34.864999771118171 5.0450000762939462 4.3550000190734872 -4.6449999809265128 5.7449998855590829 5.3150000572204599 5.120000123977662 31.775000572204593 5.6050000190734872 3.3900001049041752 -1.924999952316284 -7.1600000858306876 2.5049999952316289 4.6150000095367441 -3.0499999523162837 4.5150001049041757 -7.5550000667572013 -1.4900000095367429 -0.98499998450279225 33.514999389648445 36.320001602172859
decision_type=2 2 2 2 8 2 2 8 2 8 2 2 8 2 1 2 2 2 8 2 2 1 2 2 8 2 2 2 8 8 10 10 2 2 2 10 2 2 10 2 2 10 2 10 10 8 10 10 8
left_child=1 4 3 12 18 28 7 40 22 11 15 41 46 29 -13 47 17 24 35 -20 21 -15 -9 -21 -5 -16 -23 39 -3 -7 38 33 -33 34 -25 36 -1 -27 -22 -28 -6 44 43 -42 45 -8 -2 -11 -19
right_child=2 5 -4 16 6 13 9 8 -10 10 -12 14 -14 20 25 -17 -18 48 19 23 30 26 -24 31 -26 37 27 -29 -30 -31 -32 32 -34 -35 -36 -37 -38 -39 -40 -41 42 -43 -44 -45 -46 -47 -48 -49 -50
leaf_value=-0.039106860181535849 0.05261201650283788 0.0093832641298475811 0.099584300602757705 -0.031354897225199886 -0.027728330206234754 0.02342240702590789 -0.0057928331437048508 0.10067496716191826 -0.047529306856763459 0.062153199160580874 -0.014870676949878051 -0.025421849675212563 0.095260380699779545 0.03152521749007639 -0.053136399593515571 0.056676921109218174 0.061695611743358796 0.0069720164634818034 -0.047612521262032657 -0.025187096862716869 0.048248888090350779 -0.15468876306962087 -0.0073232941972218336 -0.027667910418201297 0.051981449439583195 0.066981146427121788 -0.24556598499507279 0.015105949596867783 -0.042990700577981704 0.067530089307415025 0.064575884798124192 0.0068331061854209523 0.10938195190453499 -0.042311991830834755 0.034473122259122392 -0.030532791811451132 -0.092795275622274409 -0.016334697226956942 -0.17861883104379056 -0.05004830717320409 0.094970542000498245 -0.023588879262369831 0.043220178335296344 -0.080725047030021313 -0.065560861401067441 -0.14538733750442553 -0.1424920471394622 -0.033445696207606686 -0.09712111752353518
leaf_weight=380.18242385983467 134.1034864038229 174.48315171897411 1127.3546072021127 32.233270838856697 212.59096494317055 155.66885326802731 97.007076501846313 107.42718180269003 24.863211318850517 22.660283416509628 344.56961536407471 130.78499534726143 365.43282432109118 107.33073272556067 22.879837319254875 133.40799517184496 335.47158763557673 127.76031234115362 271.06886403262615 1119.2512865513563 6.7574417293071747 11.911368384957312 21.891426734626293 125.15048219263554 271.3133737668395 99.747253999114037 4.7280645594000807 58.735208995640278 106.83405278623104 225.91140349954367 95.873830400407314 309.53002963960171 21.69050857424736 165.59159661084414 104.26461744308472 2790.0020458698273 105.90985341370106 31.467319279909134 6.1212645620107633 49.254797831177711 6.5728573948144939 1606.0229511708021 80.098074026405811 23.641459375619888 195.93722718954086 9.2158947587013227 4.1633156090974799 63.738608151674271 15.718371197581289
leaf_count=1551 1014 973 11609 160 892 957 391 731 102 94 1395 558 3153 646 102 698 2461 834 1092 4559 40 54 106 508 1933 453 27 361 551 1429 608 1308 95 676 477 11304 432 138 38 270 29 6493 409 98 791 37 30 265 101
internal_value=0 -0.0183442 0.0773525 0.0578662 -0.0228529 0.0204138 -0.0135382 0.012065 0.0614416 -0.017968 0.00303662 -0.0233735 0.0819407 0.0324566 0.00481751 0.0311081 0.0423693 0.0278659 -0.0284399 -0.0205449 0.0133285 -0.00380495 0.0823927 -0.0165691 0.0431321 0.0301742 -0.0340303 -0.0242989 -0.0105065 0.049536 0.0498729 -0.00328717 0.0135487 -0.0174044 0.000573958 -0.0335406 -0.0508045 0.0470007 -0.0595816 -0.0671726 -0.0115117 -0.0275822 0.0197405 -0.042504 -0.0488073 -0.017904 0.0467373 -0.00837248 -0.00443159
internal_weight=0 9630.78 2413.55 1286.2 8627.17 1003.61 3234.52 477.085 154.182 2757.44 564.377 2193.06 503.7 722.293 284.879 219.807 782.497 447.025 5392.64 2116.55 340.713 231.96 129.319 1845.48 303.547 154.094 124.629 112.718 281.317 381.58 108.753 726.227 331.221 395.007 229.415 3276.09 486.092 131.215 12.8787 53.9829 322.903 1908.18 110.312 30.2143 302.16 106.223 138.267 86.3989 143.479
internal_count=63033 41738 21295 9686 35784 5954 13782 2367 939 11415 2452 8963 4197 4430 1251 1057 5489 3028 22002 8715 2044 1358 837 7623 2093 693 712 658 1524 2386 686 3064 1403 1661 985 13287 1983 591 78 297 1428 7712 536 127 1219 428 1044 359 935
cat_boundaries=0 1 2
cat_threshold=16 10
is_linear=0
shrinkage=0.1


Tree=13
num_leaves=50
num_cat=2
split_feature=100 100 100 71 13 33 72 32 88 20 50 76 17 30 42 24 52 92 33 75 72 94 87 79 25 56 96 87 100 74 67 77 21 95 62 38 31 20 79 85 22 100 89 36 98 57 58 79 58
split_gain=1511.17 137.298 104.443 44.9756 41.015 40.2869 45.0742 31.2374 27.5761 27.5078 24.1787 30.4661 35.2092 28.4341 22.7061 22.6024 20.6359 19.9449 23.4691 22.0429 19.701 18.2585 18.0486 19.158 17.4951 16.7037 16.5415 16.4806 15.8731 15.6005 25.8832 15.3888 15.1741 15.8564 17.6869 16.7085 15.9578 15.036 14.8583 14.7848 14.7008 14.5058 14.1242 13.9823 13.8652 13.8609 13.6927 13.8886 15.2387
threshold=8.4701696323463704e-07 2.6787373030856548e-07 7.4091299211431769e-06 -5.7100000381469718 0 33.48500061035157 -1.3250000476837156 32.534999847412116 -0.74500000476837147 33.854999542236335 5.6749999523162851 -3.5899999141693111 1 33.844999313354499 4.9449999332427987 36.085000991821296 4.7950000762939462 -1.5750000476837156 34.454999923706062 -4.7999999523162833 -0.28999999910593027 -1.7549999952316282 -2.2050000429153438 -5.0050001144409171 35.215000152587898 4.7950000762939462 -2.1249999999999996 -2.1099998950958248 1.1169775859798393e-07 -0.084999999962747083 -5.0350000858306876 -0.85499998927116383 33.965000152587898 4.0099999904632577 -0.62999999523162831 35.354999542236335 37.034999847412116 35.114999771118171 -8.4650001525878888 -2.5549999475479122 35.495000839233406 1.9282869523351568e-08 -1.7849999666213987 35.585000991821296 -1.3450000286102293 5.6649999618530282 5.3650000095367441 -5.9849998950958243 5.5250000953674325
decision_type=2 2 2 2 1 2 2 2 2 8 2 8 9 2 10 2 2 2 2 8 2 2 2 8 2 10 8 2 2 2 2 8 8 8 8 10 2 10 8 2 8 2 2 10 10 10 8 8 10
left_child=1 4 3 9 5 6 38 32 22 21 11 31 29 16 -5 26 24 18 -12 -19 39 -2 41 27 -14 -18 40 -24 -27 45 -31 -6 -3 34 35 36 46 -15 -1 -10 -9 -7 -33 -29 -44 -13 -34 -48 -49
right_child=2 7 -4 14 10 8 -8 15 20 -11 17 12 13 37 -16 -17 25 19 -20 -21 -22 -23 23 -25 -26 28 -28 43 -30 30 -32 42 33 -35 -36 -37 -38 -39 -40 -41 -42 -43 44 -45 -46 -47 47 48 -50
leaf_value=-0.040425499971921894 0.00065219896602940804 0.020018043771109887 0.09738256957121505 0.017924526627803042 -0.027210282077203204 -0.037800622963890897 0.08629007477970807 -0.026183897947928594 -0.14171176461988094 0.090685228169806273 -0.056932776082126352 -0.018892877021936899 0.088792443432493498 0.0033463049783797254 0.054149089579711596 0.052103210316653673 0.066444649287807911 -0.038633776965434262 -0.024879204695998809 0.0065929376460802623 -0.099201528076956508 0.069751425964374045 0.080217441729587502 0.053274697542816413 -0.00089224059004179243 -0.028650918301624185 0.033093883037975808 -0.05764384025024314 0.06410285228462835 -0.10455651366661488 0.091152308048982014 -0.021618153939917811 -0.004448451830142172 -0.24664141457482924 -0.25230728561436006 0.034799292160979482 -0.16373278266139799 -0.03753455872218233 0.016994196317033607 0.074763957905395445 0.032540757998452012 -0.0075117041457591419 0.066683642026228812 0.058744914239012264 -0.080051994097521242 -0.054886374112236382 -0.026444038491111429 -0.23306010110360723 -0.023193885625932498
leaf_weight=58.349296361207962 65.540550388395786 108.14534349739552 1041.9649726748466 317.84849610179663 3713.3141202107072 437.20287381112576 89.684916667640209 126.57610075175762 3.3287543952465048 380.2178111076355 549.4590195864439 1291.1186149045825 83.599831067025661 314.08306364715099 379.79433532059193 278.77952153980732 38.119466513395309 232.58526666462421 390.95732796937227 200.80546098947525 8.4301063120365125 91.803914412856102 14.064090490341185 63.299456395208836 29.400428026914597 91.581953629851341 238.50074796378613 60.99336464703083 23.104747176170349 8.9046841859817487 28.027261562645435 68.037414908409119 79.981092520058155 3.2453397810459128 3.313308671116828 42.952345013618469 9.272539481520651 126.08609341084957 197.95631586015224 60.433275982737541 64.274914368987083 247.69602513313293 47.176998764276505 12.424430683255194 7.4574792534112921 116.65660883486271 20.759475335478783 9.1249775141477567 5.5730121061205855
leaf_count=241 501 615 11609 2169 15081 1758 626 714 14 3480 2224 5297 507 1286 2821 1834 163 939 1599 850 34 715 64 271 141 371 1484 255 104 38 182 275 410 16 17 231 48 516 824 333 398 1019 214 53 31 474 108 49 30
internal_value=0 -0.0165415 0.0740649 0.0543951 -0.0205957 -0.00373322 0.025273 0.0187176 -0.0148286 0.0761332 -0.0234313 -0.0207175 -0.0111903 0.00713047 0.0376451 0.0299316 0.0330572 -0.0354276 -0.0436072 -0.0176786 0.0444678 0.0409687 -0.0199511 0.0113703 0.0654583 0.00909654 0.0155355 -0.0189506 -0.00996477 -0.0200536 0.0439648 -0.0260591 -0.00940527 -0.0276693 -0.0235129 -0.0189916 -0.0375179 -0.00836398 0.00392231 0.0634626 -0.00640657 -0.0268465 0.00878852 -0.0379475 0.0466546 -0.0218755 -0.0273798 -0.0791058 -0.153485
internal_weight=0 9604.84 2277.17 1235.21 8614.34 1253.86 345.991 990.499 907.872 537.562 7360.48 5986.67 2150.68 705.976 697.643 708.131 265.806 1373.81 940.416 433.391 72.1921 157.344 835.68 150.781 113 152.806 429.352 87.4819 114.687 1444.71 36.9319 3835.99 282.367 174.222 170.977 167.663 124.711 440.169 256.306 63.762 190.851 684.899 122.672 73.4178 54.6345 1407.78 115.439 35.4575 14.698
internal_count=63033 41738 21295 9686 35784 5492 1691 5954 3801 4696 30292 24680 9079 3088 4990 4430 1286 5612 3823 1789 381 1216 3420 643 648 638 2596 372 475 5991 220 15601 1524 909 893 876 645 1802 1065 347 1112 2777 520 308 245 5771 597 187 79
cat_boundaries=0 1 2
cat_threshold=8 20
is_linear=0
shrinkage=0.1


Tree=14
num_leaves=50
num_cat=1
split_feature=100 100 100 80 13 28 28 90 56 64 51 55 22 80 83 64 36 88 76 97 56 76 23 49 46 97 65 74 87 35 37 25 22 20 28 97 100 45 83 100 97 28 89 40 56 55 93 76 59
split_gain=1291.08 113.414 104.01 42.9981 30.5705 29.7616 40.5074 28.5597 26.1762 25.9942 23.8426 21.3116 21.0958 20.5471 20.3245 20.241 20.1564 19.7031 18.3673 17.8713 17.3706 17.2842 17.056 16.8444 19.5259 19.5783 16.6131 16.2741 24.2271 26.7171 18.1309 16.0593 20.46 23.921 15.1149 15.0145 26.4201 14.9242 14.7793 16.2235 15.5007 21.3472 23.5033 14.5673 15.645 14.5113 14.5034 22.9142 14.8724
threshold=8.4701696323463704e-07 2.2169102464886239e-07 7.4091299211431769e-06 2.7500000000000004 0 34.665000915527351 34.594999313354499 4.0099999904632577 5.4949998855590829 -3.7849999666213985 5.2349998950958261 5.2550001144409189 31.144999504089359 3.5000000000000004 -3.4650000333786006 -1.1150000095367429 31.835000038146976 -2.5949999094009395 -4.0000001192092887 -1.674999952316284 4.0899999141693124 -0.76499998569488514 33.524999618530281 4.8550000190734872 4.5950000286102304 -3.2649999856948848 -8.8699998855590803 -0.4849999845027923 1.0000000180025095e-35 33.43499946594239 35.68499946594239 34.850000381469734 31.615000724792484 34.395000457763679 35.48500061035157 2.9450000524520878 2.7713680239571663e-09 4.8150000572204599 -2.8349999189376827 2.5346527763758789e-05 -1.3450000286102293 35.149999618530281 -1.7450000047683714 4.8550000190734872 4.7750000953674325 4.3750000000000009 -2.2649999856948848 -9.6599998474121076 5.6649999618530282
decision_type=2 2 2 10 1 2 2 2 10 2 2 10 8 10 2 2 8 2 8 8 10 10 2 2 2 8 2 2 2 8 10 2 10 10 2 10 2 2 2 2 10 2 2 10 8 10 2 8 10
left_child=1 4 3 7 5 6 14 20 17 10 12 -8 -3 27 -1 26 -16 -7 -14 37 -2 -22 -11 24 -20 -26 34 -6 29 -29 -30 32 -15 -34 -5 -35 -37 -17 39 40 41 -4 -43 -24 -45 -12 47 -18 -48
right_child=2 9 38 15 13 8 11 -9 -10 22 45 -13 18 31 16 19 46 -19 23 -21 21 -23 43 -25 25 -27 -28 28 30 -31 -32 -33 33 35 -36 36 -38 -39 -40 -41 -42 42 -44 44 -46 -47 48 -49 -50
leaf_value=-0.062514061160128795 -0.053346311718547125 -0.24122906795867838 0.043466493296147601 0.080464087540477292 -0.020183888888905138 -0.13891152229388279 0.10425354534662318 0.081557445192724398 -0.060095866758829178 0.046950505402793781 -0.045252082012619224 -0.099561599055992392 -0.032053220239074802 -0.082842349555580952 -0.041207490190671214 -0.026796765207309094 -0.073595879775209691 -0.0063280277988497129 -0.13876441698612194 0.090714347703692189 0.037077780278268593 -0.04962364571546557 -0.023309264759917445 0.043431568868536614 -0.13023486217505756 0.021129382557890274 0.088651625844532525 0.11468669720260108 0.10123600907022545 -0.018097583927611603 -0.15250360515828354 -0.018900076187538969 -0.0050550241168609254 -0.038602284200561082 -0.25974144889535805 -0.0071253158357414692 -0.11957214661199254 -0.36224222250325266 0.097803812369835041 0.099909304922233821 0.085088985789491367 -0.39365821117236582 -0.017316699237877146 -0.018195819707711409 0.044347056766735712 0.033268373571133006 -0.0034631359915910558 0.058903107479333909 0.08286967869863919
leaf_weight=43.465040266513824 23.467530056834221 4.0903515964746466 5.8474742174148577 2.5891329422593108 5694.8223902210593 11.454029873013495 59.48903077095747 133.93813564628363 124.40026199072599 281.74775712192059 26.428431414067745 5.6145102381706229 217.84205641597509 107.37657070159912 68.030777730047703 2.8338149711489677 14.653057411313055 523.32272933423519 11.871071957051752 4.2746855616569501 674.48715629428625 23.804564639925957 82.106648050248623 84.4350870475173 9.9441517665982229 60.747905120253563 318.19332055747509 16.50090155005455 34.298522002995014 185.48881088197231 3.0679544508457175 472.48230583965778 182.57343852519989 365.46907363831997 2.6350327432155609 30.905494138598442 64.508237928152084 2.4932131841778755 923.14957015961409 19.797644920647144 7.5950922369956961 3.5612524524331102 3.1074461117386809 55.60934940725565 142.45552195608616 215.0930430367589 235.24958062916994 119.4594342559576 21.803336106240749
leaf_count=188 118 21 62 20 23246 46 448 1248 511 1768 149 23 1121 454 281 27 60 2196 63 41 4967 166 465 489 52 333 3060 77 214 801 14 1934 753 1520 20 127 266 19 11152 240 83 38 34 329 871 1286 997 545 90
internal_value=0 -0.0149194 0.0708021 0.0510129 -0.0190233 -0.00428959 0.012457 0.0391481 -0.0187789 0.0139377 -1.65047e-06 0.0866766 -0.0153264 -0.0215129 0.00284428 0.0814997 0.00903075 -0.00916775 -0.0129253 -0.0615837 0.0312782 0.0341222 0.0295772 0.0120262 -0.0200912 -0.000162812 0.0857476 -0.0191103 0.00643353 -0.0072502 0.0804029 -0.0333436 -0.0424326 -0.0356892 -0.0911332 -0.0478246 -0.0831495 -0.183796 0.0952281 0.0356479 -0.0276113 -0.0960004 -0.218293 0.0121061 0.0267873 0.0246763 0.0177681 0.0444263 0.00385965
internal_weight=0 9576.81 2151.78 1188.72 8384.44 1226.94 567.765 855.697 659.177 1192.37 630.452 65.1035 388.931 7157.49 502.661 333.019 459.196 534.777 384.84 9.60171 721.759 698.292 561.919 166.998 82.5631 70.6921 323.417 5934.18 239.356 201.99 37.3665 1223.32 750.833 643.456 5.22417 460.883 95.4137 5.32703 963.058 39.9089 20.1113 12.5162 6.6687 280.172 198.065 241.521 391.165 134.112 257.053
internal_count=63033 41738 21295 9686 34791 5385 2632 6499 2753 6947 3514 471 2079 29406 2161 3187 1973 2242 2058 87 5251 5133 3433 937 448 385 3100 24352 1106 878 228 5054 3120 2666 40 1913 393 46 11609 457 217 134 72 1665 1200 1435 1692 605 1087
cat_boundaries=0 1
cat_threshold=8
is_linear=0
shrinkage=0.1


Tree=15
num_leaves=50
num_cat=0
split_feature=100 100 100 80 71 89 49 89 90 100 75 90 57 83 20 98 80 36 32 32 89 77 62 43 24 82 37 34 57 20 61 28 99 87 49 89 76 22 87 23 94 32 31 71 33 60 24 51 74
split_gain=1104.62 98.6393 97.2203 50.3052 32.9852 30.9955 42.9241 38.593 28.4685 27.9247 31.7481 27.512 25.8086 18.9261 20.2907 18.7882 19.0164 18.4651 19.1704 17.9764 19.5891 17.8139 17.9726 17.6369 17.3478 17.4891 21.3354 16.7355 16.3435 16.8306 19.757 16.0075 15.985 15.8734 15.9757 15.7786 23.8654 15.3227 15.2377 18.8777 15.1166 14.5048 14.4316 14.5535 14.3435 14.2102 14.1991 22.1643 19.7597
threshold=8.8914873686007933e-07 1.033700709740515e-05 2.6787373030856548e-07 2.5949999094009404 -6.5350000858306876 -1.2949999570846555 5.3150000572204599 2.9800000190734868 4.0099999904632577 1.7895335768791656e-09 -5.6849999427795401 -2.8950001001358028 5.0450000762939462 -3.064999938011169 34.864999771118171 3.370000004768372 -3.5749999284744258 35.694999694824226 34.395000457763679 31.07499980926514 -2.7250000238418575 -5.7249999046325675 -0.62999999523162831 4.3550000190734872 35.07500076293946 -1.6349999904632566 35.514999389648445 36.295000076293952 5.3150000572204599 33.905000686645515 -1.4900000095367429 35.48500061035157 -2.0749999284744258 2.6049998998641972 5.3250000476837167 3.935000061988831 -7.5550000667572013 34.444999694824226 -2.314999938011169 33.625000000000007 -3.0349999666213985 31.119999885559086 36.725000381469734 -3.0849999189376827 34.944999694824226 -8.2899999618530256 34.815000534057624 5.8300001621246347 -4.1699998378753653
decision_type=2 2 2 10 2 2 2 2 2 2 8 2 10 2 8 8 8 10 2 2 2 8 10 10 2 10 10 2 8 10 10 2 10 2 2 2 10 8 2 2 2 2 2 2 2 8 2 2 2
left_child=2 3 4 8 9 38 7 11 13 33 28 17 19 -2 21 31 -17 18 -7 -4 -21 24 44 45 25 26 -15 -26 29 -11 -31 -14 -29 -1 40 36 -8 -22 41 -40 -35 -6 43 -9 -23 -5 47 -12 -48
right_child=1 -3 12 23 5 6 35 42 -10 10 46 -13 15 14 -16 16 -18 -19 -20 20 37 22 -24 -25 27 -27 -28 32 -30 30 -32 -33 -34 34 -36 -37 -38 -39 39 -41 -42 -43 -44 -45 -46 -47 48 -49 -50
leaf_value=-0.015008976739604593 -0.025129189788766926 0.095761762569752371 -0.13864230856993784 -0.24853082282608985 -0.058131502136670565 0.085473278750641798 -0.050042805150677286 0.015667295756587634 0.079504824587363895 -0.0090004571132101287 -0.015176361622570701 -0.0032533360869063249 0.048932126053444304 -0.040565198518689782 0.05826068759299792 -0.19066651868600154 -0.0033776287506164671 -0.079411605332266905 -0.0022686933861543581 -0.023322189739530375 -0.0014836200186870462 0.051033225427784185 -0.10142769749538499 0.086635792352580551 0.033493042595203547 0.027064677852923488 -0.2066376488381077 0.07297488514879176 -0.060040901370758785 -0.049712772100368438 0.11536857860874561 0.0099403384081867968 -0.1627453054514999 -0.15655528848963018 -0.1014403470535658 -0.031995852450756507 0.011810625981424537 0.04870987026805837 0.0080371801404947145 -0.018437286489854331 0.061678788794668142 -0.019340453469591894 -0.033467648484137739 0.10119399713648392 -0.11072908158750364 0.018289509032177947 0.00047233589393333854 0.058096251200385286 -0.039541511216234157
leaf_weight=1227.1560222357512 58.406577453017235 792.5584092438221 9.3925760686397535 2.4437738880515099 100.52417393028736 84.265379317104816 80.494550123810768 26.173452705144882 134.79575963318348 185.25823065638542 598.2404327839613 495.27047803252935 343.3264035359025 38.757768481969833 230.03190093487501 6.0144111067056656 54.976458758115768 10.393985375761984 35.345959529280663 186.76959025114775 145.60219836980104 209.74612670391798 8.502251982688902 338.90572643280029 122.55631472915411 26.724460512399673 9.6648622006177884 4.2772450968623152 402.88483695685863 344.53469893336296 7.4056263118982306 151.85730609297752 8.7868453636765462 3.3509975075721732 7.8074361085891715 349.04211428761482 277.18012008070946 104.44783841073513 482.95006201416254 608.92958964407444 60.093480341136456 2346.0248685702682 12.326862618327139 82.953608602285385 5.6286294534802428 10.893682479858397 158.82009176909924 44.343019597232342 553.57334493845701
leaf_count=4953 357 10373 50 20 406 551 330 106 1375 750 2442 2099 2267 280 1889 33 333 45 144 1032 890 1640 61 3578 984 199 65 33 1656 1414 30 936 63 14 32 1434 1213 661 1995 2513 301 9525 50 622 43 87 648 223 2288
internal_value=0 0.0683386 -0.0133184 0.050378 -0.0167592 -0.0115001 0.000794722 0.017513 0.0373133 -0.0240647 -0.0306952 0.0074936 0.0161518 0.029448 0.0342438 0.0305242 -0.0218465 0.0484353 0.0595449 -0.00176253 0.00118069 0.0215331 0.0411762 0.0821968 0.00066825 -0.0378731 -0.0737122 0.022024 -0.0448156 -0.033397 -0.0462391 0.0369746 -0.0855694 -0.0123447 0.0335414 -0.0168701 -0.00210947 0.0194826 -0.0165504 -0.00672735 0.0501521 -0.0209343 0.0690955 0.0806809 0.0468057 -0.030599 -0.0208986 -0.01012 -0.0306209
internal_weight=0 2002.68 9587.73 1210.12 8585.34 4991.88 1453.45 746.73 857.879 3593.47 2295.06 625.276 1002.39 723.083 664.676 556.175 60.9909 130.005 119.611 446.212 436.82 434.645 223.877 352.243 210.767 75.1471 48.4226 135.62 940.083 537.199 351.94 495.184 13.0641 1298.41 71.2519 706.717 357.675 250.05 3538.43 1091.88 63.4445 2446.55 121.454 109.127 215.375 13.3375 1354.98 642.583 712.393
internal_count=63033 21047 41986 10674 35784 21033 6594 3617 6989 14751 9451 2839 6202 5614 5257 3569 366 740 695 2633 2583 3368 1744 3685 1624 544 345 1080 3850 2194 1444 3203 96 5300 347 2977 1543 1551 14439 4508 315 9931 778 728 1683 107 5601 2665 2936
is_linear=0
shrinkage=0.1


Tree=16
num_leaves=50
num_cat=2
split_feature=100 100 100 80 10 51 90 23 79 87 42 22 37 99 89 92 47 93 43 73 30 80 65 83 61 16 31 68 65 58 25 95 96 40 22 38 38 22 32 39 49 90 43 47 71 99 27 98 73
split_gain=944.04 97.3742 82.8151 54.258 32.0219 36.2097 29.7084 25.5527 24.5605 24.7867 21.4299 21.4819 24.7668 19.8145 25.2257 18.7902 19.1402 27.3867 18.1062 17.7907 24.0486 19.7515 19.3817 17.476 16.8858 16.7038 17.0081 16.6952 16.6089 16.4472 15.5957 24.2464 14.878 14.8589 16.6042 14.5804 14.5682 14.2197 14.0809 13.2957 13.1684 13.1202 13.4859 12.987 16.4781 18.7685 17.523 12.985 13.7763
threshold=8.8914873686007933e-07 1.6126343325595375e-05 1.7446391353814763e-07 2.7500000000000004 0 5.3750000000000009 4.0099999904632577 33.854999542236335 -4.8450000286102286 -2.195000052452087 4.3650000095367441 34.594999313354499 37.379999160766609 -0.7250000238418578 1.6600000262260439 4.5250000953674325 5.2799999713897714 -2.0949999094009395 4.3550000190734872 -1.2549999952316282 31.144999504089359 -1.014999985694885 -1.8199999928474424 3.9550000429153447 -0.98499998450279225 1 31.630000114440922 -3.9550000429153438 -4.5599999427795401 5.2950000762939462 34.335000991821296 -3.2450000047683711 -1.5449999570846555 5.0850000381469735 36.284999847412116 36.414999008178718 35.635000228881843 31.185000419616703 33.405000686645515 31.515000343322757 4.8450000286102304 -2.4200000762939449 4.4249999523162851 5.5150001049041757 -2.9300000667572017 -1.4900000095367429 34.305000305175788 -0.95499998331069935 -7.8599998950958243
decision_type=2 2 2 10 1 2 2 2 8 2 8 8 8 10 2 2 2 2 10 2 2 10 2 2 8 1 2 2 2 10 2 10 8 10 10 10 10 8 2 8 2 2 10 2 2 10 2 10 2
left_child=2 3 8 6 5 28 10 -6 19 13 38 12 30 24 -15 16 -11 47 -5 21 -21 22 29 33 25 26 32 -19 -4 43 -12 40 -10 34 41 -24 -16 -9 -2 -27 -32 42 -23 -1 45 -45 -46 48 -18
right_child=1 -3 4 18 7 -7 -8 37 9 15 11 -13 -14 14 36 -17 17 27 -20 20 -22 23 35 -25 -26 39 -28 -29 -30 -31 31 -33 -34 -35 -36 -37 -38 -39 -40 -41 -42 -43 -44 44 46 -47 -48 -49 -50
leaf_value=-0.013798963272496865 -0.062804000089577261 0.097631445361572089 -0.02981435947846663 -0.029139851744742845 0.053008235894911743 0.025646700955358787 0.077774673258758267 -0.081329937090565685 0.086940757776584388 -0.0039818566293228592 0.034894056134997124 0.055869548969942284 -0.27983857391634798 -0.0075759094928952433 0.018095186303303732 -0.09045845166028732 -0.070862439614659406 -0.032254987562655317 0.086490468690510455 0.074687032014129948 -0.0080688995852351477 -0.13181334749041945 -0.047143357569969749 -0.0070932344178685023 0.028319459513610042 -0.050124853385777594 -0.0089549248370968306 0.030370821116076231 0.0014458313688416108 -0.02456338356108103 -0.28122834160317456 0.006389598471128014 -0.053189499240610498 -0.031657453740178088 -0.11958052744714863 0.033262003236927733 0.097665419251518004 0.013392812139837699 0.029895266720770926 -0.021554253672988369 -0.058664503258648582 -0.067449320997770221 0.019101023433464735 0.018427630428707414 0.061334911999620559 -0.027675679511028995 -0.13882971866449798 -0.017287584404476499 0.088864150699034264
leaf_weight=1537.4202555716038 40.353139564394951 622.72705194354057 329.18212495744228 14.087397970259188 256.39271610975266 357.0691714733839 145.29696448147297 17.417475163936615 35.467685349285603 406.75140949338675 288.59702342748642 268.18087062239647 2.7412607818841925 330.05037139356136 55.786809429526329 19.10378859937191 5.7206681221723548 72.544227480888367 349.80438886582851 41.937025226652622 215.86144575476646 6.9513208270072928 293.77191077172756 243.50675090402365 73.907418996095657 188.10908218473196 293.32699516415596 103.01819617301226 351.39932508766651 1149.5293891504407 4.4417484998702985 125.85271236300468 9.6349190920591337 991.58705783635378 39.956128038465977 24.428073719143867 39.16171482950449 175.91015263646841 27.589481242001057 1214.5727087631822 6.6213606894016266 99.13457940518856 39.961773701012135 189.25393418967724 69.514330118894577 165.53607766330242 4.6671772003173819 15.886660911142824 96.278473779559135
leaf_count=6262 237 8886 1688 112 1596 2135 1630 93 191 1666 2515 2332 21 1347 250 77 23 294 4092 336 891 29 1195 1005 309 772 1196 451 1915 4686 31 944 40 4101 166 99 199 1008 198 4966 49 405 172 770 385 673 20 73 502
internal_value=0 0.065225 -0.012014 0.0493795 0.00966918 -0.000141883 0.0363249 0.0316068 -0.0160092 -0.00875882 0.0284459 0.0336757 0.0197774 -0.013945 0.00549128 0.00739158 0.0100613 0.0295266 0.0820141 -0.0202056 0.00539331 -0.0215648 -0.0174619 -0.0314798 -0.0184961 -0.0204833 -0.000159603 0.00449318 -0.013674 -0.0150611 0.0217077 -0.00608722 0.0570058 -0.0365226 -0.0624584 -0.0409707 0.0509141 0.00485895 -0.0251616 -0.0252061 -0.148022 -0.0468308 -0.00326063 -0.0095062 0.00587892 -0.00308301 0.0487414 0.0668077 0.0799058
internal_weight=0 1896.29 9559.71 1273.57 1487.37 1037.65 909.675 449.72 8072.34 2959.32 764.378 696.435 428.254 2240.02 424.999 719.303 700.2 293.448 363.892 5113.02 257.798 4855.22 3434.12 1421.1 1815.02 1741.11 338.43 175.562 680.581 3115.92 425.513 136.916 45.1026 1177.59 186.004 318.2 94.9485 193.328 67.9426 1402.68 11.0631 146.048 46.9131 1966.39 428.972 354.79 74.1815 117.886 101.999
internal_count=63033 21047 41986 12161 8435 5738 7957 2697 33551 12356 6327 5892 3560 9270 1796 3086 3009 1343 4204 21195 1227 19968 14090 5878 7474 7165 1427 745 3603 12796 3539 1024 231 4873 772 1294 449 1101 435 5738 80 606 201 8110 1848 1443 405 598 525
cat_boundaries=0 1 2
cat_threshold=16 8
is_linear=0
shrinkage=0.1


Tree=17
num_leaves=50
num_cat=5
split_feature=100 100 100 83 2 80 71 14 74 96 89 49 17 73 24 50 72 56 44 34 92 61 26 100 82 63 64 23 62 48 20 74 59 79 95 31 16 5 73 80 21 63 25 39 37 66 84 34 93
split_gain=806.047 95.9654 67.4966 52.0139 31.7378 27.03 22.3398 24.9323 24.0331 30.4753 32.7481 43.1164 24.8064 22.8189 20.9342 20.4086 23.988 19.8179 19.0476 18.8056 18.4036 18.2203 17.9006 17.6309 22.4424 18.7271 17.6112 17.0989 16.6638 15.3618 15.0652 15.0298 14.8124 14.7866 14.7273 14.6988 14.6447 21.8169 14.5693 14.7422 14.5584 14.5223 14.2526 14.7965 14.0738 13.9944 13.9669 13.7059 13.6894
threshold=8.8914873686007933e-07 1.6126343325595375e-05 2.2169102464886239e-07 2.8249999284744267 0 2.7500000000000004 -6.5350000858306876 1 -4.5750000476837149 -3.1650000810623165 -0.47499999403953547 5.3150000572204599 2 -6.9900000095367423 36.194999694824226 5.1949999332427987 -3.2400000095367427 4.9249999523162851 5.9750001430511483 36.284999847412116 1.6600000262260439 -0.4849999845027923 33.629999160766609 1.3313809432702331e-07 -1.8550000190734861 -6.0750000476837149 -8.1700000762939435 34.245000839233406 -8.1249999999999982 4.9749999046325692 31.809999465942386 -0.54499998688697804 4.7249999046325692 -1.3100000023841856 -1.4900000095367429 37.094999313354499 3 4 -8.1700000762939435 -3.4750000238418575 34.014999389648445 -10.355000019073485 36.094999313354499 31.185000419616703 33.774999618530281 -8.0250000953674299 -1.0549999475479124 33.305000305175788 2.9450000524520878
decision_type=2 2 2 2 1 8 2 1 2 8 2 2 9 2 2 2 2 8 2 2 2 10 2 2 10 10 2 2 10 2 8 2 10 10 10 2 1 1 2 8 8 8 2 8 10 2 2 2 2
left_child=2 3 6 4 14 19 7 13 -8 -10 23 12 20 29 -2 16 21 -4 32 -5 -12 42 40 36 -25 -26 -6 33 -21 -1 -15 41 -17 -19 -29 -14 37 -11 39 -31 -13 -18 43 -9 -24 -46 -45 -34 -49
right_child=1 -3 17 5 26 -7 8 15 9 10 11 22 35 30 -16 18 31 27 -20 28 -22 -23 44 24 25 -27 -28 34 -30 38 -32 -33 47 -35 -36 -37 -38 -39 -40 -41 -42 -43 -44 46 45 -47 -48 48 -50
